// af1_weight.h
// 2017/11/30 08:54:20 by marsee

const float af1_fweight[784][50] = {
	{-0.020056570709, -0.00381416779014, -0.00309129186518, 0.00576749624406, 0.00617170302047, -0.0100939983684, -0.00323398680638, -0.00701277905401, 0.0232183135274, -0.00716023411638, 0.023644639252, -0.00240083065158, 0.0142417891806, 0.00581185933111, 0.0107528565712, 0.00751787993629, 0.0110687400642, -0.0111481869677, 0.00890499000327, -0.00579161350745, 0.00559113405297, -0.0111988032108, -0.0237334159932, 0.0157042334192, 0.0135753380292, -0.00984458583019, -0.00436032918692, 0.00984223745752, -0.0102440215124, -0.0130382933996, -0.00411335992555, 0.0123971039544, 0.00102068398989, -0.0113817452925, 0.0051516330991, 0.0012038129615, 0.0161770531901, -0.00395539211938, 0.00955791902965, 0.00724787157026, 0.00489735980697, 0.00658460349842, 0.00518852400598, -0.0270450587494, -0.00123013020968, 0.0231081750846, -0.00389358255316, -0.000820556714329, 0.00242061489317, -0.0113969101257},
	{-0.00865899909358, 0.0045111691536, -0.00954701967739, -0.000321059097779, -0.014388932861, 0.0142038797225, 0.00258265190202, -0.0222021131142, 0.00367149215694, 0.00246981118335, -0.00230379658542, 0.0102961029369, -0.00341919205456, -0.0152565303623, 0.014067915795, -0.017531156231, 0.00878710042108, 0.00586184031553, 0.00949715461701, -0.000717496716872, 0.000639827261623, -0.00442116499651, -0.00242363708562, -0.000300922698184, 0.0170013158972, -0.00235396776024, -0.00350871607208, -0.0295269168253, -0.0108279427475, 0.0156599766772, 0.00253627792411, -0.00274842140501, -0.0248983090014, 0.000250341745804, -0.00792201315489, -0.0192703304017, -0.00328197895987, 0.00557972061872, -0.0143775637706, 0.0103095454659, 0.0216790718795, 0.01346475631, -0.0144583150428, 0.00174575789762, -0.0156778921721, 0.00842122205676, 0.016475427286, 0.00999946349551, -0.0051315729075, 0.0153139259975},
	{0.0175065233023, -0.0238678068008, 0.0138054786936, -0.000371977079082, -0.00395073117908, -0.0107874472013, -0.0183492478454, 0.00631280112369, 0.00330004881094, -0.00309974791816, 0.00964593767223, -0.0145676939437, 0.0076006129312, 0.0128465800195, -0.00749081503221, -0.00100515950112, 0.00442609609852, -0.0115655073231, 0.00508980352454, 0.00851639632499, 0.0120922556758, 0.00271934908499, -0.00247628051226, -0.011886804691, 0.00665983194425, 0.00512868771132, -0.00912741680616, -0.00350047989757, -0.00185284746398, 0.000661417397697, -0.00969231588232, 0.00578022552082, 0.0139368016298, 0.0059391815155, -0.00572255457924, -0.00463834884296, -0.0162368603257, 0.00611843092681, -0.0135392711541, 0.0178446142087, 0.00780441677203, 0.00620430343009, -0.0075958919684, -0.00273081529281, 0.00333557275816, 0.00338672620998, -0.014097467719, 0.000852527000715, 0.00394063251711, -0.00518993129062},
	{0.014192938322, 0.00454233267196, 0.0133090754462, 2.57647703443e-05, 0.000161649646181, -0.00701891352347, -0.0187693048015, 0.010461758854, -0.00132729678417, 0.00713619978824, 0.0015714936583, 0.0068688465347, 0.000855954804907, 0.00483432721129, -0.00222778329342, -0.00787405112371, 0.00793623905842, -0.00762172614136, 0.00522282803124, 0.00288517739374, 0.00135150045806, -0.00966069596577, -0.00907888646535, -0.00185022925513, -0.019949900066, 0.00470668904116, 0.00196110020339, 0.0135864512336, -0.00201536011362, -0.0133710776051, -0.00355022639687, 0.014483270898, -0.0089373051893, -0.00453709450758, -0.0102639156016, 0.00723823166351, 0.00356948746398, -0.0086821420451, 0.00915750893518, 0.00192654574745, -0.00997871695332, 0.0214745971876, 0.00108282218971, -0.00898648316167, -0.00578420008263, 0.0105770488961, -0.000818535442612, 0.0139190729143, -0.003602328163, 0.0107718322872},
	{-0.00334015838798, 0.0036758718463, -0.0106355120416, 0.00348099539371, 0.0248813606989, 0.00111265070625, 0.000249618530553, -0.000343713932137, -0.00296644406996, 0.0132019436258, -0.00792603685836, 0.00286731816536, -0.0077913698488, -0.00107278994169, -0.00385074989843, 0.0144310340365, -0.00767147276151, -0.00659038607983, -0.0173968740745, 0.0103083853427, 0.0133605577539, -0.0104902294413, -0.00843268274506, -6.08812102854e-05, 0.00531840819438, -0.00638927780393, -0.00993168121566, -0.00733136995909, -0.00303876643686, 0.0100580436505, 0.00684301678213, 0.00746079307493, -0.00784280406844, -0.00314887887597, -0.00302850815179, 0.00851345939072, -0.00828922062206, 0.0171554504682, 0.00941898017893, -0.00422195247247, -0.00299086046116, 0.00396791111267, 0.0210027675814, 0.000455588276449, -0.00493323703748, -0.00570933887937, -0.00509392383489, 0.0202041115969, 0.0048517580204, 0.0122736827963},
	{0.000761766379104, 0.000889016925681, -0.0129798201888, -0.0026980955804, 0.0167350121725, 0.000526607173219, -0.000173940070229, 0.012689612182, 0.0100206481836, 0.0123854159438, -0.00561546245951, -0.00291643853666, 0.00343651471647, -0.00396429336244, -0.00373973483402, -0.00569995405288, 0.0147141912401, -0.0039133169158, 0.00294465151593, 0.015402052769, -2.32582835745e-05, 0.000916523788755, 0.000924990952564, 0.0103238921313, 0.0138038874233, -0.0108754246368, 0.00297567494424, -0.0155163119593, 0.00989172299892, 0.0102497042457, 0.0140256493994, -0.0180516697006, 0.00468382795034, -0.000641162429932, -0.0109909031378, 0.00117110174699, -0.00777529893975, -0.0118478355984, -0.0072716291044, -0.011017301066, 0.0195106343239, -0.0168595907127, 0.00597608090419, -0.00516301541199, 0.00858243963877, -0.000956695755757, -0.00173684112853, -0.00646889182192, 0.00208946722315, 0.000603968080648},
	{-0.00939489251789, -0.0128377616662, -0.00739588913747, -0.009460854889, -0.000314405475553, 0.00257825675725, -0.00578436447362, -0.013943758644, 0.012986938478, 0.00528807522694, 0.00420056019503, 0.0011679058998, -0.00643977948546, -0.00358370399995, 0.0116998267266, 0.00323131485399, 0.00900055734001, -0.0058015229731, -0.019577308436, 0.0120712398248, -0.00320148321436, -2.90006226734e-05, 0.0104270861265, 0.0254897170619, 0.0173171482509, 0.00149148186859, 0.00920873110334, 0.00643581968625, -0.00869341111059, 0.0207391345188, 0.0141997337558, -0.00194031607219, -0.00454129272403, 0.0113426738186, -0.00268794493413, 0.0110776668025, -0.00863322140131, 0.00657583052372, 0.0178893450882, -0.0113942433773, -0.0022657052997, -0.012990448654, -0.00272093673205, -0.00784939404047, -0.010400646365, -0.00512863656695, 0.00643950134275, -0.00477899200297, -0.00323899970772, -0.0155403236636},
	{-0.0124889643908, -0.00222209199139, 0.00477709848893, 0.0124187589193, -0.00551574844036, -0.00705188921971, 0.0113176819414, -0.00249458485836, 0.00970660721918, 0.0102465236436, -0.00451431030424, -0.01792569141, -0.000701464791516, -0.00776586513035, -0.0168741649194, -0.0170870892814, -0.00700668729558, 0.0108919624899, 0.00330628512705, 0.0165642420266, 0.0245390334402, -0.0122232225579, -0.00848966464398, 0.00538788015081, -0.0124644045526, 0.0036209697016, 0.00367558327925, 0.00538772472291, 0.0114247323741, -0.0103416765788, 0.00690045274594, -0.0081940574443, -0.000328178819961, -0.00396317865627, -0.0197992778775, -0.00508328940405, 0.00622279012104, -0.00573950268642, -0.0171561139096, 0.00382440778358, 0.000690957782541, -0.00362183247432, -0.00372008554848, 0.00815451051692, 0.0157335037467, -0.00622269008749, 0.000772244175869, 0.0102066749463, -0.00326189124853, -0.00796521364124},
	{-0.0144477687033, -0.0129532945383, -0.00387694068355, -0.000383273962255, 0.0223034047702, 0.00114737856384, 0.00520735610781, 0.000556070625251, -0.0196237074927, -0.00979232021722, 0.00409301939481, 0.000155269952038, -0.000239467894869, -0.00184140490214, 0.00510329652964, -0.00483549724436, 0.00161044901838, 0.0111537381957, -0.0038239217389, 0.000328884678712, -0.0139090288631, 0.0242672175787, -0.00534753581992, 0.0020862476231, 0.00960301275002, -0.0114132629676, -0.00690807103609, -0.00585574005354, -0.020342062692, -0.0117951147987, 0.00301165083609, 0.0242430840844, 0.0200047842528, -0.00088308201468, -0.00936661242533, -0.00360268776505, 0.00257497714362, -0.00625249333393, -0.00834589933838, -0.0061557739377, -0.00853563117032, 0.0211150342434, 0.0079703187929, -0.00578545891694, 0.0119193745937, 0.00456951788468, -0.013595162351, 0.0194004777834, -0.00205688906096, -0.0180112736272},
	{0.0126088350439, -0.00140280033401, 0.0106577366476, -0.00992978452687, -0.007168335816, -0.00661642235459, -0.00556032567242, -0.00259573060349, 0.00132366534494, 0.00192458460201, 0.000404840162513, -0.022717931188, 0.00753733666791, 0.00610071109935, 0.00976470546589, 0.00334024130152, 0.0165361929466, -0.00201659123185, 0.0125344476885, -0.00229698501038, -0.00243737524277, 0.0254163892573, -0.0139070991144, 0.00755899583993, -0.0055266610821, 0.0181953234891, 0.0134564200873, -0.00276537616148, -0.00462130788185, 0.00937520247087, -0.00288593105454, -0.00205191057914, 0.0100904336026, 0.00773945344423, 0.00452798944248, 0.00539406539847, 0.000752446323739, 0.0138221604986, -0.00701926005878, -0.00445740451607, -0.00359786148441, -0.00564420569722, -0.0115854743347, -0.00619464608449, 0.0158253112862, 0.00475752382375, 0.0055617742423, -0.0175730036668, 0.00903771474564, 0.0185050439457},
	{0.00314660893364, -0.00171411484264, -0.00652061934628, -0.00318711800383, 0.00144457141545, 0.00232667963275, -0.0131309776117, 0.00154949361329, -0.0103621533454, -0.0238302068057, -0.0114484681857, 0.0184726625378, 0.00103972915281, -0.0162534917857, -0.00312182089497, 0.0153055343074, 0.01770209679, -0.00213398757725, 0.0129544955545, 0.00995466326445, 0.00840225103118, 0.00428829923379, 0.00732577196673, 0.000715621161898, -0.0025274764848, 0.00807357005012, -0.0253194221119, 0.00105200489255, -0.00156500199394, 0.0051144936615, 0.0150162989807, -0.0023871810647, 0.00400608049431, 0.00475604263994, -0.00477572661587, -0.00140498631384, -0.00177992129034, -0.023651722662, -0.00155621490753, -0.00996842430864, 0.00968985155737, -0.0162626034472, -0.00660782932291, -0.0151642137788, -0.0251784804952, 0.00115242983323, -0.0144198325821, -0.00410812317068, -0.00193611736597, -0.00618329275546},
	{0.00525412314713, -0.00388644589847, -0.00736319128625, -0.00548024662775, 0.0205876000869, -0.000580991864645, -0.00617961208249, -0.00503809021603, -0.00367692345694, 0.00819837046056, -0.0104458986089, -0.008732794974, 5.05553874578e-05, 0.000411723584125, -0.000460657370391, 0.0139089009554, -0.000874961748423, -0.00571510907006, -0.00609223144596, -0.00191535985204, 0.0161871764627, 0.00289517933359, 0.00585084815712, -0.00859999995056, -0.0146455484652, 0.00818058153083, 0.00266347008783, -0.00454522486932, 0.00123183578755, -0.00102999209351, -0.00137018396338, 0.00743473966961, -0.00375979150519, 0.00242461856608, -0.0122942149691, -0.00200305721321, -0.00224409986319, 0.00362757632047, 0.00605413839182, 0.00406373898014, -0.00418890517619, 0.00183018009249, 0.00960350209224, -0.0038274412204, 0.00284579070893, 0.0198052804817, 0.00924209894001, 0.0188146724001, -0.00459883843538, 0.0126406248378},
	{0.00806768453944, -0.0098787286693, -0.00791006176884, -0.00334621336554, 0.00321127406013, -0.00157626331279, -0.0064750932826, -0.0124039959011, 0.0066598135142, 0.0122896656911, -0.00402736463557, -0.0057017849817, -0.000370898330929, 0.00321421364212, -0.00489802976514, 0.00287297336863, 0.00794688640441, 0.00919688633903, -0.00647333637356, 0.00939564069176, -0.0174310008982, -0.00565175083047, -0.0092087945156, -0.0132091781149, -0.0118449428858, -0.00168117631862, -0.0047142114459, -0.0076318226417, -0.00432665062715, 0.0064226133341, 0.00983807339189, 0.0271031344254, -0.0115475601337, -0.0067683524685, 0.0182217241356, 0.0141242668565, 0.00392373509058, 0.00676997470362, -0.010085796026, -0.0020473113499, -0.00633185615105, -0.0176720231917, 0.0180022381582, -0.00728115623734, -0.00839049629069, 0.0121960888528, -0.0222719581056, -0.0151645031728, 0.00527228453996, -0.0291924049659},
	{-0.0046218539928, -0.00118918804855, -0.00689024105906, 0.0100026357059, 0.0101111264595, 0.00637810113675, -0.00508222386271, -0.00534004377047, 0.00730534272781, 0.00868607740169, -0.00839957359943, 0.0171173387075, 0.0101312448611, -0.00142438643591, 0.00182319400982, -0.014608402566, -0.00269015610637, -0.00698719213704, -0.00490254115837, 0.00101683632047, -0.0140777711089, -0.0167582977498, 0.00975339167955, -0.0106396020116, 0.00735976303606, -0.00372587013867, -0.0146673419093, -0.00464342065381, 0.0109819476166, -0.0199187981096, -0.00458576769478, -7.30717067867e-05, 0.00632249195378, -0.0217903003947, -0.00040376994539, -0.00317155233079, 0.0167044366069, -0.00848939188146, 0.0116307131373, 0.00971953750621, 0.000428821227563, -0.00500737552161, -0.0028405754086, 0.00548205349183, 0.0143107706579, -0.00393697142337, -0.00144337296008, 0.0186285453098, -0.0232659170809, 0.00507335828578},
	{0.0103916034103, -0.00177534034767, -0.0164996408188, -0.00266735255463, -0.00418340524095, 0.0132483970135, 0.00462981507177, -0.00695163222536, -0.00494958523134, -0.00500830265284, -0.0111947614356, 0.00844735822967, -3.94206240035e-05, 0.0100135025695, -0.014300850077, 0.00435056057607, -0.012897305889, 0.00157371398977, -0.0119871269371, 0.0139756290759, 0.00716830369006, 0.00715914956365, -0.00724498343252, -0.0016879325557, 0.00471354475872, -0.0144805547301, -0.0127166860322, 0.00787473900808, 0.0038891266242, -0.0052643250013, -0.000798263876824, 0.00157425244851, -0.0044655478906, 0.00762485839378, 0.00198595093848, -0.00695037135635, 0.00320490107474, -0.0218978032454, -0.00257284059635, -0.00456340664731, 0.00259462479458, -0.00414708426858, -0.00914551657604, 0.00079686799696, -0.00559566805622, 0.0042670021821, 0.00539552732525, 0.0112774899006, 0.00365162205857, -0.0150918567923},
	{-0.0230340581769, 0.0134738972803, 0.00386743807707, -0.0197629165091, 0.0043229853851, 0.00738998574715, 0.00955924016379, 0.0127904036663, -0.00801588508838, 0.0026115484464, -0.00926513608719, 0.0258101917732, -0.0164330952105, -0.0127153625516, 0.00779489170932, 0.0127266902763, -0.00569887946919, -0.0186096434744, -0.0146736157996, -0.0010807054736, -0.0207286552695, 0.00132702785746, -0.00459828230913, -0.0159077056925, 0.00944659083068, -0.017097698327, 0.0237990365531, -0.00235806564326, 0.00552282500425, 0.0102222185873, -0.0073650462407, 0.00502020157401, 0.011523599358, 0.000338510166622, -0.0115435755736, 0.00124673513973, 0.0118067157049, 0.00883569555866, -0.00862261191694, -0.00817238518429, -0.00705699625798, -0.00671923690104, 0.00331070430926, 0.00452078514063, 0.00299064592286, -0.000298423946276, 0.00398368342951, 0.00300208015953, -0.0121459516707, 0.00417599002838},
	{0.0140980452092, -0.000583671084871, -0.0228773352161, 0.00414269497554, 0.00374560686575, -0.00467697213524, 0.0132248124779, 0.00952647642399, 0.00829689050027, 0.00619646342709, -0.00251194121342, 0.00706945691513, 0.000181829897887, 0.014118197089, -0.0245644944569, 0.0178009300023, -0.00326614184414, -0.0148176386319, 0.0062460310606, -0.0061537259584, 0.0192108577536, 0.000475822207899, -0.00465224786321, 0.00944664202628, -0.00939575709733, -0.0179546094533, 0.000726476644886, 0.0200707109501, -0.00578979625763, 0.00846273785471, -0.0144063386092, 0.00150848422519, -0.00297920932544, -0.00753758745421, -0.008205077715, 0.00702477478197, -0.0141537925157, -0.00667467441431, 6.48211552705e-05, 0.00361224123734, -0.00858872284642, 0.0178975095465, -0.0106817191836, 0.00274400627868, -0.0155262681232, 0.000499183887225, -0.00439593247162, -0.0035873295778, -0.00381498333974, -0.00323246889192},
	{-0.00195838075878, -0.00833902973002, 0.00756703639567, 0.00712197218809, -0.00722999538284, -0.00263192556696, -0.00914333534432, 0.00424284754459, -0.00342184848669, 0.00275092581537, -0.0244691830614, -0.00231611030699, -0.0111061756771, 0.0154054752287, 0.00677973567734, -0.00656994284567, -0.0086969110536, 0.0124877382538, -0.00583059968984, 0.00990452074023, 0.00113428399435, 0.0141654395842, -0.000261800740742, 0.00154607063782, -0.00651154836647, -0.0103102403273, 0.00296840691409, -0.0201282158541, 0.0108723340307, -0.0148608658209, 0.0115870839877, -0.0034710246068, 0.00665782918601, -0.0070262203081, 0.00950736563617, 0.00960162152977, -0.014998319959, -0.00900372038643, -0.0031402037435, -0.000876657600609, 0.00682375117274, 0.00712270754201, 0.00588747985915, -0.0210797888811, -0.00128857466997, 0.00177122546362, -0.0111785027921, -0.00460275409499, 0.00149625271617, -0.00682101270381},
	{0.00138300306364, 0.00402112354896, -0.0133734900299, 0.00901997828512, 0.00176320126884, -0.00222213792858, 0.00742046317191, -0.00989522081737, -0.00604223677441, 0.00981460825578, -0.00233732339708, 0.0052242546955, -0.00708048755686, -0.00460700738715, 0.00792205579872, 0.00884919553328, -0.00952434865778, -0.00905944800798, 0.00497749936251, 0.00461443532257, 0.00659511466268, -0.0182363144924, -0.00416657331219, -0.00930185959569, -0.0125983663195, -0.0151244259279, 0.00148924953608, 0.0102429011885, -0.0055812809099, -0.00205251029633, -0.00273496312173, 0.0088839037053, 0.00480148767656, 0.0196177864672, -0.00745829379438, 0.00151631773006, 0.00354961468616, 0.00210601647302, -0.0175490802382, -0.0349187816034, -0.0147518314393, 0.000372740087869, -0.00181350354922, 0.0028336563668, 0.0149195793009, 0.0143777278093, -0.0128340322615, 0.0170230013292, 0.0057776747251, 0.0193173726071},
	{-0.00296962180997, 0.00369859550044, -0.0007022132687, -0.00114705264486, -0.0115139362439, 0.0025709579871, -0.00828906308183, -0.00168326735309, 0.010327848555, 0.0117668000036, 0.0103203791602, 0.00398043757026, -0.0123161802436, -0.00711840241913, 0.014106047565, 0.0141182182162, -0.00238741512186, -0.0153595649002, 0.0259538997642, 0.00986006599443, -0.00166566450076, -0.00518080082949, 0.00899288366969, -0.0103800924016, -0.00965349440922, -0.00809581229567, 0.0113136826224, -0.0271599478908, -0.0224641084876, 0.00576259701855, -0.0156998829797, 0.0181628446371, 0.00838046249772, -0.00878603132126, 0.0114669867849, -0.00803008313943, -0.014178723863, -0.0202864064556, 0.0022901808826, 0.0139907956856, -0.00203097163797, 0.00739174220771, -0.00688108295488, 0.00787390060989, -0.0177870368368, 0.00616697749651, -0.00724262650601, 0.00402240274046, 0.0124640415017, 0.0154480848723},
	{-0.00718580965452, 0.00475658538168, 0.0006042856951, -0.000463143048675, -0.00542439627399, 0.00993858547252, 0.000636796772576, -0.00508783658704, 0.0045092026797, -0.00177882784159, 0.0040868655537, 0.000158758347949, -0.011061302015, -0.0194517426707, 0.00685076023614, -0.00246262710636, 0.00314456987532, 0.0122304764683, -0.00420949733508, 0.00293166801853, -0.0012239703212, -0.00329004012527, -0.00436304125197, 0.00992959606183, -0.00128358101329, 0.000719670911878, 0.0128155588279, -0.00476741841798, 0.000103071836155, 0.0102214587051, -0.0121891553287, -0.000322722019521, -0.00689961844253, -0.000426907595869, 0.0118656010732, 0.0172773505208, 0.0082508261348, -0.0107146985385, -0.000854165711347, 0.000314853496624, 0.00858629758149, 0.0123969979324, -0.0141932607523, -0.00371646016007, 0.00474809917089, -0.00233386343052, -0.0146327221378, 0.0181673413418, 0.00499688505947, 0.0165124167129},
	{-0.020065204708, 0.013216380264, -0.0033278023365, -0.00340293065008, -0.00359368311572, -0.0143042190115, 0.00746301693059, 0.000827692695235, 0.00977493689579, 0.00612097358204, 0.00771995481834, -0.00225911371856, -0.0126190368018, 0.00371936457551, -0.00945632473821, 0.00146154749212, -0.000979651687154, 0.000275626017124, -0.00518545805608, 0.0153080574239, -0.00910818514144, -0.00228667569776, 0.0118062519778, -0.00155614073868, 0.00197380915917, -0.0199642880158, 0.0154905305691, -0.0160517651248, 0.0133827018516, 0.00147613708077, 0.0191674160313, -0.000367767155058, -0.00513222473654, 0.000873119688662, 0.00718542655723, -0.00106636477808, -0.0116384573749, 0.00712387541244, 0.00605161742516, 0.00817101913295, -0.0102443186111, 0.0171305130673, 0.00346214729385, 0.00390527762354, 0.00542951147143, 0.00541414433156, -0.0109091476394, 0.00775698028497, -0.00492970801571, 0.0171342056696},
	{0.000559409600019, 0.00723368145619, -0.0152157673161, -0.0150633561995, -0.000961883202924, 0.00362678936839, 0.00119124692089, -0.00189758060377, -0.00346929399458, 0.00422831987574, 0.0016091518664, -0.00769445835337, -0.00552786335705, -0.00269674340241, -0.00537361051267, 0.0140318087433, 0.00301879901154, -0.0191828555147, 0.0210603746123, -0.0117380837645, 0.00915248016526, -0.0119064564768, 0.00472354382388, 0.00186920021839, 0.00399355985725, 0.00408623457541, -0.0125847101915, -0.00528831250335, 0.0159641402198, -0.00644949690603, 0.00480454230541, 0.0118749515247, -0.00738431009747, 0.0017728023273, 0.0165105092979, 0.015161693218, -0.000644346579748, 0.00712765552386, 0.0110439033931, 0.00531412490279, -0.00315321090828, -0.0107199755436, -0.00404436364791, -0.00415921114216, 0.00412860257921, -0.0026658698323, 0.000678044953451, -0.00899114899459, 0.00240781208059, -0.00437170642761},
	{-0.0047126043436, 0.00962143724734, -0.00852687237361, -0.0226775514573, 0.0113977691312, 0.0133683883104, 0.0105147659061, -0.000922663623184, -0.0305558977355, 9.76808816661e-05, 0.00418056864661, 0.0267464292081, 0.00758561871427, 0.00193727466171, -0.00571211870882, 0.0135014784366, -0.00673551389691, 0.0285312146446, 0.00302581978349, -0.00349109338111, 0.00136342817515, -0.0122661880116, 0.00189064397916, -0.00558302778163, 0.0165524656948, -0.00655720568641, -0.00283882857176, -0.00985105362719, 0.00275234481766, 0.00995355588164, -0.0103434614188, -0.00727193534394, 0.0105151373148, -0.00300186069913, -0.0111608394769, -0.0046204895133, -0.0234638439507, -0.00864646576731, -0.021096513183, 0.00285091440297, 0.00554197684374, 0.00236062481928, -0.00998669777286, 0.00305457557079, -0.00111677714275, -0.0108125906364, 0.00823743416039, 0.00777973309506, 0.00999381944438, 0.00721947724757},
	{0.00457897501029, -0.00872102179219, -0.00229554354977, -0.00813436536078, -0.0221915758356, 0.0126981923625, 0.00923827131347, -0.000745554429675, -0.00360245315299, 0.0101515432789, 0.000419278163342, -0.0196473951195, 0.0102760092213, -0.00784536507138, -0.00338906468541, 0.00812868414545, 0.0151492826555, -0.000434724141392, -0.0050767838651, 0.00496246098062, -0.0171359229103, -0.00631406890351, 0.0159271746091, 0.0078290371597, -0.00540620294198, 0.00380655799206, -0.00691240960673, -0.00514475154705, -0.00980276120629, 0.018288080208, -0.0111995485164, 0.0264959926086, 0.0127575434017, -0.01780461834, -0.0157286089623, -0.00733746542742, -6.24776300441e-05, 0.00792199058673, 0.00223899755799, 0.000597881444541, -0.000312169159279, -0.00320449266876, -0.000960029145063, 0.0121545256036, 0.0138960031427, -0.00739410804708, -0.0108738489776, 0.00194719411704, -0.00188177733886, 0.0048099629462},
	{-0.0157805868642, 0.00265745976912, 0.00294637489208, -0.0105668202331, 0.00574641983012, -0.000984374071371, -0.00617640645985, -0.00673523237792, 0.00973672158584, 0.0118778669887, -0.00331223767813, 0.0120059913694, 0.0114095859656, -0.00767645000971, -0.0283254107922, -0.00974222290547, -0.000737798158057, -0.00901209526526, 0.0273714999344, -0.00380343922917, -0.000469692379666, -0.00348382532731, 0.00362654484652, -0.00618063541075, -0.00306861114423, -0.0110237798321, 0.00181929849549, -0.00846938230201, 0.00209033975372, -0.00535837440426, 0.0100288958617, -0.00286778934263, 0.0101374193947, -0.00767649338109, -0.0158360706691, 0.000825722347432, 0.000592847847942, -0.0154336000172, 0.0109834658545, -0.0129084088451, 0.00921069187289, -0.00558481622453, -0.0185196960413, -0.00864609116337, -0.00509617652938, -0.000408356025364, -0.0189643746434, 0.00422815480265, 0.0179780306137, 0.0114762233405},
	{-0.0182766853735, -0.00468342911619, 0.0108527182175, 0.00373308324612, -0.0108898664655, -0.00994139137484, 0.0114722138837, 0.00397273897032, -0.00285364210803, 0.00363142608711, 0.00323738517354, 0.0119314203981, -0.00162500401957, 0.00511074097801, 0.0104804648273, 0.00248506899411, -0.018843605515, -0.0125430118526, -0.0116841277321, -0.00596820394073, 0.00849322510756, -0.00976518168553, -0.00939909825038, -0.00796121971337, -0.00304405802595, -0.00822750425609, 0.00215408360253, -0.014388790087, -0.00197690278716, -0.00755162954399, -0.0115573391098, 0.00220493275348, 0.00479043734917, -0.00828693321754, -0.00206766872674, 0.0244669403825, -0.00858835556856, -0.0100272803599, 0.000768664886934, 0.00562977036577, 0.00110293755316, 0.0100951973452, -0.00692177845073, -0.0160672722304, -0.00346980068076, 0.00339062088261, 0.00824648837169, 0.00594639545368, -0.00865149638414, -0.00867597401417},
	{0.00985524264281, 0.00725126397474, -0.0257402897434, 0.00313607356845, -0.00793550026221, 0.0106128382573, 0.000889149800745, -0.00931963021322, 0.0096764726751, -0.0119788288016, -0.0185569866501, -0.000563730958555, 0.00169359469398, -0.00747354940039, -0.00384431663223, 0.00033835042016, 0.0105081784885, -0.00514126840127, 0.00528984269883, -0.00320165594639, -0.00162885608824, 0.00897594515387, -0.00390186277646, -0.0163888285854, -0.00287836901806, -0.00706129712935, -0.00916467811333, -0.00277530226044, 0.001151758167, -0.00422875437557, -0.00343670057401, 0.00434320979675, -0.0113029262376, -0.00125563162524, -0.00829609612359, 0.00102910562674, -0.00399355066954, 0.0015919779422, -0.000364874483442, -0.00757713302714, 0.000602449355354, 0.00432241472831, 0.000419929261723, -0.006490584124, 0.00233288011038, 0.00721762569236, -0.00230820936014, 0.00304697845252, 0.00742431917337, 0.0145816435694},
	{-0.0119394947339, 0.0088987157074, 0.0073545334339, -0.000681866176869, -0.00536289226501, -0.0137937414689, -0.0024446361434, 0.00525085535825, 0.00315594639991, -0.00263977835608, -0.0170346517952, -0.00284642297956, 0.00894787523286, -0.00905113325854, 0.00511065225485, 0.00311307222546, 0.00222076419844, -0.00650338672707, -0.0163676830841, -0.00646260634463, -0.00992573078837, 0.00540793276979, 0.000342676293847, 0.00300670937439, -0.00871693430315, -0.0262364272198, 0.0022513386462, -0.00220912635199, 0.00168192889417, -0.00682238673204, -0.00253301328756, 0.00322571610528, 0.000995988590024, 0.00411843959986, 0.0115818151579, 0.0107757790686, -0.0136105254162, 0.00825417780625, 0.0178797091124, -0.0143502507274, 0.0119280356152, 0.0139471997713, 0.000162818225769, -0.0140563094698, -0.00180022324956, 0.00368452091548, -0.0168918579516, -0.000300963283446, 0.0207931320488, -0.0172051750078},
	{-0.00320105630129, 0.0163349716625, -0.00663370199763, -0.00498722352503, -0.00812522661041, -0.0125887073363, -0.0121793784877, 0.000851708404522, 0.00571660537364, -0.00195014526774, -0.0026397678996, -0.0154936031135, -0.0144248720997, -0.01696643797, -0.0068336816907, -0.010772350337, 0.0135700566046, -0.0116102384681, 0.00392129900995, -0.00645399588659, -0.0109292073467, 0.00127443412348, 0.00980653437173, -0.00184817424501, 0.0215711914824, -0.00760074826737, -0.0098561205584, 0.0121439070325, 0.0137181301633, -0.0122858769037, 0.00867734184979, 0.000808053932097, 0.0101691419377, -0.00570215699782, 0.0171182797022, 0.00466417129482, 0.000976981538842, 0.0109792669705, -0.00502925095866, 0.00846223901113, 0.00642366894138, -0.00862522340013, 0.00987052613404, -0.0164103519815, 0.00107349895538, -0.011355811694, 0.0083421922621, 0.00990831782773, 0.0127216870292, -0.0101528132946},
	{-0.00154073406026, -0.00105898438848, -0.000720308938631, -0.00634583036813, -0.000519552585847, -0.0101887657269, 0.00122790920108, 0.00433210685628, -6.54223966402e-05, 0.00661839847476, -0.000351072502264, -3.1392796197e-05, -0.00439789599065, -0.00353572471804, -0.00659082355597, -0.0161135080804, 0.00466689320542, 0.00344446188591, -0.00178180058894, 0.0107911673188, 0.00512122007354, -0.010506081016, 0.00976991705209, -0.0131217471972, 0.0101739812965, -0.00485970534766, 0.00222556931053, -0.0102509219872, 0.00757599405481, -0.00923894006766, -0.000636210425039, 0.0109690864745, -0.0113985120896, -0.00857647218582, 0.0166901931936, -0.00602994727123, 0.0220800795845, 0.00122543819992, -0.0127929483784, -0.012042378128, 0.00535052696431, 0.00472994997844, -0.0118900155893, -0.00878967636496, -0.00210530820183, -0.00801324942901, -0.00270851156242, -0.00834388493068, 0.0192592728012, -0.00505408038856},
	{-0.0123876896997, 0.0245652326464, -0.00493894648278, 0.00659927205005, 0.0110651123339, 0.0052541699775, 0.00707643033728, 0.0132076003586, -0.00675152740021, -0.00698483870624, -0.0294793542636, 0.0026574349799, -0.00991246562239, 0.0107717483641, 0.00688338959335, 0.0136166599308, -0.00837150140489, 0.00378675760441, -0.00130977816501, 0.00416612345287, -0.00471842956027, -0.00582120021097, 0.0135086388941, -0.0124387065843, 0.0193246007366, 0.00224740794275, 0.0070798544787, -0.00713068879154, -0.00647784562019, 0.0108831696673, 0.00470365331355, -0.0030101342442, -0.00472200760218, 0.0127551358981, 0.0140054176388, -0.00484350160151, 0.0171099869455, -0.0044071879052, -0.0225926225867, -0.0161531203161, 0.00332954674324, -0.00307715472806, 0.0180389125473, -0.00760238258334, 0.00396041288092, -0.0049893195319, -0.00188083322654, -0.00180260554219, 0.00759443947512, -0.002341805465},
	{0.00394562328921, -0.00216345115531, 0.0141973697962, 0.00478359425122, -0.0091548389108, 0.0136422481114, 0.00344479310928, -0.00132191528326, 0.0115019406848, 0.00124273268333, -0.000471405443821, 0.0184779467163, 0.0119404817231, -0.0143329252452, -0.00640084560336, 0.00436767491515, -0.00750872200271, 0.00471848258243, -0.0051544147087, 0.0135592780739, -0.018738306941, 0.0108683448343, 0.0239643677623, 0.000165046557479, 0.00913157810755, 0.00329141513535, -0.00462921283887, 0.00477007246163, 0.0119787600444, -0.00402645487859, 0.0160486329437, -0.00795464068102, 0.0209925729859, 0.00441763705286, 0.0125552654871, -0.0168798499838, -0.0100599145108, 0.00523525094512, -0.00438893755425, -0.0119999790802, 0.00273420218628, 0.00826337293647, -0.00427665194173, 0.00354373449894, 0.0108261940453, 0.00727255715024, 0.00461050933962, -0.00318397209385, 0.00408455383407, -0.0110430044822},
	{-0.00250950166218, -0.00586105515526, -0.00679734810973, -0.0139451054708, -0.00457061175363, 0.00439882784257, -0.00813729659454, -0.00216736962379, 0.00051013745922, -0.0087484649022, 0.00279504274427, -0.0101400972266, -0.00752557284868, 0.00467829584802, -0.00727045073243, -0.00899538716248, -0.00412904221894, 0.0119010398151, 0.00957725865106, 0.00771666434794, 0.00391727693415, -0.000294594475426, -0.00601224644905, 0.00333561763294, 0.00841321783646, -0.000430959706567, 0.0151089785886, -0.00275737141424, -0.00301645318553, 0.0205381547216, -0.00282154730175, -0.0119788073371, -0.00996685008535, 0.00246916961486, -0.00873591958129, 0.00704590494733, -0.0116105972998, -0.00482664613901, 0.00279992790985, -0.000867787728734, 0.00492355647436, 0.0253105435526, -0.00576339685653, 0.0192610938581, -0.00908976674079, 0.00735064752892, -0.00622395577066, 0.00118639538462, -2.55648520997e-05, 0.0208299111688},
	{-0.00321585081678, -0.00971918172706, 0.00956508975849, 0.0165452685443, -0.0233418093269, -0.0150191173623, -0.00708861076124, -0.00634846901482, 0.00281917882845, -0.00401813471576, 0.0100075324994, 0.00785266312364, -0.00176310506778, 0.00840399535814, -0.00509362621951, 0.00272996825894, -0.0156612055553, 0.0110167224668, -0.0114563830591, 0.0163413941194, -0.00817001967582, 0.00718247505632, -0.000373222963689, -0.000742807045535, 0.00326219069717, 0.00956327868439, 0.00925442832652, -0.00877973278296, -0.0045941023645, 0.0164072416929, -0.00430488561068, -0.00707702022904, 0.0208490579984, 0.00036678985056, 0.0155857208491, 0.00407549544348, -0.0109656076941, 0.00819849555655, 0.00764555258679, -0.00269109590457, -0.0119220146072, 0.00159192041477, -0.0227417229894, -0.00671405884702, 0.00930848531724, 0.00184857331138, 0.00320757876576, 0.0167018447706, -0.00350123051698, 0.0107140439217},
	{0.00203768486664, -0.0146103192641, -0.0148015772545, -0.0114090857791, -0.0129832639976, -0.00869202630104, -0.00683204487478, 0.020618201245, 0.00446268608321, 0.00323020001198, -0.00934010940962, -0.00285936845672, 0.0210983402615, 0.0189801031427, -0.00642514081978, -0.00799590117813, 0.0104729691301, -0.000735988637444, -0.0140751725629, 0.00942236870078, 0.0117223906785, 0.00478280331114, -0.00024639711433, -0.0185505199725, -0.00824000765552, 0.0119630958652, -0.00354440636865, 9.56314392107e-05, -0.00421441585631, -0.0116863512748, -0.00249527640451, -0.00805380664001, 0.000251249640008, 0.00455129521484, 0.000630800764237, -0.0151858357137, -0.00175983136364, 0.0120864342231, 0.0370574780882, -0.00931594995362, 0.0149525818983, -0.011291949313, -0.00964418070272, 0.00986061228837, -0.0137952384418, -0.00271403732738, 0.00596918855207, 0.00878868003297, 0.0165519032811, 0.00844132973801},
	{0.0124353085713, 0.00237079624344, -0.0170800267831, -0.00566392417337, -0.00504007293683, -0.00287828709534, -0.0132881848221, 0.0116873637824, 0.00576259853827, 0.00364539537271, 0.0232616561506, 0.00736724271749, 0.000160895444966, -0.0138022377541, 0.00136808752518, -0.00836126072662, 0.00690886154934, 0.000222002027939, 0.00161094255201, 0.0128736139159, -0.0105043105856, 0.00224375404336, 0.0171978420282, 0.00240487751067, -0.00401086661081, -0.00892515830179, -0.00326183055476, 0.0187992341919, 0.00228661663647, -0.00382126959375, 0.0215796664636, 0.00512139835131, -0.00802954008189, -0.00525747469263, 0.00356839272627, -0.0338480598679, 0.000755455681781, -0.00981198785473, 0.0233641665819, 0.0154056412118, 0.0145661940369, -0.00711431508075, -0.0107386718238, 0.00409525326819, 0.00828898745332, 0.00219296370809, 0.001144374881, -0.000470968357698, 0.0195648215719, -0.017659325776},
	{0.00185178429919, -0.00353013559667, 0.0124624370652, -0.0124782223773, 0.00735427290874, -0.00510985027486, 0.0024655447448, 0.00676492608358, -0.0025752796031, 0.00904267484718, -0.0052717053225, 0.00844011906172, -0.00858331072494, 0.0102549994116, 0.00168533280705, -0.00661084769252, 0.00831839726016, 0.00391560319201, 0.00406461249686, 0.00389355245278, -0.00188631518336, 0.00135912290535, -0.00408079867045, -0.00302682379844, 0.0112390342988, -0.00279951324206, -0.0023658028807, -0.00933823813645, -0.00878912940806, -0.0242256946462, -0.00816706303755, -0.00363731559048, 0.00181095568299, -0.0112138515621, -0.0115997185284, 0.00594489462481, -0.00357774795676, 0.0182748587451, 0.0267238729397, -0.00120940229214, 0.00304559593045, -0.00901818324401, 0.00340025241624, 0.0119308828752, -0.0197918757522, -0.0202371027195, -0.00238744365022, -0.00441274457675, 0.00196798598072, 0.00671507447758},
	{-0.00661965512493, 0.0159422244549, 0.0129407106236, 0.00561800095347, -0.00877466686042, -0.00962072322627, 0.00332571040915, -0.0113124593056, -0.00484290118408, 0.00613776294871, -0.00114136931581, -0.00405061238199, -0.00218055468404, -0.0104182427974, -0.00577382848408, 0.00195195271937, -0.00788353995656, -0.00452182316301, -0.00554657867074, 0.00852475382951, -0.00374379076183, 0.00466558992843, 0.0118446554274, -0.00524946294127, 0.0118230282509, -0.0186495934732, -0.000152176318102, -2.46370840688e-05, -0.00673031541582, -0.00106977883833, 0.0177146754263, 0.00532008659693, 0.00667022177852, 0.00870689478411, 0.0120243175295, -0.019739341863, -0.0103887099205, 0.00726451218898, 0.0212510412264, 0.0102719804072, -0.00221898513921, 0.00912053254565, -0.0100216210658, 0.00544405556327, 0.00161533013504, 0.0130365267913, -0.00608637336166, -0.00238365061483, -0.00128939934476, 0.016048818382},
	{-0.00750347068409, -0.0139485137137, -0.011716586369, -0.00624385197047, 0.0145204741037, -0.0002340294668, -0.00367965936454, 0.00638621301838, -0.0086681093426, 0.00415668041438, -0.0228029742581, -0.00608140882896, -0.00612859017882, -0.00984500981166, 0.015825633835, 0.00493530163066, 0.00926905209561, -0.0175195301702, 0.0271302123948, -0.0141871748515, -0.00312267405443, -0.0047995758902, 0.00108620434501, -0.0074312176572, 0.00788677900015, -0.00665904496257, -0.00322473274154, -0.00218347979798, -0.00128362050235, -0.0062763820398, 0.00266313756195, 0.00926197733975, -0.000756178639291, -0.0033624980253, 0.00181453776677, -0.0224000428004, 0.0111699839169, 0.0048464637612, 0.00408082568199, -0.00342836987603, 0.0092743223974, -0.00413655778677, 0.0182366694138, 0.00389154327252, 0.00522775465294, -0.0103721568882, -0.00274141872227, -0.00711065763061, 0.0115445259324, -0.0083992908185},
	{-0.00478047417685, -0.00344878342274, -0.0001730595625, -0.0102023736876, -0.0152188302783, 0.0147250508621, 0.00261199638889, -0.00933741109124, -0.0174447214031, -0.000296484672247, -0.00919825584335, -0.0166936971753, -0.0026168656541, -0.00612466856175, 0.00535076710659, 0.0097948926306, -0.0210315975486, -0.00186747033206, 0.0171066187365, 0.00650194623816, 0.00737196840678, 0.0209579872377, -0.00645708115041, 0.00914882499152, 0.0115379703223, -0.0129794310783, 0.0154335711036, -0.0318648349939, -0.00789633517333, -0.00665962130555, 0.0124732132495, 0.0133559279083, 0.0205139489472, -0.00846521207556, 0.00950240183157, -0.0428658963294, 0.0102880798767, -0.00166402963395, 0.0262155574328, -0.00129247538341, 0.0147056934424, 0.00256171070165, 0.0039830057807, -0.00659413173413, -0.00549038476407, 0.0239979308471, -0.00926252420679, -0.00128532799567, 0.00677044318044, -0.00379934944118},
	{0.0019948080931, -0.000376775765333, -0.0100592521498, -0.0074106552963, -0.00996870614979, 0.00719777288964, -0.017995862959, 0.00297338614618, -0.0228359716819, -0.0113960167881, 0.00214581761735, -0.0014344779073, -0.000353929926123, -0.00744133519774, 0.0183347866502, 0.000918392732423, -0.00397074810804, 0.00879372918506, -0.00823508153261, 0.00611070151087, 0.00914904271312, -0.00730650410646, 0.00124089929764, -0.00682420807029, 0.00659013311107, 0.00199699869695, -0.00267917249748, -0.00600134361995, -0.00326579690617, 0.00270299546028, -0.00449647112096, -0.0107683594301, -0.0125212492918, -0.0140111284144, 0.01190667975, -0.0212960090324, 0.00305298295261, 0.0178078611595, 0.0137056955311, -0.0187495135264, 0.00910046657467, -0.000505574646022, 0.000775627979775, 0.00637823228771, -0.00738914457868, -0.00730245698409, 0.00532646876173, 0.0158158279207, 0.00466594990761, 0.0141923964235},
	{-0.00872748346674, -0.0135394210193, -0.00530511034136, 0.00803622460917, -0.0158828717369, -0.0072656727046, 0.0138314456219, -0.0168278413645, 0.00666764449646, -0.000553043432967, 0.0037200686423, -0.012169013187, 0.00134114687438, 0.00591937293362, -0.00654401034149, 0.0228984405025, 0.00810022107905, -0.0105362147172, 0.00368639899846, 0.00594083694825, 0.00257530790651, 0.0153765631648, 0.011002552713, -0.00821191088121, -0.0102191332075, 0.0236251826178, -0.0127174950081, -0.00101914756477, 0.0192586629823, 0.00211366653566, -0.0178381462499, 0.0143392557307, -0.00113902483824, 0.0146303878651, 0.00943054493511, 0.00348579773591, 0.00249005642631, 0.00164351195328, -0.000170058155371, -0.0225902000044, 0.00901469819074, -0.00470951054182, -0.0199976142998, -0.00129742755296, -0.0015680720341, 0.000462402860221, -0.0126525582279, 0.00300890740348, 0.0266312331635, 0.00552291944148},
	{0.00412775420581, 0.000728304677973, -0.0162793285007, 0.00390043664003, 0.0075148573674, 0.00529893376743, 0.00514458431092, -0.00495615774458, 0.010442847809, -0.00186028195939, -0.00948370159379, -0.0127007066022, 0.00590546012445, -0.0096661430261, 0.0141188034078, -0.0271344508695, 0.00604324864475, 0.0088477745954, 0.00312262711197, 0.000363920944167, -0.00996590598725, 0.00475725414018, 0.00565676038846, 0.00931734298102, 0.00908977574962, -0.00693267200287, -0.00760760264477, -0.00661314042687, 0.0129523855105, -0.00249980562461, -0.00184977457515, 0.00024222081905, 0.00806703394145, -0.00456090227244, -0.00318459263035, -0.0152923299338, -0.015515802819, 0.00667609178536, 0.00147221088446, -0.00722988622129, 0.0146010687497, 0.0166235665389, 0.014939898023, 0.00340857614487, 0.003061517018, -0.00577603630523, -0.00732772699674, -0.000511527386076, -0.00707587672683, -1.98683560217e-05},
	{-0.005077231499, 0.00649281896619, -0.00358046507577, 0.0206057918719, 0.00566497820637, -0.00771197132881, 0.0146953192172, 0.00418570756639, -0.0166505193142, -0.012309702306, -0.0124020058961, 0.00132569530339, 0.000745394740861, -0.0318779867426, 0.00628556983551, 0.0196429883816, 0.0139222020893, -0.00443038052009, -0.00790583454145, 0.00124385333186, 0.025121627112, -0.00164405129898, -0.00555817953378, -0.0304993694055, 0.00692599891536, -0.0207562899167, -0.00536429049064, -0.00893265682054, 0.00150406446142, 0.0043283365483, -0.0128461294984, -0.00733325773639, -0.0020833094907, -0.0272249496943, 0.00870317044021, -0.00660304850758, 0.0128597444056, 0.00434392512234, 0.0185408962614, -0.0133169119391, 0.0158783383948, -0.00197905405097, 0.0156923310467, 0.00939351261125, 0.0247667535807, 0.00571653029761, 0.0130245776826, -0.0213938965908, 0.00274161432285, -0.00951536811665},
	{-0.0036423813161, 0.00468013787959, -0.0147726363566, -0.0232758634458, -0.0105811753298, 0.00387285104485, 0.0109748750818, 0.00984821882541, 0.000227814922613, 0.00669266463161, 0.00584920939983, 0.0186458703308, -0.00223345148514, -0.00179285773894, 0.00610512340922, 0.0156978616236, 0.00723601748135, -0.00334548982302, -0.00419146745671, 0.00789844314889, -0.000102697774781, 0.0199321551884, 0.0109755554736, -0.00073960896309, 0.0143342209486, -0.012643756362, 0.0114433149279, -0.0170029747222, -0.00107883670275, -0.00596179828305, -0.00446862363278, 0.00553767980803, -0.00377485517775, 0.00372759263524, 0.00599088454904, -0.00543201313918, 0.00833611834344, 0.0345697062178, 0.0327061095144, 0.0105532256109, 0.0147656886712, -0.0132630289814, 0.0154221513084, -0.0186839143852, 0.0207826052003, 0.00579481720973, 0.0102233356642, -0.0249021981196, 0.00154633685384, -0.00716297526843},
	{-0.00310067628496, 0.0080210161957, 0.0230394825275, 0.00717815672275, 0.00219024887139, 0.0135818156696, -0.013098111378, -0.00440699145056, 0.00148897278212, -0.000107638352703, -0.00891272183367, -0.00510882810618, 0.00237886967933, 0.00926615304566, -0.0021868951765, 0.0127999382897, 0.00192252228037, -0.00598180781586, -0.00165724625892, -0.0177056701091, 0.000770154714897, 0.00550619527282, 0.0185736392655, -0.00386622428049, -0.000779938172471, -0.0139688433631, 0.0105550474223, -0.0121475395173, -0.00864362621657, 0.00359525157668, 0.0164519386054, 0.00972396556537, -0.0015694406137, 0.0229961622602, 0.0223160938619, -0.00643960526778, 0.00467295783468, -0.0105213767997, 0.0129954196271, 0.00317939093951, -0.00317585141204, -0.00665857995604, -0.0148201084297, 0.0118587545731, -0.000494744753622, 0.000577769058907, 0.0206040322529, 0.013462850369, -0.00424943690345, 0.00239164573297},
	{-0.00928873072838, -0.00796769156836, -0.0123101683416, -0.00984405961041, -0.0121315076564, 0.013724802622, -0.0118485949668, -0.0194075916978, -0.0064675730225, 0.0209217712094, -0.00604221462632, 0.015088266583, -0.00509081081572, 0.0120081216506, -0.00225766916167, 0.00530288362336, -0.00696953144168, 0.0120708610685, 0.0121801015741, 0.00521032511317, -0.0139209845263, 0.006810549859, -0.00230242684593, -0.00793714715032, -0.00482976441667, -0.0112138577049, 0.0108702551941, -0.00485544899574, -0.0023690440811, -0.0155081638949, 0.00190544509432, 0.0100801144734, 0.00920035045354, 0.0101876126089, 0.00142034931802, -0.0132702362183, -0.00250250080025, -0.000247222723463, 0.0062860938258, 0.00475639551338, 0.0173173755051, 0.00789178435492, 0.00440194263496, -0.00212486361414, 0.00368995959715, -0.00494242721626, 0.0031314807646, -0.0136280935703, 0.0101458234487, 0.0136126645891},
	{-0.00484895672326, 0.0224552513652, -0.00516015149013, -0.00994203249514, 0.0132901823367, -0.00490834734119, -0.00732023400475, 0.00860687466069, -0.0138817121687, 0.00827235537882, -0.0202646205717, -0.0107397586359, 0.00246490819995, -0.00910643707869, -0.00430375007869, 0.00502268406651, 0.0178104364252, -0.0130731080442, -0.000931975809081, -0.00794008213769, 0.0188060995605, 0.0016442743326, 0.0194644640666, -0.0175372599655, -0.0243008465919, -0.0104213093657, 0.0112952359578, -0.0179900898794, 0.0210147989766, 0.00467576377257, 0.0075206909186, 0.00278654184422, 0.00860918703113, 0.00533036193261, -0.00303747151963, -0.0020808853968, 0.0182830960668, -0.00805062620168, 0.0130302581934, -0.00930436095295, 0.00406072320749, -0.0101175966193, -0.000869828045089, -0.00579121788631, -0.00330690939133, -0.0144178764411, -0.00317419561218, -0.0245212831768, -0.0131380794711, 0.0051539373902},
	{0.0156238855983, 0.000450270602668, 0.00314127460885, -0.0277088897275, 0.000832736955275, 0.00146074004421, -0.0193436785852, 0.0138444700209, 0.00268627040804, 0.0121253474909, 0.00913119211956, 0.00547375461331, -0.00851952260102, 0.00161621577018, -0.000296633015838, 0.00550740688568, -0.00936352031284, 0.00373431340649, -0.0154575159813, 0.00190088765273, -0.0054846771336, 0.00733099584621, -0.0213719499079, -0.0144325562074, 0.0158750718827, 0.00966574812197, -0.00920144711518, -0.00641762498235, -0.0110040683251, 0.00840528096376, 0.00759178490341, 0.00761701961967, -0.00174379930878, 0.0126992290414, -0.00279232200874, -0.0146502958167, -0.0115058649016, 0.00887897246569, -0.00951024830588, -0.00895248996464, 0.00045400724708, 0.00834608094016, 0.00298507143589, 0.0222083491014, -0.0118970519768, -0.0207479322212, 0.0061603881269, 0.00467581230155, 0.0156858277599, 0.00493941253411},
	{-0.0144540942642, -0.0110722903199, 0.0179123101025, 0.0136176632235, 0.0183367961481, 0.0220370981381, 0.00933887907268, 0.00148978796648, 0.00192492204958, 0.00129567078921, -0.000791611575499, 0.00408717000288, -0.00509523312454, 0.00543688926539, -0.0147371725643, 0.00518648585795, -0.0151229551911, 0.0226089385934, -0.00596820642611, 0.00803370636325, 0.0107870548412, 0.0129284253603, 0.000656638839824, -0.00226710698004, 0.00929155609881, -0.00785934631627, -0.00387898776151, 0.00464283181722, 0.00263482131384, 0.00247618454276, 0.00417272880464, 0.00330516613968, -0.00440949897287, 0.00655771214615, -0.00914908395503, 0.00536461895284, -0.0128969111576, -0.00304140871031, 0.0182745584747, -0.0277660800591, -0.0108097313776, -0.00525012028338, -0.0192385683377, 0.0112858169734, 0.00754738002581, 0.00456214638996, 0.0028268399234, -0.011614265558, -0.0144780132621, 0.016836855216},
	{-0.00177348845818, -0.0110198564389, -0.00394662970292, 0.00831203262368, -0.00179424042094, 0.010738820154, 0.0134136725532, -0.00225025760692, -0.000903741192861, 0.00136218165093, 0.00143647245861, -0.00241055455883, -0.00247813877259, 0.0121865940173, 0.00650142413516, 0.00138827702756, -0.00329525079746, -0.00726708296997, -0.00895553697918, 0.00549885277897, -0.00419920722608, -0.00462975318638, 0.0070226021205, 0.00012072539127, -0.00220383399927, -0.00787659276125, 0.0128817392048, -0.0164880755685, 0.0155303105663, -0.0121671013097, 0.00481564247691, -0.00221750191008, -0.010446846033, -0.00343747150125, -0.00600900704726, 0.00428780703108, -0.0146857104676, 0.00131012017874, 0.00608785330562, -0.00165725116399, 0.0134445503024, -0.0122536211004, -0.0229602238817, 0.00689897964437, 0.00600544963307, -0.0124727410134, -0.0117809751147, 0.00109357064256, -0.0030711594232, 0.00231488258227},
	{0.0114285632268, 0.00255866926091, 0.00343517647222, 0.00986740300217, -0.000498414341553, -0.00436407355716, 0.0165935284013, 0.00945905524474, -0.00550663247386, -0.00810550945923, 0.00488162292536, -0.0031565552851, 0.0139563842264, -0.00992784539641, 0.0063315414813, -0.00281893492564, -0.0089844201669, 0.0124073060539, -0.00908192521255, 0.00543213093313, 0.0212142728392, -0.0108553367312, 0.00514462640067, -0.00738921533269, 0.000293045732668, -0.00380410201856, 0.00745722775083, -0.00085068580227, 0.0138469189435, -0.00496609600719, -0.0169733431289, -0.00456271538066, -0.0180080996334, 0.00371637107065, -0.0147437570782, 0.00422208315542, -0.000662699053301, -0.00424393404185, -0.00319946660229, 0.021397835811, 0.00901235866101, -0.0130125104853, 0.0138544374031, -0.011556361591, 0.0171074369701, 0.0043413041836, 0.00241719633827, 0.0078588640707, -0.00813973262497, 0.0183955008841},
	{-0.0169541636456, -0.0118616550712, -0.00896146036002, 0.0036114816904, 0.00249982834991, -0.00442902541061, -0.0113159324669, 0.00313164307664, -0.00493830089371, 0.0148041858894, 0.00429392221454, 0.0105757624465, -0.00428474016086, -0.00465000211195, 0.0138154585833, 0.00165044905724, -0.00125636811228, -0.00772634867668, 0.00599494320664, -0.00355076920987, -0.010364648929, -0.00106736708742, 0.00828133111755, 0.0104036642011, -0.00529563405998, -0.0056520819089, -0.00629100402739, 0.00255060245578, 0.00882124824092, -0.00280497400387, -0.000266225408851, -0.00147535941281, -0.00155911487193, -0.0033976156301, 0.000178272032496, -0.00522930180033, 0.000694401101542, -0.00547777973529, -0.00973022503544, -0.00943384130571, -0.0118474784652, 0.00561938551827, -0.004113328942, -0.0007225764258, 0.011536406627, -0.00829832935586, 0.0199080946399, 0.0067791577522, 0.00110092058218, 0.00128969914473},
	{-0.0119066171674, 0.0154826266267, 0.00171538873082, -0.00133026059463, -0.0101276733638, -0.00936290820541, 0.0145114343127, -0.00164860316138, -0.0116526362214, 0.00463865469476, -0.00371748467454, 0.0136085579029, -0.00677177271651, 0.00391182700191, -0.00788244220456, -0.00356611378953, 0.00596375938103, 0.0109634891703, 0.00143718132951, -0.000804975782977, -0.000720133478247, 0.0177064733816, 0.0253826255552, -0.0123091798272, 0.00236485879782, 0.00161512709958, 0.000571068081939, -0.0253103023639, -0.000761921029918, -0.0119867329844, -0.0193363474742, 0.00617841873757, -0.000563556296055, -0.00875696810567, -0.01298484258, -0.00393062090781, 0.00401055213259, -0.00285320236007, -0.00967099517488, 0.000912048252237, -0.00509143940312, -0.0134712512267, -0.00629110843226, -0.00465894596565, 0.000719186406205, -0.00281610989167, 0.0163123864541, 0.00487640131763, 0.0120096556444, 0.0130160685585},
	{0.0108576608797, 0.00167307569893, -0.00139881298249, 0.00741903134553, -0.00560483415627, -0.00434745698713, -0.00907775442377, 0.000384083003698, -0.00549290199196, 0.00730676060092, -0.00153721204791, 0.0143943330645, -0.00616787552395, 0.00210902852289, -0.00360441701668, -0.0150718998505, 0.00075783345405, 0.00482564211489, 0.000598500179904, 0.00400732205663, -0.00802053371599, -0.00307274791693, -0.0190155271947, 0.0193223748039, 0.00887182962045, -0.000264842449452, -0.0164344559725, 0.00669075332134, -0.0233821056987, -0.00489760943741, 0.0111595646076, -0.0093221560221, 0.00985047386748, -0.00890146878629, 0.00735608655556, -0.0127163617107, 0.0068095988043, 0.0134735590712, -0.0134104876282, 0.00135209770629, -0.0170526949138, 0.00106015917971, 0.0134611955402, 0.00315665253762, 0.00245711518994, -0.00255386479662, -0.00587511444766, 0.00689318401276, 0.00147374462493, -0.0144867340061},
	{-0.0152372017455, 0.00711865789735, -0.00693603399565, 0.00337983108035, -0.0104637071888, 0.00258268625086, -0.00721186438775, 0.0208588451296, -0.000332108700478, 0.00589279178429, -0.021193750032, 0.00290611442878, 0.00511066254476, 0.0111347264389, 0.00680499404777, -0.00166168301244, -0.022634251085, -0.00135841462237, 0.0158823636754, 0.00458058950079, -0.00770884706854, 0.0005079835766, 0.00778682707661, -0.000904654451811, -0.00173448396303, 0.00341414330113, -0.0136308700131, 0.00640363012034, 0.0070907341466, 0.00710964397589, 0.00751334481677, 0.00380351726404, -0.0141293128599, 0.00538362172946, 0.000293470573439, -0.00757009516352, -0.0155655056928, 0.000181304316833, -0.00573431312739, -0.0118326594898, 0.0123977529219, 0.0108625410328, 0.0144073264776, 0.0113824946816, 0.00983970042237, 0.00772901706935, 0.0116786557283, -0.0144230187276, -0.00561078463998, 0.00764958735876},
	{-0.00404869336246, 0.0190347918197, 0.0126151823953, -0.00186987088802, -0.00424434874458, 0.00111740449173, -0.000761442351055, -0.0137842190494, 0.00209062344554, 0.00373218167582, -0.000958967767005, 0.003147520562, -0.0196996947221, 0.00318638554835, -0.00190040801402, -0.0013983132076, 0.00222616351177, 0.010825618625, -0.00207676078617, -0.00143741978532, -0.00894734279823, -0.00825404879156, -0.00203545201709, -0.0105319035605, 0.0121656999526, -0.0038580163443, 0.00466772922702, 0.00537181095791, -0.000916158400246, 0.0010632047338, 0.00389814518359, 0.00581690340171, 0.00461210125043, -0.00575869788131, 0.0088955470995, 0.00551049367486, -0.00157148057012, -0.00264800697024, 0.00109589380608, -0.0157507238962, -0.0159743312775, 0.0127268192973, -0.00903746008309, -0.00169826699876, 0.00340068510353, -0.000722920289033, -0.00162318021693, 0.0173645091699, 0.00640851351588, 0.00555243115488},
	{0.00721895204427, -0.00467625880842, -0.00436937156804, 0.00306482184967, 0.0188410920344, -0.00983440941735, 0.00886269148407, -0.0103471968101, -0.0239602282625, 0.00708332880332, 0.00186847283211, -0.00368194904024, -0.000656397158676, -0.0215438893726, -0.0247369020604, -0.0118882406316, 0.000736743541605, -0.0033811019385, -0.00832481106719, -0.0144088901729, -0.0188896175481, -0.0134831042638, 0.000851408206424, -0.00113700446334, 0.00969457451381, 0.00873595694617, -0.00371256682779, -0.00490086237744, 0.00843977843317, 0.0115348065936, -0.00906785510872, -0.00685809669369, 0.0110384931678, -0.0101322648651, -0.0024446545602, 0.0267022962974, -0.00989074079076, -0.00960741139712, -0.00220801066159, 0.0153309239012, 0.0073152178277, 0.0290632464006, -0.0017786544376, -0.00422765088307, -0.000839478820179, -0.00990987592748, 0.00983616356586, 0.00799197876641, -0.0102291742119, 0.00298995605841},
	{0.00819244821616, -0.00918972066132, -0.000484347810891, 0.0038031013632, 0.00237729426241, -0.020030184962, -0.00780880171884, 0.0115560873465, -0.00105777497698, -0.012957960494, -0.0040428172921, 0.00365111117168, 0.00387003926461, 0.00353984620153, 0.000864581831849, 0.00994115278332, 0.000849921584577, -0.0013553887028, 0.0144728106125, -0.00675645660116, 0.00541379734441, -0.0111120789347, 0.00757434625047, -0.00191646821167, -0.00974322763329, 0.0159695122543, 0.0164264799305, -0.00529605919228, 0.00528394758501, 0.0114654840463, 0.00106867054204, 0.0200635199126, -0.00496610717579, 0.00578962576792, -0.000646957584458, 0.00826583210262, -0.013624570867, -0.00660542293981, -0.0166706498117, -0.00358307848121, 0.000111856536791, -0.0154429989073, 0.0122861706572, -0.00933558268197, -0.0150479393339, 0.0061641525629, -0.00356791207849, -0.0144466200159, -0.0220458530427, 0.01054725034},
	{-0.00536689996669, 0.0168185295221, 0.0166903635406, -0.00234919489726, 0.00736301175119, -0.00211968236944, -0.00629592116957, -0.0033579545706, 0.0116398979929, 0.0139442913139, -0.0116673984682, 0.00609342557288, -0.00695102850889, -0.00178438922425, 0.0100796594403, -0.0093387457126, -0.00992245091448, 0.00441094348556, -0.004116624168, 0.012590382616, 0.00419310379866, 0.00432431531945, 0.00536347768424, -0.00936989625941, 0.0352332011905, 0.00689137109098, 0.000821666242769, 0.0127653640976, -0.0119514887024, 0.00910519741819, -0.00229427703204, 0.00567270801653, 0.00516483742026, 0.0124268604972, 0.0088766471517, 0.0035437031102, 0.00700548670633, -0.0100090736961, 0.00578881340451, -0.0210174584479, 0.0168280677326, -0.0141221656483, -0.00394822359489, -0.00559083930852, 0.0154575108743, -0.011068394721, 0.00613647779753, -0.0128133517878, 0.000981601198745, -0.012866979176},
	{-0.00119202683168, -0.00945938362065, -0.0202288788317, 0.00476123472533, -0.00347826660282, 0.013832528781, 0.0300128031137, -0.0224475827827, -0.00420389835803, 0.00938040845693, 0.00436987133748, 0.00738013533159, -0.0038527458834, 0.00502849628464, -0.0116780142758, -0.000527989703807, -0.00654739146071, 0.00579316624276, 0.00892022796672, -0.01512348808, 0.00316235658297, -1.45007834946e-05, 0.00278705314782, -0.00841806474523, 0.00314178182236, 0.00774631735044, 0.00621965864607, -0.0172012747172, 0.00261281588619, 0.0111106050217, 0.00503942811934, -0.00118432759282, -0.0141195815849, -0.000439064035418, 0.0124631170818, 0.00319584958025, 0.0108067909639, 0.0126708405168, -0.000425841813814, 0.00242642698452, 0.000218017302645, -0.00306256879319, -0.00102436412928, 0.0199691351755, -0.0057966065065, -0.00230750557267, 0.000835767551267, -7.09045234633e-05, 0.00819596779401, -0.0140570932675},
	{-0.000383748288141, -0.00607725851386, 0.00170184890016, -0.00848323714729, 0.00245796553709, 0.00531804299507, 0.000728263325353, -0.00906439701244, 0.0159827507714, -0.0150767833682, -0.0103587477105, 0.00683842586282, 0.0121117339038, -0.0124201101224, -0.00981934774249, -0.00936702171251, 0.0169678731386, 0.000685580423892, 0.0195565578718, 0.00927697978756, 0.00411520689219, 0.0159796504584, -0.00187269962805, -0.0128499010937, 0.00402319911207, -0.0108881917052, -0.0038702455653, -0.00854939977445, -0.0110231546913, 0.00449294264253, 0.00362704245997, -0.00141399938921, 0.0270112775295, -0.00974886637363, 0.00661643092779, -0.00701038344564, -0.00240484258924, 0.00351318507355, 0.0103916693638, 0.00309487400296, -0.0179970899403, -0.0126977108885, -0.00101275707631, 0.0206922525245, -0.00133751868856, 0.00843992247041, 0.00277548825802, 0.00985624195814, 0.00519755496918, 0.0238529195858},
	{0.0127499030302, -0.0118529617189, -0.0126037304612, 0.00880609526586, -0.00510886889151, -0.00242032624108, 0.0083997588214, 0.00456104914108, 0.00292498076981, 0.0115827258478, -0.023864549444, -0.00716911305958, -0.011195249086, 0.0119543671165, 0.00983729460915, 0.00216068831355, -0.00302580398597, 0.000328773804517, -0.00262567240256, 0.00861758468641, -0.00582780694646, 0.00482745603116, 0.0114234197329, 0.0084943048753, -0.0115059792971, 0.0125698319799, -0.0119741627837, -0.0212702854353, -0.0144278433422, -0.0103467228753, -0.00656539227964, 0.0124509775868, 0.0170803750505, 0.0072124464576, 0.00111416057518, -0.0424111821247, -0.00788496527626, -0.00680431674883, 0.031889404, 0.000135352986428, 0.0231158208271, -0.00132941592575, -0.0015178085532, 0.0134817195993, -0.00962123378584, -0.00822480360406, 0.0130332586738, 0.0276674848399, -0.0081710583931, 0.00970004393604},
	{0.0104737341709, -0.0123647909704, -0.00164473926979, -0.00943763796482, -0.00554710461855, 0.00721787639032, -0.00736135955339, -0.00520472052922, 0.000903077692245, -0.0345173831618, -0.0203653293356, -0.00369099767582, -0.0165536788945, -0.00731720745997, 0.014720681004, -0.00693713741407, 0.000907192026769, -0.00557252146223, 0.00608223966574, -0.00700648356067, 0.0285819469541, 0.00598177352647, -0.00846689692937, 0.0265353314855, -0.00456203020341, -0.00465406443643, 0.00788071945147, -0.0185245130745, 0.00974700728237, 0.00178909947591, -0.0127699980731, 0.0170351562282, 0.00972677461742, 0.00241098332374, 0.00161189284092, -0.0389443510718, -0.00463541069492, -0.0112506037293, 0.0408419507348, -0.0143602316832, 0.0339228648724, 0.00401166713999, 0.000973608778076, 0.00482254335546, 0.0124199651629, -0.0182932473239, 0.018093560284, 0.00512522429856, 0.00854570505315, 0.00418018128929},
	{0.0124754679103, 0.0105763426847, -0.00428864381224, 0.00104647670052, -0.00787530664248, 0.0238724985802, 0.0232168137708, 0.00706493582717, -0.0103526613039, -0.00130799372701, -0.00379582234567, -0.0134165421504, 0.00667385309531, -0.00617178619196, 0.00485564126186, 0.00970633691536, 0.0134520593273, 0.00762315578204, -0.0117391719851, -0.0158534024782, -0.00172444250002, 0.0121254616073, 0.011318706502, -0.0163332305599, 0.0108858223979, -0.00877139444095, -0.0115737710428, -0.0440265325048, -0.00832333941741, -0.00619018186119, -0.00447166169606, 0.0140581061364, 0.0198006922374, 0.0118004296682, -0.015891660739, -0.0368507588429, -0.0014171275219, 0.00860558090724, -0.00594936757382, -0.0216070311869, 0.0258417831497, -0.00573607988358, 0.0148238584518, -0.00916374147768, -0.0031993642417, 0.0070971431516, 0.0286859376586, -0.0251260610595, 0.00596545188224, -0.000948061273465},
	{0.0167872955657, -0.0089937302639, 0.0120056295739, -0.0182555930415, -0.00820236378083, 0.0342512014025, -0.00704745593937, -0.00339877766406, -0.0153110622195, -0.00341043977457, -0.0301180753632, -0.03057682976, -0.00802773779813, -0.0100929163613, -0.00449595351049, 0.00574622956961, 0.00905932595475, -0.0152075060886, 0.00446498501169, 0.000991616638407, -0.00924252301787, 0.0220567421392, 0.0185551163174, -0.00472233931259, 0.0263743069949, -0.0180602274086, -0.00460042357595, -0.0370520681517, -0.0107276129404, 0.00324827378811, 0.00099456630044, 0.0191876106134, 0.0193719402178, 0.0219121120864, 0.00488154211723, -0.0775889863179, -0.00341475818186, 0.0150220040133, 0.0631493823481, -0.0158456617339, 0.0247612979623, 0.00274957249332, -0.00602304454274, 0.0162044528677, -0.0139183981394, -0.00523470012521, 0.0452958258948, -0.0128114786744, 0.00536827819035, 0.00972314285537},
	{0.0141635269701, 0.00183244298067, 0.0149306332772, 0.00637762341236, -0.0227421810063, 0.0119084170945, 0.00863823017183, 0.00682422645959, -0.0116355324549, 0.00371597394469, -0.0409542349559, -0.0091623522213, -0.0142143263031, -0.00909297534211, -0.0265892282812, 0.00969818216862, -0.0126079364206, -0.00609662699803, 0.0243295158874, 0.0165206318578, 0.0190668172892, 0.0402608675677, 0.0143273711003, 0.00691840982777, 0.00419952033188, -0.0256458954925, 0.000200030742044, -0.0283886153285, 0.000977900811494, -0.00446462214888, 0.00790801947964, 0.0394035062231, 0.0150079166808, 0.00447852926871, 0.000361592042349, -0.0983083601375, -0.00541067466294, 0.00672736733744, 0.0596688700054, -0.0228157780431, 0.0436666529097, -0.00467677958904, -0.00264208620369, 1.93202098934e-05, 0.00555906283126, -0.00723063815691, 0.0567110329735, -0.00848023697918, 0.00652163622353, 0.0123312888529},
	{0.0255704876369, 0.00257472656616, -0.00175819508047, 0.0247527858924, -0.018569994959, -0.0105965461223, 0.0215682735772, -0.0127950986096, -0.0135284532754, -0.0259285143045, -0.0368709373942, -0.0273979567347, -0.0119576517715, -0.00445882405895, -0.00518382018813, -0.0202985665778, -0.0017627398169, 0.00869140182418, -0.0111580289686, -0.00312200575807, 0.0274833040751, 0.0474587416778, 0.0254878096793, 0.00382416749175, 0.0282778685455, -0.0474658299937, -0.00729087636979, -0.048822971937, 0.0154996094158, 0.00692191300767, 0.0197245219189, 0.0535280793408, 0.0133072626945, 0.0223736169466, -0.00166083697715, -0.0835696592191, -0.012421598543, 0.00385913078795, 0.0558624010811, -0.035472988025, 0.0286599257697, -0.00662058272108, -0.00850342968962, 0.0157705011681, 1.46727947e-05, 0.00326398309056, 0.030101920067, 0.00810323877224, 0.0109816650117, 0.00141943533211},
	{0.0417008896727, -0.00293955612094, 0.000571253813441, 0.0218512876864, -0.029058984305, 0.00422702651819, -0.0175248561468, 0.00295939006903, 0.00110651330025, -0.0019846780367, -0.0196711301808, -0.0254234797517, -0.00744132965937, -0.0186376942593, -0.0079699488436, -0.0516891472686, 0.0086521678757, -0.0166194806057, 0.0122518157856, -0.0176426865513, 0.0202316855444, 0.0332436584923, 0.0341210392992, 0.00508425304306, 0.0226721074254, -0.0447616504765, -0.00136340111046, -0.0438690252617, 0.0159083643288, -0.00900223536187, 0.0323652987957, 0.0260462398826, 0.0283521690832, 0.0240091780288, 0.00534353379319, -0.070491409381, -0.0307097673039, 0.0261133413856, 0.0378298954919, -0.0235881737578, 0.0353437900225, -0.0207711677178, -0.00791741407476, 0.0395491877479, -0.0179979042756, 0.000269733999489, 0.0104961127812, -0.0216711221096, 0.00349955050258, 0.0256839753449},
	{0.0485387636627, 0.00259129209488, -0.0147712109875, 0.0276158187848, -0.00341188867291, 0.00546644760019, -0.0176780594539, 0.00582777773145, -0.0128761746346, -0.0149554576759, -0.00825112247094, -0.0120697954554, -0.0107756943691, -0.0166661696335, -0.0159824352737, -0.0376726030718, -0.0320029082081, -0.00487803223031, 0.0268308519928, -0.0321059107293, 0.00942592505917, 0.0323333297977, 0.0217439308532, 0.0228190324419, 0.0281874550702, -0.039814631117, 0.00133625536555, -0.0376629225302, 0.00738443246427, -0.00594536965349, 0.0367947317626, 0.0384234503809, 0.0228099276603, 0.0377008755689, -0.00856454355657, -0.0873912221287, -0.0506532768101, 0.018069892696, 0.0354583783248, -0.0323076542888, 0.0307338164481, -0.00922828489949, -0.0246558179884, 0.038694644407, -0.0200514933753, -0.00363872316749, 0.0131013669883, -0.0094381878292, 0.0187582591271, 0.016332204641},
	{0.0806234960047, -0.00694965218361, -0.00077678622676, 0.0311414229001, -0.0147515602509, 0.0100673717376, -0.0250772977214, 0.0155940103331, 0.00162326442464, -0.00735413025096, 0.0112109249586, -0.0216912167133, -0.0109139094872, -0.0135685244693, -0.0406416066834, -0.0517106903966, -0.0117127314652, -0.00113703406231, 0.0162651857613, -0.0457923886257, 0.00567730327595, 0.0303026000246, 0.0293768110357, 0.0124341758848, 0.0571425780802, -0.0289711232336, 0.00340525336144, -0.0316241083729, 0.0110439058152, -0.00139035331785, 0.0387767218553, 0.0289516687501, 0.0473967646195, 0.0313169072731, -0.0127466897573, -0.0541107555832, -0.0559369808018, 0.00703994837954, 0.0122409405799, -0.0284645451685, 0.0161996756862, -0.0370422173589, -0.00779377318657, 0.040532085071, -0.00678064766656, -0.0248198325474, 0.00609905345842, -0.0162674534008, 0.00375263812738, 0.0201788955817},
	{0.0555455888291, -0.00418724391848, 0.00295839348297, 0.0359354097839, -0.0262872835379, -0.00856875306925, 0.00863688119426, 0.0165483699816, -0.000909280326664, -0.0103232675901, -0.0205902750818, -0.0270156442431, -0.00542438288419, -0.0162772100224, -0.000525339186931, -0.0255631530708, -0.00669198265267, 0.00060518459323, 0.00401134039714, -0.0245714646143, 0.034502368955, 0.0253540370851, 0.0339458138651, 0.00548589362184, 0.0395433519906, -0.0257897958822, 0.0109644796492, -0.0203542193427, 0.000260288112237, -0.0158562687731, 0.0456627509175, 0.0352756330882, 0.061710037553, 0.0302653149738, -0.0170028697152, -0.0622110870514, -0.0313033671818, -0.00162646389526, 0.0363528203759, -0.0236985497266, 0.00647151478989, -0.0116539880103, -0.0196412321991, 0.0562934102666, 0.00498282232605, 0.0280473650736, 0.0354446262264, -0.0129322378224, 0.00180712646372, 0.00579776471575},
	{0.0372742603031, -0.0125833947896, 0.00303062103745, -0.0136219471661, -0.00409170939414, 0.0199058845844, -0.0291941792069, -0.0032052429802, -0.0147451311437, 0.0187632131547, -0.0203792020997, -0.00746377080913, -0.00609995145364, -0.00744113098266, 0.015345095204, -0.0456062860217, -0.00974807143637, -0.0232458535727, 0.0145319418584, -0.01250318937, 0.0379900202176, 0.0167119109077, 0.0333437951691, 0.0129023308315, 0.00675076916873, -0.039061520718, 0.0195894192109, -0.0258972711527, 0.00474252442212, 0.00543523656608, 0.0198913355374, 0.0232216516343, 0.051399965875, 0.0174699763436, -0.00293525388003, -0.0362885698577, -0.0342352758377, -0.0418990100469, 0.0422571531268, -0.0115433790103, 0.00857358882991, -0.0039485274612, 0.00196256622888, 0.0591170618805, 0.0138878002401, -0.0131544474086, 0.0148183116654, -0.0165327050339, 0.0273792523708, 0.0334725021293},
	{0.0226183666016, -0.00565925933843, 0.0127996383543, -0.0213375697712, 0.0034146579579, -0.0136743765588, -0.0340873494552, -0.0087313008243, -0.0111792472916, 0.0242271550582, -0.0179370183039, -0.00209003599045, -0.0156959580943, 0.00463048968503, 0.00811053786453, -0.0286781780186, -0.0172676152677, 0.00636880242227, 0.0196013195392, -0.0198516936245, 0.0156210094263, 0.0387246398455, 0.0225177743568, -0.0113022083055, -0.00411204647495, -0.0136836742821, 0.0462534259343, -0.0329486399639, -0.0150751482169, 0.00671894354972, 0.0346393139966, 0.00633426978845, 0.0457084116258, 0.00990921509877, 0.00649708354426, -0.0404512269242, -0.00981785702176, -0.0562152651611, 0.0557780132574, -0.000622948651808, 0.0256343804241, -0.00984822333476, 0.0162770681201, 0.0220272220395, 0.0223067592702, 0.000141584726791, 0.00247911040054, 0.00168458638026, 0.0225840656172, 0.0481301564135},
	{0.0380945321635, -0.0182857475737, -0.00565873835618, -0.023913922688, -0.0152991221256, 0.0116450713081, -0.0458653923239, -0.0173444468679, -0.00816879996074, 0.0184300894492, -0.0337195966415, -0.0184921014907, -0.012294158676, 0.00322802235324, 0.00603818387516, -0.00625647615376, -0.00988320365175, 0.0134356429691, 0.0100524573785, -0.0155975862904, -0.0114024056364, 0.0326785190216, 0.0280723151843, -0.0164818453309, -0.00123804345836, -0.0309598057449, 0.0321580351088, -0.0504657958125, 0.00451221442223, 0.00386716408498, 0.0216097082771, 0.0202105228013, 0.0437195650959, 0.0176519131651, -0.00653968355855, -0.0570122277872, -0.0355768919922, -0.0465542654893, 0.0230250515628, -0.0122937721318, 0.00612418295365, -0.0399274219509, -0.00430108756585, 0.0229792699367, 0.0354405347906, -0.000302782121266, 0.00747525603578, -0.0221447148785, 0.00608162379671, 0.0517698803245},
	{0.00679946554867, -0.00398020271062, -0.0228456354592, 0.000413637530283, -0.00992059597873, 0.00650568436137, -0.00500250294253, 0.00387625663801, -0.0144747494749, 0.00715450381356, -0.0263514617505, -0.0036653548086, -0.0130653019771, -0.0113990271894, 0.0022037783745, -0.015663162018, -0.0174672388248, 0.00866081642102, 0.0211265985847, -0.0224419248824, -0.000560353534156, -0.00676160112643, 0.0173523228101, 0.00591524887262, 0.00213603297942, -0.00225607308251, 0.0179874183533, -0.0236479482288, 0.00473023346052, -0.00509142943811, 0.00123597894942, 0.0364387136, 0.00503469419865, 0.014850679509, 0.0101014483049, -0.0399000376927, 0.00252962836839, -0.00826031375904, 0.0305065734238, -0.00481712821112, 0.00541285768572, -0.0296607387342, 0.0282014423468, 0.00987601569939, 0.00720090911192, 0.00284982257471, 0.0184072221132, -0.00766595501342, 0.00187007831611, 0.0212797661918},
	{0.0225796683305, -0.0103172356904, -0.0163879535153, -0.00752039618912, -0.0136189156937, 0.00696872747524, -0.0146166768785, -0.0141033130284, 0.00765376244606, 0.031208180886, -0.0172063702772, 0.00898405959251, -0.014811511024, -0.0122003405563, -0.004968926906, -0.00378702987167, -0.000489693170137, 0.00684010995853, 0.0175888583675, 0.00182830092329, 0.00282863150426, 0.0252848828137, 0.0159718656384, -0.0100710105321, 0.00809597009494, -0.00614486634718, 0.0185305913668, -0.0394986540702, 0.00214434789288, 0.00649087180216, 0.0168732182061, -0.000725552389078, -0.0134091352053, 0.0141324821091, -0.00924877292441, -0.0386063290768, -0.00043329608329, 0.00328937009809, 0.0242783180382, 0.00290747597965, 0.0167200657522, -0.0138103012291, 0.0297350171791, -0.000284218213815, 0.00160236813096, 0.0150624017328, 0.00389812139436, -0.0201079979742, 0.000991212860486, 0.0148796415829},
	{0.0236682112533, -0.00255983557891, 0.0163052842093, -0.021256458499, 2.97453530855e-05, 0.00724767229648, 0.0193578284496, -0.00793304957047, -0.0226263634754, 0.0138852723496, -0.0145494356508, 0.00897682252616, 0.00297615453197, 0.00506664074099, -0.00908211648, -0.0275220562101, 0.00098638663035, 0.00575209423176, 0.0294792850864, 0.0135350715629, 0.00794015990895, 0.024493254864, 0.0103078664493, 0.021521715905, -0.00304218636617, -0.00505609393115, 0.0246147746163, -0.0147524288283, 0.0119280054889, 0.00760989960476, 0.00835829803107, 0.00889266110343, 0.00475757219535, 0.0260087543964, 0.00177694750614, -0.0200660416159, -0.0216850475755, -0.0308712923089, 0.0171863441779, -0.00954996043426, 0.0166346791611, 5.406666179e-05, 0.00326378688627, 0.00463539706152, 0.0113155686392, -0.017494829261, 0.00799169485008, -0.0246315654034, 0.00185114591526, 0.0358380490019},
	{-0.0120005299636, 0.00162175300693, 0.0110861704262, -0.00117246054818, -0.0279504239635, 0.00370085867891, -0.00163987132563, -0.00190912179594, -0.0148117811569, 0.00814651011214, -0.0209216498886, 0.00385106005621, 0.00329555689822, -0.00842320303219, -0.00289173753261, -0.0042039573565, 0.0034213841982, 0.00255253038598, 0.0135164979301, 0.0188685627469, 0.0118193154739, 0.00831069312795, 0.0116676255609, -0.00201543799004, 0.00985863073884, 0.00673866920651, 0.0220285415104, -0.0277123659337, 0.00555650002946, -0.0135510498167, 0.000449534810745, -0.00412903604303, 0.0145504829222, 0.00751874838726, 0.000992551196951, -0.00798276568846, 0.0136025004621, 0.00262325668753, 0.00767578387048, -0.00215763444308, 0.0155013228712, -0.0118111031225, 0.00372369805254, 0.00263934919164, 0.00525167940448, -0.0139679389301, 0.0174671172556, 0.000167128361991, 0.00520032350248, 0.0113353588197},
	{0.029288716324, 0.00221549754037, 0.00574601065843, -0.00294805879681, 0.00233393612664, -0.00455889057697, 0.0046096036122, 0.00880102103434, -0.011983685537, -0.00527184164269, 0.004980261717, 0.014351659688, -0.00399203528338, 0.0035364205481, 0.00317752630614, -0.0080012155273, -0.0199686115634, -0.0140191148085, -0.00695274185216, -0.00407462890104, 0.0159515433778, 0.00136887292952, 0.00982389067507, 0.0027939249912, -0.0160329165466, 0.00588055903147, -0.00288756660116, 0.00300654704453, 0.0185595196127, 0.00403452372042, 0.00224081298258, 0.0138833627444, 0.00564405957149, -0.00367217658101, -0.000381445577809, -0.00222048487643, -0.00656727949893, -0.0121728137578, 0.00427047715284, 0.00607153212438, 0.0141021458301, -0.00527301067258, -0.00643301659143, 0.0194632152575, -0.00091970953123, -0.00339904851773, -0.0172472613391, 0.00358326667698, -0.00426003371361, -0.010308057095},
	{-0.00303870305675, -0.0051982822039, -0.00599230369421, 0.00489548228237, 0.0103167047611, 0.0150444994218, 0.0141301137701, -0.00887381428105, -0.00329359288837, 0.0115159189079, -0.0181869436298, -0.0120063233845, -0.012844572828, -0.0126955775246, 0.00726400779684, 0.0055468499036, 0.00433756683729, 0.0192711126024, 0.00554999847925, -0.0103336543064, -0.00410528495064, 0.00802874408845, -0.00386971370359, -0.00733687713673, 0.00173519792374, 0.00522703589262, -0.017413954821, -0.0236314224703, 0.0137505074124, 0.0202720715676, 0.00274112281413, 0.00334460958461, -0.0129212963848, -0.000898769762975, 0.00765152436203, -0.00790614915271, -0.00652001721733, -0.0173775551485, 0.0096010404624, -0.00626967295496, -0.0133794650801, -0.00143683648086, -0.00319781883759, 0.00235642669391, 0.00405971024605, 0.00290929033948, 0.0117337280938, -0.000304396608733, 0.00889972491586, 0.0053072169871},
	{0.00865966076715, 0.0267814602013, -0.0106619631304, -0.00868914382903, -0.00934941126946, -0.00522139537791, 0.0150318520767, 0.000795957106233, -0.00405653204765, -0.00158262465986, -0.0190903296528, 0.000546073212343, -0.00295537432114, 0.0172137567776, 0.00179456084064, 0.0116442875226, 0.00224172798406, 0.00869980941564, -0.00290970421418, -0.000706952062483, -0.00104416332096, -0.00925354557174, -0.00829170065126, 0.00376011817782, 0.0058003791055, -0.01674222814, 0.00651412802817, 0.000222345555831, -0.0133939760768, -0.0121709771034, 0.000445579028972, -0.00172847430789, 0.00342743574497, 0.00820981155821, 0.0117388064082, 0.0041945331372, 0.0188475269158, -0.0174476664475, 0.00812971694421, -0.0219391540424, 0.0133151832767, 0.00394394670962, -0.0108612481456, 0.0140920833322, 0.0131929157388, 0.00843167336235, -3.4238844114e-05, -0.0187478267909, -0.020076313293, 0.00300938712303},
	{0.00633485193727, -0.00664429381885, -0.00435480805703, -0.00875134288835, 0.00253258446914, -0.00472678873147, 0.012491342826, -1.03561875441e-05, 0.00386876927824, -0.00823880928993, 0.0143170476255, 0.000556766004034, 0.0132661232326, 0.00935220206138, 0.000567444874217, 0.0087624229743, 0.000170643036866, -0.00700036669287, 0.0126868587621, 0.00360308253711, -0.0117838799035, 0.000814388780277, -0.00953614824243, -0.00565111688374, -0.01245706638, -0.00943495418149, 0.00731780690357, -0.00590709611154, -0.00182878207906, 0.0134040994684, 0.0174329217892, -0.00533006928893, 0.000933850929311, 0.00935892059462, -0.000733752828609, -0.00440879218186, -0.00696902847442, -0.0116209179592, 0.0124107144065, 3.8745650175e-05, -0.00032676055703, 0.00172249728233, 0.0231728916914, -0.000499213821795, -0.00696836415368, 0.00670242426364, 0.0232250933508, -0.0135150422391, -0.0123712340074, -0.00310028146978},
	{0.0186852032828, 0.00803788940702, -0.010926578957, -0.00383726584235, -0.0117678665608, -0.0149818334546, -0.00268617580895, 0.0135017968082, -0.00476338821815, 0.015260827004, 0.00233499249099, -0.011430037585, -0.0231943054603, -0.0123054273407, -0.00106257739801, -0.00141379497998, -0.0119185668076, -0.0105708310043, 0.00509433422648, 0.00372524635551, -0.00149963233632, -0.00970764727249, 0.000372194845402, -0.00368100362526, -0.0144903768867, -0.000927783190703, -0.0107730252439, 0.0183107021479, 0.0301977417189, 0.0122061762796, 0.0120674940062, -0.00490401863019, 0.00442098587111, -0.0220685905941, -0.0112230997518, 0.0185230361687, -0.0117431885011, -0.00437394638125, -0.0206202117426, 0.0145820701316, -0.003926621264, -0.00833472615754, -0.000614754890582, -0.00815397523052, -0.00101923502814, -0.000302601407233, 0.00610819872951, 0.00534880709733, -0.00392867532353, 0.00648046548069},
	{0.00427505356863, 0.00407802480462, -0.0138098234427, -0.00790528755872, -0.00521757718905, -0.00829787993734, 0.00875600235241, -0.0131163172831, -0.00100690668266, -0.0217252587846, -0.00054661982063, -0.0105578067558, -0.0239716264238, -0.00493419518778, 0.00701216082633, 0.0165119078288, 0.0134878553471, 0.00395157402925, -0.00991687521982, -0.00164102681026, 0.0295648673637, -0.000184340397438, -0.00393872634997, 0.00502374293944, 0.00753525777538, 0.0197909677502, -0.0010845799892, -0.00457201664611, 0.0161703206133, 0.0141914939012, -0.0136097379116, 0.0171496279592, -0.0135406337894, 0.00741500263935, -0.0101307858109, 0.00837057743286, -0.0202482686427, 0.0118782412328, -0.0131930688189, -0.00852418470321, 0.0035089787383, 0.00223287667382, 0.00986866942207, -0.0111925245457, 0.00990961341274, -0.00350391129692, -0.00608677382434, -0.0170233602441, -0.00918651870155, -0.00729905769256},
	{-0.00529947287462, 0.0067864131918, -0.00879810519947, -0.0116263652883, -0.0108847658373, -0.00775013986246, 0.00971908821022, -0.000470925084985, 0.0157073052211, 0.0164279139357, 0.00275454125546, 0.0105277480541, -0.0169243722745, 0.00455035475787, -0.00707867762063, 0.00545742513036, -0.0135060056313, 0.0184236808626, -0.00568252677893, -0.00977972417803, 0.0057032406723, 0.0269622548777, 0.00336368408177, 0.00914336000704, 0.00263158481182, 0.000426313404609, -0.00796602474502, -0.00858384224959, -0.000845445506973, -0.0103072090393, -0.00997159999712, 0.00370010243, -0.0116528951676, -0.00903073616552, -0.00918622658245, -0.0037640503724, -0.00521114783746, -0.000457832834261, 0.00859259035056, -0.00132078648592, -0.0143167259679, 0.0149967465546, -0.000755421587164, 0.0131253227476, 0.00670725604661, 0.0100806493057, 0.00474369947707, -0.00665621264314, -0.00509767042798, -0.0194382075032},
	{-0.00805961706696, 0.0106047097207, 0.00381427990594, -0.00814541110143, -0.00969999378032, 0.00288680563812, -0.0283367858798, 0.017758035791, -0.0031092533772, -0.0120266021178, 0.000760811442116, -0.0223430568024, -0.00776570878902, -0.0234295370474, 0.00115265550636, -0.00371342998971, -0.0039035037672, 0.0150341463959, -0.00185049561855, 0.0118983792741, 0.0086064645605, -0.00703186666422, 0.0154993156724, -0.000290654537872, -0.00182224580313, -0.000377585594883, 0.0137552771442, 0.00523659338843, 0.003616577027, 0.00433502853856, 0.0147562577811, -0.00545525273216, 0.00885342745773, 0.0268274846042, -0.0110007205626, -0.0073321397849, 0.00697588455753, -0.00526383969289, -0.0144339890733, -0.00708543475032, 0.0118258223871, -0.00916078171351, 0.00148350292045, -0.00373543024205, 0.00379373656345, -0.00937081098572, -0.00117588233744, -0.00714259320736, -0.00232954463555, -0.0024377774694},
	{0.00448267078469, 0.0183012695215, 0.00517100178013, 0.00491354401674, -0.00698051966371, 0.00721711865673, -0.0124342138423, 0.00794229932703, 0.000629514315048, 0.0183051322264, 0.0121415446288, -0.00702941194347, -0.00563909909881, 0.00124861048486, -0.00222940510924, -0.0288288625775, 0.0119079755625, -0.027149266887, -0.000286461317339, -0.00504369490237, -0.0110033713095, -0.00189825420749, -0.0129423160229, 0.0118061716579, -0.0168723503781, 0.00251462559854, 0.0104852043734, 0.00664745771861, 0.0113046223409, -0.000896411828128, 0.00978006078514, 0.00579004104189, -0.0119329236387, -0.00165215847364, 0.00514330322546, 0.00238381742417, -0.0119692758593, -0.0119814775597, 0.0213108108721, 0.0126971464553, -0.009365108436, 0.0114307244278, -0.0176916691467, -0.0172047056739, -1.82632818505e-05, -0.00502012200629, -0.00261556648806, -0.00377422403196, -0.00900261748736, -0.00172836329594},
	{0.0136309055486, -0.0150963139537, -0.000639520069558, 0.00648478647826, -0.00955625927886, -0.012717313873, 0.0147935282279, 0.00266374076722, 0.00656726837576, 0.0150950664341, -0.000588633626456, -0.0304884404946, 0.000441283257292, 0.0107781794536, -0.0179609473117, -0.00794726141105, 0.00295708392196, -0.00395235167095, -0.00230430453647, -0.011979184047, 0.00653196268325, 0.00798396220932, 0.00583229592671, 0.0116647183769, -0.00411412240734, -0.00959741214559, 0.0137474261511, 0.00386654322529, -0.0121761997286, 0.017377576353, 0.000211939533361, 0.00992918893213, -0.00183970920254, -0.00041655052988, -0.00648634147308, -0.0157983822396, 0.00919634911799, 0.00358212843569, -0.00230501134778, -0.00137126117467, -0.0103320172803, 0.000867214916661, -0.00638409588362, -0.00177708853672, 0.0164353262299, -0.00212332755607, -0.0032442387656, 0.0348748182966, 0.000225313998593, 0.0150114768209},
	{0.0180621037138, 0.0116374526963, -0.0084084071071, 0.0166245935468, -0.00166907487797, 0.0230561247257, -0.000374325508581, 0.00820882398665, -0.0109447302008, -0.0261819953322, 0.00143223369314, -0.00194424084439, -2.39314065198e-06, -0.00151206874465, -0.00340738566803, 0.00310801383554, 0.00177255674129, -0.0217642778348, 0.00241480810904, 0.00316103099055, 0.0120200626696, 0.0267032838033, 6.11357435719e-05, 0.00174860094548, 0.0145021610425, -0.0141759857293, -0.00344150295398, -0.00440602607264, -0.0017032164114, -0.00274701963192, -0.0073862870488, 0.0187952685623, -0.00534737189262, -0.0146881739378, -0.00195781981203, -0.0217314033295, -0.00633127536901, 0.0162960116179, 0.0262449983887, -0.00684090540157, 0.0109865167681, -0.00939064138209, 0.00872777480146, -0.00584046487846, 0.00965702502748, 0.00855532389092, -0.0169005069673, -0.0049337826163, -0.0132920894496, 0.000930050534237},
	{0.0288759466914, 0.0103764530823, 0.00994955131664, -0.0110329808743, 0.0106222207416, -0.00674744775609, 0.0197392518943, 0.00251552233772, -0.0211668833836, -0.0178308325457, -0.00165239798314, -0.027159038965, -0.00400054795068, 0.00653872844202, 0.000350364463352, 0.00342984942785, 0.00484338940608, -0.0156291202522, -0.017948338569, -0.00790749802834, 0.0188603436286, 0.0248340793263, 0.0190145092453, 0.00085123447191, 0.0192553921889, 0.00342885629816, -0.0285523958177, -0.0271508303331, -0.00322000459504, 0.00300843183757, -0.00757884096394, 0.011334882932, 0.0245363821244, -0.00907658282202, -0.0175618130105, -0.0307918180651, -0.00180253437767, 0.00556701115391, 0.0144937975053, -0.00384326758904, 0.0153436555718, 0.0103075212186, -0.0116186466975, 0.0153499160734, -0.00472663479346, 0.0082678052855, 0.019322832775, 0.0151716962721, -0.00128122426995, -0.00178887637011},
	{0.0216499784746, -0.000173257456463, 0.0070387290605, -0.00789441220634, -0.0125873353664, 0.0163898496537, 0.02008963254, 0.00540359975816, -0.0198058334797, -0.0262719413173, -0.0340685696377, -0.0119249326944, -0.000122843315685, 0.00334111768299, 0.0166015663008, -0.00732914538261, 0.023362045841, 0.0112944813589, -0.026059122035, 0.00690028210549, 0.0359191159602, 0.018472619153, 0.0208374317438, -0.0031178223122, 0.0254570519959, 0.00218348021838, 0.00863770313028, -0.0565184721014, -0.00366210492855, 0.00395455769555, -0.0260319588062, 0.0300461653127, -0.000886990138819, -0.0379969884996, -0.00386992731447, -0.0741031921746, 0.00729712620402, -0.00708268852898, 0.0198604619974, -0.00356379293409, 0.0480796254417, 0.000627966784704, -0.00370821859592, -0.00190910826823, 0.0120738900629, -0.00774911872207, 0.019800549927, 0.0410578897289, 0.00196152173954, 0.00610713904843},
	{0.0111689733596, 0.00251352336602, 0.0112161682069, 0.0227198397853, -0.0421136594405, -0.00492467503783, 0.0734937011702, -0.00610354869137, -0.0172397874473, -0.0417996502102, -0.0415705685475, -0.0476923340468, 0.00305795803883, -0.00878098556449, -0.00258212114646, -0.0283634558381, 0.0379856249004, 0.00918957525956, -0.00857981396643, -0.0060930847613, 0.0193114797025, 0.0525108306946, 0.00299184876627, -0.0209574670124, 0.0348639339, -0.0227376554688, -0.0381193634737, -0.0533039439737, -0.00520134977969, 0.0102725183668, -0.0220188391298, 0.0449428196923, -0.00871503600215, 0.000488136074454, 0.0186695283714, -0.106698527009, -0.00234690121208, 0.00492088781614, 0.0699344688349, -0.0220668662995, 0.0284248282452, 0.0221305612175, -0.0185727815387, -0.0227921530877, 0.00363791172511, -0.0134693633303, 0.0284479421408, 0.013909325829, 0.00912300778481, -0.00128034375085},
	{0.00495157126463, 0.00620167344384, -0.0204619322404, 0.0190285141403, -0.0441779898124, -0.00921923094492, 0.0913167849735, 0.0142343167175, -0.0401799791452, -0.0634391777995, -0.083975972004, -0.0266001852933, -0.0070491026985, 0.0028167413782, -0.000191523470354, -0.0329921263724, 0.0361846109755, 0.00695549922261, 0.00513852117598, -0.0113612357129, 0.0209342583196, 0.0626169549498, 0.00622359231279, -0.0273660361994, 0.0398466075059, -0.00144875567198, -0.0189862750282, -0.0412143890584, -0.00106244281613, -0.0156671689193, -0.0322569563136, 0.0362190034345, 0.00128166025263, 0.0048397151781, -0.010914225085, -0.125707467513, 0.0157314837937, 0.018795383864, 0.10313372603, -0.0158987801131, 0.0640023529665, 0.0373501161829, -0.0053931805271, -0.0550055720242, -0.0106234010893, 0.00076160074768, 0.0478637240929, 0.0461671218513, 0.00777322364003, -0.00561610130018},
	{-0.00140125200974, 0.00111271400049, -0.00402716385194, 0.0581828696201, -0.0250000430571, -0.00736422190305, 0.0801285349861, -0.0143059584663, -0.0684695412433, -0.0634845617728, -0.12148011908, -0.0368909862529, 0.00290266545783, 0.0122967287564, 0.0047960337412, -0.0523395940294, 0.0509753473001, -0.0177773250386, 0.0175230554615, 0.00581589564568, 0.014903087156, 0.0606083842972, -0.00231881758482, -0.0159106467908, 0.0529625957953, 0.0134510543256, -0.02566723008, -0.00594017134591, 0.0265441006426, -0.0161942220133, -0.0446562429135, 0.0549599595849, -0.0314536545633, -0.0121333223736, -0.0252181327289, -0.122302138368, 0.0128287860058, 0.056175006504, 0.100822193256, -0.0244606661253, 0.10243746719, 0.0438476333241, -0.0510307203609, -0.0581471591351, 0.0299473384552, 0.000505811553479, 0.0449622673094, 0.0454070931088, 0.00357983699232, -0.00679347959471},
	{0.0261383781362, 0.00931977959328, -0.0280805580783, 0.0884677211449, -0.0300513776312, 0.0127897214126, 0.0371439479609, -0.0399089715251, -0.00800814825378, -0.0716402505809, -0.0756916603213, -0.0526735852221, 0.0175357669288, 0.0313780580812, 0.0221357544489, -0.0778829152249, 0.0846603172116, 0.0014793969426, -0.000923957482367, -0.0104110062294, 0.044945887589, 0.0736165047257, -0.023738726176, -0.0135413542535, 0.0528837048539, -0.0323816282526, -0.0438609419889, -0.0420987096842, 0.0368670143922, -0.0101146356754, -0.0349251333934, 0.0559027626877, 0.00357763654977, -0.0399573885637, 0.0164541511869, -0.146928533575, 0.0232543157616, 0.0653314723186, 0.0622195799149, -0.0262499751992, 0.0625145934837, 0.0259454456005, -0.036689279108, -0.0364002528109, 0.0424258284689, -0.0122593463822, -0.00648745598061, 0.0663638703303, 0.0102385477557, -0.0183034457631},
	{0.0384631931567, -0.00530737753406, -0.0368443985444, 0.0997190346372, -0.0313584451124, 0.02018729802, 0.012114380043, -0.0246289533683, -0.031914852392, -0.132202633142, -0.0780799418486, -0.0493793301612, -0.0158110690053, -0.00141910533593, -0.0325253336803, -0.0868236366032, 0.0857330208297, -0.013630671047, 0.0383599119881, -0.0255975073169, 0.0761852633188, 0.100371970752, 0.0091278951223, 0.00199580177377, 0.0585356975878, -0.0518409845582, -0.0710248802122, -0.0531440315198, 0.0118201608062, -0.015088886298, -0.0150016755771, 0.0570840376643, 0.0787451397609, -0.0101242808145, 0.0125037878846, -0.233435668029, 0.0508923372957, 0.117485030086, 0.0744482663464, -0.0423431795152, 0.0951291521058, 0.0235069501202, 0.00339856424303, 0.0198060372685, 0.0357747270855, 0.00896828816453, -0.0113802557472, 0.044496888509, -0.0138417962854, 0.00677341189353},
	{0.0286321663235, -0.00902325193082, -0.0660351417048, 0.101349715289, -0.0357944272814, 0.0204796023064, -0.057647408605, -0.0268029782177, -0.0878007529151, -0.112827925347, -0.0783070680131, -0.0356731789854, 0.00470016152181, 0.0150086283569, -0.0286230606192, -0.0648618858791, 0.0652947094927, 0.00481474422146, 0.028071537542, -0.0424283638007, 0.0764624603322, 0.0728352226205, 0.0452634552269, 0.00298865939922, 0.0549551231569, -0.0751879936327, 0.00114385543021, -0.030334226356, 0.0248488620028, -0.00717975741413, 0.0286314584832, 0.0459385287385, 0.0876471393909, 0.00342008514371, -0.00118364889726, -0.176983720989, 0.027020590203, 0.142725040007, 0.0537825795297, -0.0466745034158, 0.0542414914495, 0.00943798485023, -0.0221361690655, 0.0639042483322, 0.0342437201496, 0.00641627725484, -0.0215644789481, 0.0070182766536, -0.0102999494553, 0.0287581514667},
	{0.0666247986743, -0.0167790184088, -0.0384260549663, 0.127794065776, -0.0347512817513, -0.0211554572423, -0.0961345469068, -0.0338149331957, -0.0643788432484, -0.0874183480054, -0.0277398228783, -0.00325747860586, 0.00811539683602, 0.00352228305052, -0.0116835930875, -0.0496205898389, 0.0249048692935, -0.000756684427701, -0.00877554656572, -0.031953517196, 0.0979087373186, 0.0432385433853, 0.0339175889128, -0.0164670872151, 0.0744427276621, -0.125977884179, -0.0458429761027, -0.0255289663881, 0.0466713943278, -0.0108673406797, 0.00299325336345, 0.0122845117014, 0.0635809407315, 0.0214519929634, -0.000190766336196, -0.111812995436, 0.0225779299692, 0.114019484557, 0.0330169892801, -0.0368981217986, 0.0309234657056, -0.0083744996394, -0.0252573324726, 0.0668987681153, 0.0217444554299, -0.0153127303125, -0.0838504850796, 0.0570904035562, -0.0317574653349, 0.0248964892096},
	{0.0639476090077, -0.00592980635194, -0.029251554179, 0.126027738273, -0.0214371004064, -0.0372805733544, -0.0578432771335, -0.0195397316631, -0.0468288221831, -0.0356393910268, -0.0393029485044, -0.0232433922256, -0.009310082137, 0.00127502657283, -0.0342562784588, -0.0290558817242, -0.00025800626166, -0.0108555307213, -0.0401770564868, -0.0539424195318, 0.0872910395936, 0.0323303230901, 0.0147631032249, -0.00684556291901, 0.0679137808104, -0.122697074466, -0.0132548654273, -0.0172167213116, -0.00326045990667, -0.00638464634426, -0.0157619015059, 0.00619999007599, 0.0518466078041, 0.00870016629683, 0.00897426240763, -0.0968310780661, 0.0259129205026, 0.0965005289317, 0.0245007478071, -0.00904931737585, 0.0147289185738, 0.00486713193657, -0.0162281945471, 0.0800162906686, 0.0390505871481, 0.00634749255336, -0.0445259897348, 0.0213842455125, 0.00506595943537, 0.020519387659},
	{0.029095085136, 0.00676327031813, -0.00693653977209, 0.13557403579, -0.0114552510362, -0.0247566481095, -0.0672999958928, -0.0173740614808, -0.0728947039486, -0.0128290972633, -0.0307469930633, -0.0231262444161, -0.00798085358275, 0.0100056607908, -0.019159780566, -0.0324347597393, 0.0103177517582, -0.0223928831454, -0.0331127464491, -0.056725329388, 0.0238163222649, -0.00125518698593, 0.0189814193191, -0.0348355378032, 0.0585314855475, -0.0880959793685, 0.0110790453486, -0.00119022681659, -9.8448325473e-05, 0.0223138531181, -0.0134910006378, -0.00126292233697, 0.0749505041239, -0.0128223087078, 0.00648383516583, -0.072544472183, 0.0274944106594, 0.0222192718199, 0.0385524305007, 0.022873732824, 0.0279445272943, 0.0259892777872, -0.000392470656971, 0.101178742972, 0.0599683208545, 0.0123930197734, -0.027725730631, 0.00690535221707, 0.0276569738202, 0.00423445253765},
	{0.0581435288897, -0.0150162152878, -0.00769000098812, 0.0758871836444, 0.00272360374646, -0.0313147741216, -0.0863435649426, -0.0255801529569, -0.0643743328572, -0.00209181799115, -0.013664706487, 0.0352325872077, 0.0139654534365, 0.0555110627945, -0.0130165077934, -0.0230373219342, -0.00806131138517, 0.00508199761029, -0.025318554836, -0.0268597368302, 0.0224784525648, 0.00443536276388, 0.0173299935602, -0.0590739703001, 0.0173121317315, -0.0693109219027, 0.0394734761991, -0.0144197035787, -0.00948613874859, -0.00740651022635, -0.00979656855459, 0.017995386052, 0.108125821606, 0.0122815451727, 0.0117153547523, -0.0726143356287, -0.0330520440556, -0.0399080910621, 0.0897459949187, 0.00145321561726, 0.0230557916385, 0.0241226677195, 0.0472398863373, 0.0810088452257, 0.1155562943, -0.0224032020506, -0.0250379341418, 0.0101838162537, 0.0634770243395, 0.00813323516396},
	{0.0560185031082, -0.0226200194874, -0.00117479042581, 0.0240283940867, -0.0106568424814, -0.0164946927071, -0.112369250796, -0.0252123487996, -0.0362793745264, 0.0642557323436, -0.0336086498244, 0.0275287590197, 0.0202144878234, 0.0569619747451, -0.0134465550316, -0.0227347424207, 0.0133772689937, -0.00919088616956, 0.0285620775754, -0.0218629503185, 0.0222383267637, -0.00444031034445, 0.0338008834909, -0.0217059771172, -0.00466810142536, -0.0551181984283, 0.0388631440403, -0.0305106647723, 0.0182301101426, 0.00989101485177, 0.0208277077497, 0.0178897448152, 0.0968932133095, 0.0110465325419, 0.00393380765692, -0.0487057114811, -0.0712574622671, -0.0848095555681, 0.0665095985566, 0.00105187065571, 0.0124602465041, -0.0271151950375, 0.0343711091939, 0.0658058233855, 0.0679502078628, 0.00772295959668, 0.0163950325422, 0.0124577480889, 0.0384848293587, 0.0171738772325},
	{0.0355222803899, -0.000471288030823, 0.00240167750975, 0.00126230127778, 0.0213648771437, -0.00361267459712, -0.0614430088107, -0.0212327187844, -0.0444468781244, 0.0881797273634, -0.0235273906517, 0.0387781291983, 0.0151726285619, 0.0388260258394, 0.00697489991824, 0.00617116208744, 0.00832293731659, 6.76799699198e-05, -0.0013739426862, -0.022706409062, 0.0357411257636, -0.0287028560681, 0.0214767790642, -0.0385702938714, 0.0035276088714, -0.0210513628344, 0.0556474599794, -0.0237003707448, 0.00627183277953, 0.00144255699044, -0.0254626695842, -0.0237032928797, 0.08081368402, -0.0331135356546, 0.0213306900736, -0.057045542905, -0.0443487678992, -0.0880741149619, -0.000740948485821, 0.00308747876482, -0.0152465552766, 0.00912209391771, 0.0254648514247, 0.0455623668869, 0.0762613160802, 0.0170698192917, -0.00577157056324, 0.0504177371567, 0.0368353707236, -0.00473924064175},
	{0.0202290595517, -0.0180414362869, 0.00806286365159, -0.0301753862686, 0.0146420634166, 0.000640571472655, -0.0430833188329, -0.00731792652389, -0.00999194006737, 0.0557347093496, -0.00768360614497, 0.0270226078629, 0.0133848128832, 0.013412856185, 0.00890290605694, 0.00915291692328, -0.00860554558622, -0.0110633553959, 0.0223180905856, 0.00188359948471, 0.00307152976156, -0.0138443604966, 0.00987820355754, -0.0358648211699, -0.033448171958, -0.0395357484989, 0.063683385677, -0.0300704354622, 0.00347668722198, 0.00414180853116, 0.011229254653, -0.00376577239908, 0.0454059082253, -0.0141622011964, -0.0115415456513, -0.0369714162405, -0.034571473736, -0.0685794582021, 0.0513653256956, 0.0087276771057, 0.0111314866239, -0.022156205357, 0.0588039597956, 0.026960515825, 0.0468040522267, -0.00253807980466, 0.00462897948868, 0.0178274319734, 0.0324834875908, 0.0273291259391},
	{0.0145365115265, -0.00108654216894, 0.00749483865857, -0.0234920726386, 0.0187032251767, -0.00456385270543, -0.0376889960637, 0.0121243098085, -0.0168075326394, 0.0174438565935, -0.00556908813461, 0.0318540278825, 0.00966294769038, 0.00654124288468, 0.00539071357958, -0.00752250688856, -0.0198340089669, 0.0199216192619, 0.0251517547176, -0.0101534912952, -0.00436825879216, 0.00553926168395, 0.00343904598592, -0.0118267492281, -0.0228969152925, -0.0290847361374, 0.0257230728769, -0.0230890247341, -0.00590553282115, 0.00206349877365, 0.0136035912548, 0.00597695905197, 0.0207879089236, 0.0116721402325, -0.0101296508944, -0.0225269164489, -0.0204091678695, -0.0379385559354, 0.0469181715095, -0.00395407140568, 0.000626093945091, -0.0218398313702, 0.0337070650388, 0.0259407948615, 0.0268824739158, 0.00773887592844, 0.00513240037269, 0.0238647671111, 0.0332842024358, 0.0362319538708},
	{0.00376717134738, -0.0152951813937, -0.0116218800216, -0.0256182218331, 0.00908799059527, -0.00450441767883, -0.00571530194686, -0.00578991435083, -0.033530516971, 0.00852135507249, -0.019783545819, 0.021360816605, 0.0203337892413, 0.0216649461031, -0.0119686044548, -0.00765396483706, -0.0508193220402, -0.000162858354925, -0.00696176473888, 0.00814037162916, 0.00676737053335, -0.0120718031184, 0.0108305639634, -0.0173676623409, -0.0142865141984, -0.0067602745323, 0.0259734336875, -0.0261367111367, -0.00967740057595, 0.00443461161272, 0.0121217409532, 0.0133015298367, 0.00454245469271, 0.0096175759841, -0.00313622314515, -0.018263527926, -0.00463212653477, -0.0100757651367, 0.0298733554098, 0.0049928968678, -0.00767649858231, -0.0244117517087, 0.0132220404847, 0.0148127639461, -0.00559515818561, 0.0148350656238, -0.00411942647291, 0.0194568480846, 0.0123577998196, 0.0178572079838},
	{-0.00802996453244, -0.0128689146325, 0.00527712704491, -0.0278161819648, 0.00308021506129, -0.00888085031059, -0.00672525041962, -0.0268636531433, -0.0290882286686, 0.0131111836377, -0.0187342563449, 0.00397041718349, 0.00832858500208, -0.00370783108023, 0.017376132808, 0.00447246510982, -0.00433153559519, 0.0164321222036, 0.0056068755118, -0.00688229900294, 0.00794049735399, -0.00526186689118, 0.0067725141734, 0.00699813414629, 0.00285146710937, -0.00160659366326, 0.00143521103151, -0.00939775607914, -0.0137822003492, 0.000887919595301, 0.00899885937723, 0.00195064362847, 0.0280442625616, -0.00506140557384, 0.00594944957488, -0.00981925152752, 0.0104811266916, 0.00494522860711, 0.0235495091981, 0.011335086548, 0.00199574913121, -0.00865201523511, 0.00519248007427, -0.00690596168761, 0.00835795795852, -0.00183692434803, -0.00679940803618, 0.00244704044059, 0.00982862274628, 0.0118668485455},
	{-0.0123033930721, 0.0104928495018, 0.00563629911274, -0.00831842870661, -0.00852102091392, 0.0100002575159, 0.0158483190963, -0.0145337127561, -0.00103012970557, -0.00758311187659, 0.00527497788848, 0.010030030982, -0.00569388076953, -0.00747086903757, -0.00501824839484, 0.00159897508393, 0.00509083935882, -0.00607876853132, 0.00349022960117, -0.00612075248337, -0.00330332648428, -0.0150918205976, 0.0297583562246, -0.0134055714388, -0.0267798129026, 0.00328711126237, -0.0124724426267, 0.00389800203687, 0.000308178570513, -0.0121504867861, -0.000736801155646, -0.0144660549344, -0.00255029104136, -0.0157976195638, -0.0141599073272, -0.00126660918053, 0.0127990910384, -0.0251829151826, 0.00604473897603, 0.00564691326536, -0.00488450563425, -0.00704632129776, -0.00473392065472, 0.0180005861762, -0.0130027384474, -0.0127966104997, -0.00831210048112, 0.0150907164739, 0.012594067346, 0.0135592051005},
