// af1_weight.h
// 2017/12/01 20:25:59 by jun-i

const float af1_fweight[784][50] = {
	{-0.00419457332815, 0.000240014456404, 0.00234507314063, 0.00944780290433, 0.0104110315599, -0.00923015431962, -0.00818124082972, -0.000957490670824, -0.00129254567473, -0.0103600109089, 0.00503810428353, 0.00481929058025, 0.0146163541216, 0.0010292869383, 0.00651027089066, 0.0171475029194, -0.0188826323074, -0.0208654832947, -0.0066366343306, -0.0149895874483, 0.0147508113235, -0.00764427848241, 0.0152645896801, -0.00406035948783, -0.00351486994513, -0.00333576552497, 0.00642680561768, 0.00347006077902, 0.0122495717649, -0.00644251951232, 0.00127162448888, 0.00325081427517, 0.00251701640037, 0.0019722736987, -0.00959787765083, 0.0168561139125, -0.00641622199922, -0.00817332908167, 0.00527594448569, -0.00336810882086, 0.000913165509604, -0.0065056544309, -0.0175536700728, 0.00721379050639, 0.00188521730846, -0.00788479983067, -0.00755354430552, -0.00517271172804, -0.00213707314582, 0.00797268678036},
	{-0.0080268298794, -0.00723769931076, -0.012899273423, -0.00256106448244, 0.0101040562176, -0.0101224793809, 0.00238742250524, -0.00148751932949, 0.000653698443411, -6.87620265659e-06, 0.0223304243619, 0.00866355175305, 0.0256729463142, 0.00971500295515, 0.00596073198319, -0.00738718113456, -0.00605653765733, 0.0200807016932, 0.0047449948881, -0.0106861276397, -0.00775343503477, 0.0103386725877, 0.0214269051325, -0.00782452791386, 0.00142940478847, 0.00583172833747, 0.0084893498225, 0.00431215819424, -3.25032099806e-05, -0.00654292851082, -0.0175701184588, 0.00890380540868, 0.00702148316509, -8.41510819151e-05, 0.000485357964503, -0.00609218105541, -0.0126562203955, -0.0226645399136, -0.00568680219024, -0.0109157517536, -0.0103804806662, 0.0150110148011, 0.00758268859556, 0.0062158481857, 0.0019467298079, 0.0129854172058, -0.0120437564805, -0.00356116164136, -0.0126399874157, -0.0138564569627},
	{0.00683239364182, -0.0387054695546, -0.00265033442, 0.00373516290493, 0.00545144552221, 0.00270662835047, 0.00127803125307, 0.00233718794791, 0.00995541736849, -0.00718998913823, 0.00352982551759, 0.00047516485375, 0.00567106105005, -0.00784599540852, -0.000326572430615, -0.00772057718166, 0.0050116697312, 0.00935017503622, -0.00322126651812, -0.00896508274062, 0.00493189875388, -0.0174671968775, 0.0123755727859, -0.00250391547285, 0.00330827567205, -0.0027854741095, 0.00662896032129, 0.0157273589835, -0.0112371564014, -0.0050760308936, -0.0139093501364, 0.000367683640673, -0.00156795331945, 0.0082100589921, 0.00240979578428, -0.0118136693443, 0.00120740073812, 0.0192346399109, 0.0182957748652, 0.0111662617799, -0.0159278949353, 0.00946060438261, 0.00763872178648, -0.0127663508085, -0.00870672309328, -0.00201347963328, -0.0123181090996, -0.00580355587606, 0.0142684365412, 0.0126534758981},
	{-0.00628677551651, 0.00441663071513, 0.012531168135, 0.0112551936353, 0.0161438847352, 0.00133426590619, -0.0205492409041, -5.98789860706e-05, -0.00532405340493, 0.00348358633393, 0.000251854151594, 0.00554044439882, -0.0032754149992, -0.00635040427273, -0.00185974821875, 0.00349245763655, -0.0032812955101, 0.000251640545878, -0.00163495975516, 0.0105346231997, 0.00449776271837, 0.0027845256394, 0.00988909351452, 0.00101213616904, -0.00478691870901, -0.00629477610138, -0.0149721745834, 0.00136943075154, -0.00777956957722, 0.00997272982338, -0.0115939930086, 0.00302070787646, -0.00242816517027, 0.00269111472174, -0.0190589606011, 0.000806126336494, 6.798723536e-05, -0.00431467896065, -0.0197718681464, 0.00485582598674, 0.0098615163279, -0.0122606140022, 0.0049512642867, 0.00527543393726, 0.00738129259059, -0.00540168294321, -0.0140333275061, 0.00620258179707, -0.0185253887242, -0.00594166887865},
	{-0.0176820797445, -0.0112689672481, -0.00374562102211, 0.00317557086106, -0.00582864553913, -4.07836005281e-05, -0.00454374033081, -0.00731963049386, 0.00815431889026, 0.00258058591326, 0.00224597323086, 0.000275836509375, -0.00349572732298, 0.004068431052, -0.00103926614311, -0.0128040518397, -0.0178813189599, -0.0100057102752, -0.0152278435786, -0.0033771176809, -0.000690976543092, -0.00450760506505, 0.0062144701564, -0.0138120652791, -0.00381408223546, -0.00136938144822, 0.021429896731, -0.0135339794207, -0.00176483708848, 0.00278493360901, 0.00479984834086, -0.0105344681689, -3.54415654308e-05, 0.0106068957929, -0.00401063013037, 0.0025879220593, -0.00272133720398, 0.0232764100871, -0.00268493708593, 0.0010843446015, 0.0134056132341, -0.00336922124928, 0.0107161515568, -0.00377848675826, 0.00318939961861, 0.025894152125, 0.0111041316774, -0.0043885483958, -0.00674527482254, 0.0107961023791},
	{0.0186511327094, 0.00335639016922, -0.00315484663548, 0.0125401542317, -0.00183998548328, -0.0171643724249, -0.00720442339418, 0.00560975005093, 0.0180962074632, -0.0160569834664, -3.09277698775e-05, -0.0314458481034, -0.0257889782751, 0.00432358221521, 0.0180709329794, -0.0174163111823, 0.00983329504015, -0.00295697721114, -9.94573918623e-05, 0.00967377351232, -0.0164351499339, -0.00983725807969, 0.0104616273279, -0.0118061051179, -0.00358076068312, 0.00256912060436, 0.009059794887, 0.00591000649917, 0.00470355354198, -0.0121548767926, -0.00336262843014, 0.00729714937044, 0.00906472189433, -0.00932572063306, 0.00400105471314, 0.0196102644815, 0.00228885218035, 0.0161034565919, -0.00694701569552, 0.00137185293004, 0.00963521634094, 0.0059496032821, 0.00971974399665, 0.0115221172907, -0.00123864260577, 0.0040141692, -0.00175663829889, 0.00265820911305, 0.00560526550602, 0.0150878280855},
	{-0.00688895757723, -0.00520854172639, -0.00649584246851, -0.0058653733904, 0.0227713577554, 0.00985458307607, 0.011047521716, 0.00634632014704, 0.00794127690638, 0.0139691868695, -0.010736402345, -0.00123972440053, -0.00302344140961, 0.00266208988246, 0.00159274447964, 0.00699971268068, -0.013806009226, -0.00968854621348, -0.00228542689443, -0.00327307894386, 0.00440205296201, 0.0159757492532, 0.0136434023965, -0.00783800216061, -0.00302826417558, -0.00887118272421, 0.0103781054071, 0.00930372685338, 0.00186051096318, 0.0219539163981, 0.0178015507289, 0.00688381652633, -0.00758764331625, 0.0214482766982, 0.0142489982657, -0.00494636845654, 0.0107794980018, -0.00999372973393, -4.25094559017e-05, 0.00212632071727, -0.00917114821398, 0.0105257779563, -0.0301051256877, 0.0191679279477, -0.0110398250875, -0.00696347450118, -0.00228005331235, -0.00648954849309, -0.0193253168331, 0.00656242029287},
	{-0.00391170750954, 0.00438474350513, 0.00317234869156, 0.00744325427244, -0.00231290396381, -0.00194474396127, -0.0126967528106, -0.0134615814231, -0.0117890800585, -0.0188307713141, -0.00789314633162, -0.00297366679876, -0.000656732930665, -0.0104319125856, -0.000192467886724, 0.0167614940951, 0.000348189640757, -0.0310594683951, 0.00871129018732, -0.0159428683967, -0.000657725277886, -0.00946285463796, -0.000424760325959, 0.00800094785162, 0.00476671648331, -0.00778963688991, -0.0196000856682, 0.00660286726421, 0.00897877904358, -0.00393290694559, -0.0209728524358, -0.000525255802085, 0.001043552242, -0.0177948309784, 4.20109330884e-05, -0.0036722402711, -0.000799988950493, -0.000124643636474, -0.00628096366702, -0.0138766015957, -0.012753753803, -0.00242055922373, -0.00633131367722, 0.000981412110661, 0.00326696454718, -0.000306192677206, -0.00149567747757, 0.0132533827558, -0.0158807717644, -0.00413777037581},
	{-0.00816494071457, -0.00632692112755, -0.00904864658903, -0.00688977962601, 0.00763952490703, -0.00456259260604, 0.0107598011478, 0.0137089130318, 0.00219778584746, 0.00701865479741, -0.0131678446785, 0.016540150892, -0.00110990846181, 0.0072639671874, -0.000418039155597, 0.00338852111019, 0.00362252591532, -0.0162339517954, 0.0111289411775, 0.00392550998166, -0.00547625792339, 0.00575239111939, 0.0112521702926, -0.0248878194486, -0.00274446388232, 0.0168693842084, -0.00131156179516, -0.0101090137805, -0.00308981183569, -0.00994029056782, -0.000448024682301, 0.0108225736331, 0.00683073850827, -0.0122661136631, -0.0118715478106, 0.00290728973327, -0.00121968239548, -0.00276090106204, 0.00268881500432, 0.0228267645735, 0.0152546312666, -0.0114429444919, -0.0142369834796, 0.00128532880236, -0.0110973582718, 0.00149472101608, -0.00591383755803, 0.00264529708774, -0.00148691010181, -0.00885265886246},
	{-0.00257959127883, -0.015369869999, -0.0128375555079, -0.00819032615938, 0.0104448595027, 0.00679949934947, -0.00804767016593, -0.00529354816943, -0.00526575137462, -0.00919235752882, -0.00906846316884, -0.00445696738603, -0.00580266247734, -0.0109620004693, -0.00499709848459, -0.0133216731008, 0.0109606444578, -0.000363246360055, 0.019019179996, 0.0132632219347, 0.00625588392366, 0.00285641108653, 0.001332521538, -0.00169382786489, 0.0157205666697, -0.00871081367383, 0.00787864660031, 0.0148213952355, 0.00395961844477, -0.0306315007825, 0.00334212816324, -0.00734877157889, 0.00945788645988, 0.00602062489583, -0.000236902556446, 0.00586085206319, 0.00224547150449, 0.000713252253201, 0.0146517974039, -0.00106760159894, 0.00155140245809, -0.0104178232433, -0.00447448860352, -0.015494841546, -0.0136022469285, -0.00499687430633, 0.000559905591424, 0.00314839205132, 0.0117873219734, 0.00741858742344},
	{-0.00821800768232, -0.000672200854377, 0.0124375096681, 0.00218131360866, -0.0107007600663, 0.00197457856869, -0.0177301468704, 0.0262309193361, 0.0163404400943, -0.00261892982686, 0.00843853285092, -0.00549092042497, -0.0145907341541, 0.0129667555224, -0.00419543272734, -0.0054084913656, 0.000104209554064, 0.00660692300468, 0.0243088350617, 0.000627895738281, -0.0141323270902, 0.00550512391869, 0.00269303257874, 0.00996648562597, -0.004295804255, 0.0160112916462, 0.0154197223272, -0.0132147497341, 0.00541504157428, 0.00870044164217, 0.0231255867098, -0.00216960386845, -0.00451963444777, -0.00553577299473, -0.00878017832141, -0.00288494123346, 0.00569317410104, 0.00514199333171, 0.0159968982772, 0.0022736681221, -0.00898288564393, -0.00892282802481, 0.001528219607, -0.0106551826412, 0.019580551273, -0.00364657424809, 0.00460262893251, -0.00303245393338, 0.00588004215772, 0.0168182268305},
	{0.00825202492579, -0.00254793381586, -0.00162614196544, -0.00555598955561, 0.00241341738082, -0.014002415925, 0.00419369973577, 0.00494051732563, -0.0066082540634, -0.0176725005946, -0.00385933538679, -0.0163859769538, 0.015823192669, -0.000747892219647, -0.0104394156799, -0.000645245735309, 0.00596560971452, -0.00438976476732, -0.00525951053778, -0.0068947730354, -0.00142292519865, -0.00371715245259, -0.00449963303669, 0.00123289757927, 0.0140317793813, -0.0110762340333, -0.00332065490918, 0.00518598253625, 0.01913119226, -0.00409167783247, -0.00340667058064, -0.00750467535917, 0.00321986658834, 0.0066552574702, -0.00995188642506, -0.00147786532303, 0.0125290381879, 0.00984923091743, 0.0255292432045, -0.00452174244005, 0.0149347407039, -0.00378883551446, -0.00806329346115, -0.00648695955486, 0.000284959832941, -0.0137714889974, 0.0240452804093, -0.00958117053538, -0.00197210914157, 0.00858227036766},
	{-0.00594670688263, -0.0104767915018, 0.00678860724499, 0.000469329534868, 0.00273408117853, -0.00840184716547, 0.0184712593524, 0.00284521042271, -0.000239165002606, -0.00783087265836, 0.00719398326145, -0.00491166159628, -0.00680129251687, -0.00225935512131, 0.0205168844212, -0.0119189834084, -0.00177048344643, -0.00750727614869, -0.0118076153251, -0.0108177497758, -0.000860972536313, 0.00904404742954, -0.0133513434835, -0.00739979471558, -0.00035924548396, 0.000449232578221, -0.00514849514776, 0.00915273030867, 0.00552833986984, 0.0110356112943, 0.00031086316603, 0.011068239857, -0.00872332246738, -0.00632636187127, -0.0097950267932, -0.00581804708959, 0.00296847621001, 0.00868012021692, 4.41916212569e-05, 0.0147721973143, 0.00383589873307, -0.0179252392715, -0.00676019510813, 0.00515901473663, 0.00652957867972, -0.00781007413312, 0.00857845134198, -0.00724194657402, -0.00158390654055, 0.00222999533489},
	{-0.013274047763, -0.0053344033533, 0.0029863913023, -0.00420914201414, 0.00521392865349, 0.00577030150456, 0.0128012124148, -0.0113318335727, -0.00710928344111, 0.00747232851372, 0.0104728681172, 0.00354771521374, -0.00846182856977, 0.0140003855033, 0.00716399873978, 0.00457506894612, 0.00122107891617, -0.00374300374158, -0.0205890386696, 0.00467153807241, 0.00349471247769, 0.00370709282369, 0.000784854035241, -0.000476888016277, 0.0162315152489, -0.00690843649744, -0.0175288925307, -0.0052048356013, 0.0103165542926, 0.0149064363915, 0.00378964806738, -0.00745602564206, -0.00480896178561, 0.00567644534556, 0.00033299893415, 0.00879029880541, -0.00192937806911, -0.00691254068404, 0.000592343687188, -0.0293927465594, 0.0177478037591, 0.023566378715, -0.0216698449507, -0.00931599513134, 0.0167558295378, -0.0059191483928, 0.0101990548619, -0.021667105972, 0.000575170787968, 9.09562152735e-05},
	{-0.0136120572852, 0.00188983171102, 0.00396347563663, 0.00098378026001, 0.00728440788825, -0.00121267950694, -0.00195382132008, -0.00321716701505, -0.00984877945377, 0.00644752909923, 0.00123203510171, -0.0144090145648, 0.00599400670886, 0.00333175807777, -0.0140635995305, -0.00401046638116, 0.00653419217845, -0.0119608961645, 0.00268238904279, -0.0180506801719, 0.00191330770786, 0.00788846696579, 0.0218524388707, -0.00452612600359, -0.00135423882872, 0.00867003880149, -0.0257031237043, 0.01577722889, -0.00386691561938, -0.000330359817716, -0.00042316186826, -0.00800208127823, 0.00185660076568, -0.000498220179682, -0.00389292934962, 0.0138605030625, -0.00152959020713, -0.00485463635695, 0.0146536184321, 0.00291669998706, -6.53370072638e-05, 0.00542568160177, -0.00403308932851, 0.000361192788895, 0.00722163491673, -0.009361629284, 0.0112587602763, 0.0041049847332, -0.0185225520596, -0.0153792284056},
	{-0.00718650959091, 0.0049654178004, 0.00383950048135, -0.00292608654096, 0.00775668245074, -0.00164402046578, -0.00241634044993, -0.00951240337503, -0.00606124008237, 0.0173126778113, 0.00579650473793, 0.00780948919877, 0.0126310610581, 0.0102160909561, -0.00097032950438, -0.00459169522343, -0.0106588797579, 0.00358203443768, 0.000110471811129, -0.0109535034526, -0.0205233310524, 0.0101904329555, 0.00303701868693, 0.00556808895041, -0.00946075528718, -0.00896240014417, -0.000409890690088, 0.00634006478947, 0.00883859136382, 0.00859543352912, 0.0230130858874, 0.00271095985466, -0.00819549130008, -0.000755157998652, 0.0163756231969, 6.5275660588e-05, -0.0153087308133, 0.0048793569352, 0.0221050111626, -0.00999015134012, 0.0145027411004, 0.00293111197286, 0.00857750505143, -0.00264823507235, 0.0053294601289, -0.00595327798051, -0.00230825968149, 0.00989349809345, 0.0034978042126, -0.0012994479643},
	{0.000352536502972, -0.0177098400792, 0.0110466174564, 0.0153691677598, 3.39633979011e-05, -0.00316870183812, 0.00678648107409, -0.00228841578393, 0.0122883183713, -0.00993483619611, -0.0126535643893, 0.00235287911204, -0.00616287174023, -0.000693541926132, -0.00223572996825, -0.00263686711614, -0.0105830162834, -0.00874879104898, -0.0119706447606, -0.0160276121899, 0.0054579501101, 0.00391899709102, 0.0230250876203, 0.0205200948951, -0.00950465603843, 0.00128689890849, 0.00854523522504, 0.00161459088427, -0.0111110279849, 0.00844813422025, 0.00123784971794, -0.0111945609428, 0.0061345084797, -0.015901957898, 0.0110231017571, 0.0117241719006, 0.0134426214433, -0.00399986351756, 0.0170065126411, 0.00849820861976, 0.00296323107738, -0.0112148224187, -0.00290102955993, -0.00630375784084, 0.0031960084385, 0.00426872875558, -0.0116961793101, -0.0123319668143, 0.00521458065228, 0.00349148050305},
	{0.00415833826224, -0.00993620800919, -0.00308084964409, -0.0115789488823, -0.00798983207702, -0.0101549793483, -0.00163231747138, -0.00157054403763, 0.00407506109406, 0.00361262719583, 0.00732542799309, 0.0234812968677, 0.00382433710868, -0.000364995061913, 0.0128091308788, -0.0171371264668, 0.000393226865565, -0.00825422295338, -0.000540015901427, -0.0021013705634, -0.00528765631862, -0.00651468391889, 0.00802592089603, 0.0013071060069, 0.00814805438349, -0.0107408225061, -0.00644171854698, -0.0175879459042, 0.00598417866512, -0.0083077936778, -0.00425178596714, -0.000623644223884, 0.00702278602298, -0.00137453115883, -0.000177010651849, -0.00346987750998, 0.00121365997822, -0.0152645438184, 0.0106938044253, -0.000356157625104, 0.0133844674291, 0.0139660863075, 0.00866061160205, 0.00241456139277, -0.00594045857181, 0.00193304208349, -0.00490555694952, -0.025305433575, 0.00593355627259, -0.00695552170784},
	{-0.00530577911573, 0.00955670691196, -0.00521320999783, -0.000296311848003, -0.00724304048709, 0.0120866852411, 0.00306970524495, -0.00776949926983, 0.0065448741904, 0.00539532772562, 0.00606566930362, -0.0166099836078, -0.0116813108391, 0.00249322856833, -0.00777348594803, -0.00796080384838, 0.00236203741451, -0.00237723863353, -0.00292594532608, -0.00960428563241, -0.013927637751, 0.0148042171832, -0.00403382703926, 0.00296158954959, 0.00238597490533, 0.00598714417352, -0.00238063037003, -0.0050873275389, -0.0137996997798, 0.00790986396012, -0.00203109993255, 0.00372657355134, -0.00436400360924, 0.0167772113604, -0.00990248606538, 0.00303858571011, 0.0138208732108, 0.014779093446, 0.00400790424933, -0.00334251667713, 0.00102730231067, -0.00313003187594, 0.016418312801, 0.0046854941043, 0.0152132299218, -0.00809744682949, 0.00149052348149, 0.00243950368561, -0.0096571545791, 0.00701551398424},
	{-0.000390497418177, 0.00176608772297, -0.00290578659741, 0.0120396092032, 0.00402139086039, -0.0119828334758, 0.018192987172, 0.0101830565953, -0.00566413268968, 0.00858313156893, 0.0173916827056, -0.00384948921296, 0.0163007388386, 0.00586462414468, 0.0027120669597, -0.00608724582856, -0.000533095585313, 0.00835255290553, -0.0194177756624, -0.00842823052643, 0.00623279127706, -0.000149250224732, 0.0212257489413, -0.00462211341817, -0.0182301016833, 0.00724582556183, -0.00559102632036, -0.0068519421938, 0.00957891035724, -0.00192818130761, 0.00976877848416, 0.00141256287557, -0.0175256929639, -0.00796204930736, 1.25177297466e-05, -0.00368078072948, -0.0183014503254, 0.00519796230938, 0.00309468506632, -0.0148950118844, -0.00769947399041, -0.00868277993015, 0.0219418066164, 0.00730275312043, 9.64649484881e-05, -0.00659933532165, 0.0051836365286, 0.000351904337594, -0.00158984189668, 9.16563882458e-05},
	{0.00956850208949, 0.00850543637953, -0.0145363285627, -0.0167567319605, 0.00337615800756, -0.00379445292583, 0.00881190518261, 0.00419390679464, -0.00227977902691, -0.00430086341509, -0.00347201208516, 0.0103319838321, -0.0043114803938, 0.000444442970798, -0.00297331696587, 0.00158117623739, 0.0119375402232, -0.014827918561, 0.010856534359, 0.00529300174203, -0.0152319446967, 0.00824169289173, -0.0184191495394, 0.00672805192103, 0.0176094646787, 0.00436331358654, 0.0197819292649, 0.015604649811, -0.00504596659793, 0.0139220154503, 0.0247870739219, 0.0016537323842, 0.00618646981508, -0.0116401258969, -0.00433382675566, 0.00236440710405, 0.00127688842229, -0.011821882763, 0.00968915193821, 0.0162439803373, 0.023563736332, 0.00397696404467, 0.00238086012553, -0.0114879922999, -0.00481539525745, 0.00605823293744, 0.00222902418905, -0.0068099585426, 0.0109974468141, -0.00483065835401},
	{-0.00270561893582, 0.00400223377219, -0.0199259353466, 0.00979804622353, -6.43229774004e-05, -0.00639292613554, 0.00325510644199, -0.00271007257308, -0.0105720134222, 0.00571786408977, 0.0182816468332, 0.00235962190745, 0.00166842582783, -0.00661363947175, 0.0135995333557, 0.00359717200197, 0.00122271866399, 0.0177953812259, -0.00678632300002, 0.0093957061959, -0.0255893644276, -0.0090781579188, 0.00482897883067, -0.00136930764979, -0.00630428256993, -0.0128942259187, -0.0143991584491, -0.00493782011187, 0.0184088234627, -0.00780606277597, -0.00274530073101, -0.016614850581, -0.00410559269986, 0.000867855516381, -0.0152466623311, 0.0159518768353, 0.0117874866514, -0.00188369371223, 0.00881456530455, 0.0112967265574, 0.000379024720581, -0.0105411941697, 0.0106133623639, -0.0091628755789, 0.00510438412293, 0.00306557042022, -0.0115880974162, -0.00319732149604, 0.00223857094659, 0.0185916011705},
	{0.00356056262544, -0.00536703667354, 0.0134254390403, -0.000265032359745, 0.0151792403504, -0.00490091816667, 0.01367052639, -0.0112756300025, -0.0133799097401, 0.00263552784285, -0.0230643397936, -0.00208444066811, -0.019437629029, -0.00299646228675, 0.0130454848234, -0.0113702903686, -0.0196149763571, 0.00221060141817, 0.00132533133311, -0.00181964088263, 0.0050095870533, -0.00209957637805, 0.0023757154076, 0.000863967177536, 0.0011477960648, 0.00598719885699, 0.00437352685346, -0.00737361538206, -0.00882595651032, 0.00292900700091, -0.00956093709684, -0.0181885644531, 0.00130246781974, 0.00144806477369, -0.00813546537566, -0.00255397704009, -0.00588082517648, 0.00706525732641, -0.000763846804826, -0.00427884595927, 0.0023815458917, 0.00715247467678, -0.00029396528602, -0.00315456074196, -0.000765450726319, -0.00528905788941, 0.00643071342319, 0.0125966021218, 0.00196807212443, 0.0147444960577},
	{0.00400367586306, -0.00656850383109, 0.000135138717838, 0.0212019819052, 0.0155877681971, -0.00656951977944, -0.0175190779178, 0.00627909002515, -0.0181112950802, 0.00458379758549, -0.000563027099401, -5.86900585794e-05, 0.00202091779619, -0.00519455145102, -0.0101054089472, 0.000980296785171, 0.0117828425548, -0.00847363447427, 0.00359412702249, -0.00992702944696, -0.00474750314644, 0.00387952667013, -0.000509983134254, 0.0126526781838, 0.011926735551, 0.0263494877968, -0.00862317678139, 0.022696149373, -0.00359833496883, 0.00538990568182, 0.00394679193132, 0.0055864548548, -0.0069991966431, 0.00350432986367, -0.00245974042148, -0.00497929465417, 0.0122060468639, 0.00477180251879, -0.0112196746883, 0.0018238503154, -0.009390542829, -0.0150965752691, -0.00608018475027, -0.0045016348519, 0.00128368368631, 0.0132082104134, -0.0041837202243, 0.00537507344784, 0.00192872442909, 0.0104997793975},
	{0.00617958735304, -0.00512980060298, -0.00316036188993, -0.00337474763377, -0.00955838266434, 0.00723626072238, 0.0083761663867, -0.00696043301684, -0.00399297118553, -0.0073627142265, 0.0128445306734, -0.0168423451334, -3.65813929309e-05, 0.0152738752894, -0.0013782381219, -0.0112465429766, 0.000573753342209, -0.0066909481974, -0.00299415882865, -0.0138272579415, -0.00240815570526, 0.0208409433075, 0.0065488010731, 0.00397833663538, 0.0147364892749, 0.0160887844454, 0.00877246888856, -0.0142779872147, 0.0232954892968, -0.00599980605654, 0.00359799502224, -0.00281843766992, 0.0164973425383, 0.00943818746828, -0.000305299312153, 0.00897235468366, -0.00255070785849, 0.017689227975, -0.00475729808627, 0.0153222167213, 0.00370481977804, -0.00379585468355, -0.0151150934966, 0.000977937975449, -0.0064400962264, -0.00796685596091, 0.00686209037631, -0.00314657032157, -0.00491566810987, -0.00112402544262},
	{-0.010271592336, -0.00425549191808, -0.00304418149972, -0.0235476372749, 0.00330640726868, -0.00429419970782, 0.0114658182398, -0.0104048384079, 0.00517848557461, -0.0174445519218, 0.00663281369831, 0.00664552958059, 0.00189695306037, 0.00124862572736, -0.00666394145715, -0.0122304566308, -0.00414765515812, 0.0215041862922, 0.00394936881869, 0.00824010534913, -0.00634141828125, 0.00143102108584, -0.0059354795714, -0.000786844179126, 0.00417160124602, -0.0103417416777, -0.0227075028707, -0.014847541812, -0.0192693894256, -0.00577201898751, -0.00361154847866, -0.000346432050406, -0.00953077952378, -0.0024684235032, 0.0146149388793, -0.00100274663014, 0.0034317303976, -0.00542706650951, -0.00504321854858, -0.0144114640217, -0.0028026150588, -0.013040353472, -0.00190296529041, 0.00215312428403, 0.00707811905993, 0.00784934351455, 0.0169280525689, 0.00281226458866, -0.00812180223565, 0.00218086139476},
	{-0.00702761891661, 0.00311770043864, -0.00628862538173, 0.016874863546, -0.00873678904697, -0.0154262004761, 0.00501205852066, 0.00579703073824, 0.00210982409527, -0.0259582706125, 0.00434294086054, -0.00415604975053, -0.00372381042773, -0.0137117397349, 0.00724021201731, -0.0100575607362, 0.0012910488362, -0.00607701368231, 0.0112265819299, -0.00141939011656, 0.0153110853648, -0.0095612684643, 0.00592615395497, -0.00184637305844, -0.0246285620586, -0.00370028045738, 0.00256006666688, -0.0200157150572, 0.00774139619184, 0.00709442064641, 0.0194546859808, 0.00524704778337, -0.0142938663834, 0.000630849714212, -0.00374215811058, 0.016137452925, -0.00591168291377, -0.00439554578972, 0.017710176369, 0.0110503638582, -0.0109626515021, 0.00431094296188, -0.00382157058435, 0.00663048098237, -0.017302837687, -0.0193782998066, -0.00111557241298, -0.00107835545527, -0.0126430771949, 0.00511911844856},
	{-0.00999450114871, 0.00284802192581, -0.00305410503932, -0.0163548756884, 0.021171768767, 0.0123455525986, -0.00241716223235, -0.00230319050556, -0.0157439606544, 0.00826887244384, -0.00626990257981, 0.0068632142184, 0.0180040774375, -0.00333658502265, -0.00323671473835, 0.00668148814047, 0.00297946480126, 0.0297354252796, 0.00378179713048, -0.0126218591845, 0.0154023088498, 0.00685779979998, -0.00189189453291, 0.00420204594869, -0.00740321786822, -0.0103432954048, 0.00271750617141, 0.0015108008635, -0.0041084634613, 0.000616333596582, -0.0124146532803, -0.00190958366869, -0.00901794871257, 0.0162486834806, -0.00836923939857, 0.0135201348757, 0.0248162043022, -0.0205821153387, 0.00361979175129, 0.0119760047324, 0.0108648782423, 0.00571291838496, -0.00153752584595, -0.0203195042324, 0.0120679793212, 0.00437090536224, 0.0113927892867, 0.00936737920887, -0.0112138237644, -0.00838062825233},
	{-0.00887113966565, 0.00112781130114, -0.00402229146863, -0.0157694421895, 0.0166783407063, -0.0211081167727, 0.00934727534776, -0.0179574546933, -0.00585812975166, 0.000133507730891, -0.021004952755, 0.000832403679483, -0.00613538434662, -0.00738288728665, 0.00283268703303, -0.0016978386127, 0.000907813228709, 0.00615116992585, 0.00424850579484, -0.0252939901896, -0.00780044133527, 0.00640606266591, -0.00423395978166, -0.0087412237542, 0.00178949065904, -0.00643185437556, 0.00952554112077, 0.00389269086027, -0.00978056791128, -0.0249527163551, 0.00649270000302, -0.0124978511937, 0.00929202549631, -0.0161518830763, 0.00185014852972, -0.0119061519493, 0.0163327170431, -0.00684430851073, -0.00570793956039, -0.00270799710993, 0.00346289199159, 0.00730697416322, 0.00901679690042, -0.001395942669, -0.00539857459629, 0.013124530065, 0.0208019288948, 0.00876698254561, 0.017595615978, -0.00072340959959},
	{0.0148756834546, 0.00915269905089, -0.00471928771407, 0.00138349647958, 0.0124152791483, 0.00198719805937, -0.00594606718202, -0.0179404834284, 0.0101128821672, 0.0179171221475, -0.0153652343983, 0.00499874482686, -0.00892745444598, -0.00430960460342, 0.0136416628166, -0.019200501779, -0.00550747839028, -0.00894298712008, 0.00743134957248, 0.00989692195119, 0.00587848972185, 0.00189463385815, -0.00223076993164, 0.0115855243187, -0.013208701674, 0.00555360013724, -0.0090339507364, -0.00430902428327, 0.00501706770585, 0.00258674361759, -0.00408389161199, 0.0173561167834, 0.00396385330898, -0.00303906230685, 0.00786471799839, 0.0184674816701, -0.00134718717845, 0.00282844547894, 0.0366392200464, -0.000263962773513, -0.00607507387615, 0.00999443537393, -0.0011031998588, 2.19306283812e-05, 0.00801525272251, 0.000913575941872, -0.00672493119466, -0.0129834819867, -0.000530414744818, -0.020477990584},
	{0.00351304301421, -0.00384131060173, 0.0221391531871, -0.00513119822364, 0.00911623215185, -0.00651541369405, -0.00377363307286, 0.0133621886768, 0.00309703895143, 0.00664980616157, 9.2829855014e-05, 0.00398593477179, 0.0114078174131, 0.0109027097216, -0.00105844106534, 0.0187554212909, 0.00715547551579, 0.00751012955024, -0.00772807457819, -0.00796500817702, -0.0189421457525, -3.17389214812e-05, 0.00143514801873, -0.00310087907329, -0.00112536815031, -0.0104147032747, -0.0055781354637, 0.000598990639766, -0.0108863817014, 0.0106743911731, -0.00991621451543, 0.00099995996118, 0.00445677388833, 0.00267364070369, 0.0018592540048, 0.00642814585583, 0.000695554788153, 0.0143425571546, -0.0100278537253, -0.00287911011693, -0.00491872922593, 0.00411986203488, 0.0333217312983, 0.0101421971723, -0.0108231656489, 0.0138641354778, -0.0107154402308, -0.0107190895456, 0.0100113048642, -0.00799244804909},
	{-0.0101004853516, -0.00911254245328, -0.0140909449114, 0.0174359769912, -0.0128907635817, -0.0291490575009, 0.00165289075141, 0.00231116017392, -0.018062369806, -0.00990831503551, 0.0180890808877, -0.00600783710534, 0.00824454077083, 0.00354712854579, 0.0179156548919, 0.00501913916927, 0.00119204248462, -0.0225781755813, -0.00411497356861, -0.00833855131506, -0.0100153845489, 0.0159710309372, 0.00954451710258, 0.00859100898289, 0.0159188308573, -0.00475806941144, 0.00845267133537, -0.0140015779667, 0.00541165193206, 0.00778187574998, 0.000622681156022, -0.00332135905583, 0.00138234578707, 0.00596952305568, 0.00638743244138, 0.00411186236263, 0.0030410708129, 0.0178441874935, -0.0105008806619, 0.0167442672277, -0.00733639675807, -0.00703878295038, -0.00312874135589, -0.00787488981134, -0.00415893304902, 0.00172337675807, -0.00135054179537, -0.0111766263778, -0.0116825847902, -0.0179856310697},
	{0.00512763858333, -0.00297610365654, 0.0204493870183, -0.0137054934827, -0.00643063926404, 0.0197761042737, -0.00990973957168, -0.0132006397272, -0.0205869254122, 0.00126144179872, 0.00886549101061, 0.00698279789168, -0.00284619275283, 0.00765944759235, -0.00948357687159, 0.00728487476707, -0.00980845452094, 0.0237925452798, -0.0065685976183, -0.0107866160518, 0.00727583340971, -0.0148557785151, -0.012781320936, -0.000290523518735, 0.0356500064161, -0.0159059623354, 0.00228601919561, 0.0241231602787, -0.00635595741207, -0.00864147856492, 0.000990687069076, -0.00968696897031, -0.00246821702869, -0.0107522589884, 0.00452094338467, 0.00281303807047, -0.0144058515083, -0.000672015860826, -0.00133906803737, 0.010255671685, 0.00312660975155, -0.00803649385948, -0.00768140542964, 0.0134904763746, 0.000773847059042, -0.00337447167172, 0.00382271594047, -0.00419712337435, 0.00123567521854, -0.000878749224974},
	{-0.00323084092047, -0.013569282079, 0.00628446482709, 0.00481691522021, 0.0130602760539, 0.0101952957874, -0.00190184822051, -0.00548969572324, -0.00120654372172, 0.000144512279617, -0.0019535104372, 0.00135464286239, 0.00154045741854, 0.00192732391794, -0.0110622887146, -0.0148802323175, 0.00968267327178, -0.00786952650885, 0.00461041411394, 0.0151490990926, 0.0267291222949, 0.000775546512836, -0.0111138726032, 0.000124690121792, 0.024072157652, 0.00302890632379, 0.00840786437712, -0.0164180057556, 0.00546580453235, -0.011378982902, -0.0134877112716, -0.0154482945991, -0.00353453534549, -0.00505844526262, -0.0174254278067, 0.00961859154749, -0.00635378007864, -0.00119111331796, -0.0147769413358, -0.00672690120805, 0.00791817383393, 0.00723337435458, -0.0208810827496, -0.0161655459183, 0.00381972435463, -0.0161448791443, -0.00164489561738, -0.00475313527775, -0.00172541321573, 0.00614475457606},
	{-0.00621042103354, 0.0161728554769, -0.00152619783778, 0.0170909503482, -0.00330971121373, 0.0051331004831, 0.0144314771482, -0.0141790529844, -0.0112442904088, 0.000612970691933, 0.0046083750691, 0.00869356164813, 0.004597822098, 0.0146706783035, -0.00360572096554, 0.00875427172005, -0.0111456429854, 0.00152042838883, 0.00275647066587, 0.0152820669431, 0.0274350480132, 0.00814423101943, 0.00950600072392, -0.000992658646841, 0.0174147448832, 0.0214668886829, -0.00424951410915, -0.00476879748563, -0.0148898590495, 0.0103397882715, 0.0149153068281, 0.000693772472383, 0.00699053162493, 0.00487636699947, 0.00696044002642, 0.00704268697193, -0.0171496935438, 0.00604240226161, -0.00791479306358, -9.14526925822e-05, 0.0104255277674, -0.000305435987713, -0.00579290646632, -0.00841344501756, 0.00016717279148, -0.00885858077159, 0.00197458804829, 0.00239703556608, 0.00319723847321, 0.013123933197},
	{-0.0132443239624, 0.000943852023344, 0.00650966460164, -0.00497134553046, 0.0052849463036, 0.00749527224454, -0.0117456470392, 0.00636216701661, 0.00233481776107, -0.00372754785037, -0.0185014279018, -0.0145808310894, -0.0157011379494, 0.003074212168, 0.0122625627319, -0.0183787863306, -0.0054578718534, -0.00099650549726, 0.00981121203554, -0.00230653745771, -0.00337890756705, -0.017813990164, -0.0136121003316, -0.00110405737757, 0.00377838942722, -0.00556911248559, -0.0037874818931, 0.0117676888821, 0.0195637502989, 0.0020641549998, 0.0209722468691, 0.00670202012216, -0.00635253817214, -0.0148551943298, -0.0057964370389, 0.00824382072997, 0.00525446723571, 0.00939845756712, -0.00314879719166, -0.00443030857935, 0.0191667303824, 0.0109283535682, -0.00238414999062, 0.0103043607918, -0.018872118282, -2.64977307586e-05, -0.0135675610301, -0.00500608183298, 0.00902570375668, -0.00699975932507},
	{0.0104554021661, -0.00338135137433, -0.0233194423214, 0.00710434077552, 0.0108447062293, 0.0101303330222, 0.0097517834142, -0.00155734465819, 0.0220024820084, -0.00868950379114, -0.00998794152746, -0.00548466965968, -0.00818786540468, 0.0150251483746, 0.00440693088096, 0.010351484214, -0.00384111622919, 0.00425195423179, -0.00125030359386, 0.0148494719806, 0.00833159799931, 0.024348413767, -0.0208491064454, 0.00925915094858, 0.0104282521394, -0.00995481787441, 0.00177319272474, 0.0187313648473, -0.00401516946361, -0.0144559744777, -0.0071264155133, -0.000121590391637, -0.0296484413497, -0.00293574403432, -0.00677918667242, -0.0040512984992, -0.00274253463043, 0.00152546699366, -0.0135332815912, 0.00168248518859, 0.00108467163134, -0.00503641543166, 0.00915471502269, 0.0167315167797, 0.00265217282901, -0.00164157482271, -0.00490953905284, 0.000189346057581, 0.000116714355456, 0.00429656751621},
	{0.00795578618097, -0.00943044114811, -0.0218018266959, 0.0204200863769, -0.00145359436131, -0.00538627327601, 0.00481410765741, -0.0160978196383, 0.0032009026228, -0.00343530747998, -0.000423138862412, 0.0098317604981, -0.00457453014378, -0.0136674334609, -0.00939788309858, -0.00736459444041, -0.01900408388, -0.000210727313945, 0.00821254733903, -0.0102595113764, 0.00840313799445, -0.00545518626573, 0.00126489266047, -0.00131297664058, -0.0154015740688, -0.00935090475821, -0.0113787708381, 0.0117891940494, -0.00224327706065, -0.00289735228466, -0.00946564923876, 0.0113035665115, 0.00230762452796, 0.00546045848219, 0.00910153455601, 0.015899457746, -0.000766470659104, -0.00037035366622, 0.000363369785093, -0.0061393367473, 0.00783092137476, 0.00812539993541, -0.00734420999071, 0.0145514234747, -0.012165872837, 0.0124868100876, 0.000465523751253, 0.00148433477161, -0.00993810560626, -0.0032746641392},
	{0.00569280714432, 0.00828423546183, 0.00249563501252, 0.0104346944296, -0.0180330528021, 0.00375581628907, 0.000546124655292, 0.00152665632855, 0.0139627730003, 0.0112030753668, -0.00105797665436, -0.00865535860458, -0.00338803382818, 0.0207303982969, 0.00643897295492, 0.00021562786327, -0.00116413593879, 0.00163571689045, -0.0119386176004, -0.00815218446465, 0.00882523697859, -0.0138568193407, -0.0204873385108, -0.0199611569035, 0.0297600852602, 0.000865311503623, 0.00276374479092, -0.0136516308632, 0.0180068895179, -0.000220766389689, -0.00773376688784, 0.00206014370159, -0.00177251434445, 0.00811942637923, -0.0113899139383, 0.0109244168987, -0.00474190670049, -0.0177075599773, -0.00120558119583, 0.00761067323792, 0.00293850620458, -0.00600416614817, 0.00280623328612, 0.0130990006843, -0.00693606124149, -0.0150258993221, -0.0169776222632, -0.00982144051449, -0.000256590225056, 0.0159328561873},
	{0.000146777891476, 0.00885663648667, 0.0014662491536, -0.011495792666, -0.00116045382692, -0.00776459874126, 0.0139476728452, -0.00485238793354, 0.00155875341313, 0.000611555552745, -0.0114679594604, 0.000118879847507, -0.00790873321444, 0.0066316353146, 0.0231649357234, -0.00602529241037, 0.00144229867571, -0.017401046265, 0.0271743445186, 0.011106056972, -0.00443395298533, 0.016067116711, 0.0129827467475, -0.000745084307275, 0.0165167990113, -0.0248137505915, 0.00492874092373, 0.0164210364068, -0.0151918270161, -0.0123538629269, -0.0070842573612, 0.0219229176674, 0.00365014752223, -6.0016734185e-07, -0.00754187873737, -0.0151611985849, 0.00487255032483, -0.000411923937539, 0.0154236794161, 0.00828601683825, 0.0118652059437, -0.00922740831364, -0.00534064268075, 0.0113951810729, 0.00643472582778, -0.011323767799, -0.00573622481406, -0.0170559751805, -0.0066604785505, -0.0158754267633},
	{-0.00689439675747, 0.00696488707584, -0.0234134626633, 0.0168648195216, 0.000244410529263, -0.00596483380931, 0.00945687324683, 0.00237125286479, 0.0200876051957, -0.00953684065069, 0.0108828315438, -0.0121335445693, 0.0039597908679, 0.0122731792898, -0.00469808040933, 0.00215529260196, -0.013778128281, 0.00595966504565, 0.0258741369863, 0.0020396855286, 0.000511585691729, -0.00792546360128, -0.0198705211743, -0.0020392544178, 0.0146864494719, -0.000617908387284, -0.00629718278019, 0.0318209980045, 0.00236016896303, 0.0151457735334, 0.016750924553, 0.0166102842754, -0.00581562174673, -0.00722735873475, -0.0117367016108, -0.00478586893064, -0.0125377231928, 0.00590313964591, 0.00641458311821, 0.0136150171717, -0.00316299866984, -0.0134492210603, 0.00508705099743, 0.0217346736974, -0.00930286036476, -0.0300276620115, 0.0175668416051, 0.00119583556722, -0.0127338036533, -0.00545334836827},
	{0.00775104389817, -0.00624397608863, -0.00423023094856, 0.00203325883602, 0.000469337483271, -0.0191961954531, -0.00801306717033, -0.00370250622002, -0.0145147818577, 0.00272312795389, -0.00763520343998, 0.00333594063457, -0.00225621661892, 0.00386142694342, -0.00264219198395, 0.00762356195961, -0.0114385232897, -0.000428214266169, 0.0216415681395, 0.0135859276972, -0.00272617584676, 0.0100775692964, 0.00377117566098, 0.00650552203126, -0.00917233393317, 0.0114219827146, 0.00859478109123, 0.0102599468525, 0.00580540410031, -0.0081031186145, 0.00477286285661, 0.0144903080255, 0.00551171100545, 0.0205555283702, -0.0186288742302, -0.00739620541496, -0.0193394270807, 0.00441173582963, 0.00946032292294, 0.00867528954447, 0.014198657971, 0.00635099540307, 0.00412460378998, 0.00986060951737, -0.00252014208767, 0.00406591500468, 0.000548309557248, -0.0123666323609, 0.00154589043218, 0.00691054375625},
	{-0.00243154623978, 0.00947451214697, 0.00853567990709, -0.00840709427788, 0.000215436236533, 0.00292406799897, 0.0120228791934, 0.00735813143458, 0.014049646682, 0.00748337662395, -0.00419234952691, -0.0122037855418, -0.00149241228395, -0.000343156633416, -4.58371275251e-05, 0.00730789556226, -0.00103418187976, -0.00815580865944, -0.00459193144006, -0.00210891611225, 0.000241523507756, -0.0121641953162, 0.00974823486451, -0.00815701489227, -0.0244083728035, -0.00920769445005, 0.00315681249264, -0.0140899825913, -0.00912172929043, 0.00205438387608, -0.0108648454684, 0.00385733746303, 0.0124125228002, 0.00237260657899, 0.0109440022571, 0.00664629966074, -0.00730899473015, -0.00194881360839, 0.00346798974555, 0.0171606446576, 0.0035352999323, -0.00037297099122, -0.00269803516323, 0.0243720427125, -0.00387824747447, 0.0132948767179, 0.00588784277757, -0.00955859302394, -0.0238452517777, 0.0195033061612},
	{-0.000171530848525, -0.0048776422621, 0.00354706652283, 0.00882132308787, -0.00721898744949, -0.0136454921341, 0.00365093266908, -0.00128634155137, 0.00844353667598, -0.0107194124862, -0.00193604250952, -0.0251306748251, -0.0187332391464, 0.00796201208087, 0.0124474195087, 0.00411491660863, -0.0159864678321, -0.000280253844248, 0.0316115181025, 0.0315137820765, -0.0223987720721, -0.00870692852195, -0.0120289761338, -0.000860532739573, 0.0365025936614, 0.0131770001223, -0.0011673594849, 0.00842115127656, -0.00722029560298, -0.0155230899789, 0.00953504807623, -0.0151062531496, 0.00313028529618, -0.0111128045412, 0.00100233138986, -0.0138021472034, -0.0048998310931, 0.00857879613008, 0.0120623630408, 0.00215858244248, -0.00695939786907, -0.0138883878191, 0.0146597860146, 0.0105870220397, 0.0116191034269, -0.0166708551292, -0.0103076548095, -0.00179957663336, -0.00549663118215, -0.0036943758127},
	{0.00382053434091, -0.00363750281369, -0.0119204540527, -0.0112604426168, 0.0171747960919, -0.0138886892345, -0.0190456688254, 0.0125738631419, -0.0219372986529, 0.000576258940025, -0.0193901090866, -0.0211243173825, -0.0216492567148, -0.00343346325021, -0.0117375170541, -0.00737570502473, -0.00986892570644, -0.0095982602627, 0.0155161529995, -0.0131758775693, 0.00334458531652, -0.0102756918915, -0.0163579910001, -0.0137358487709, 0.0205659318261, 0.00668597841726, 0.00303394275423, -0.00307258510141, 0.000536090293304, -0.00892280762019, 0.016563491925, -0.00684435294997, -0.00382640930498, -0.00160269479756, 0.00152836321568, -0.0131561098473, -0.00903992185816, 0.0287972584914, 0.00988387892031, 0.00183066067369, -0.0137642481351, 0.00466327961044, 0.00192389790951, 0.0268335207496, 0.0077105548761, -0.0153507362877, 0.00404000209936, 0.00579800546959, 0.0151744609473, -0.0124253890744},
	{-0.00715861687242, 0.00854324629957, -0.0125250028314, 0.00218892775636, 0.0171332948367, -0.00112937356198, -0.00227386264019, 0.0187610514399, 0.00522602213235, 0.00600051963699, -0.00879138597511, -0.00276906344025, -0.00782223944138, -0.00519586160711, -0.00601402964729, -0.00131404373791, -0.00958792076678, -0.00152377305444, -0.00540068787231, 0.0058178630642, 0.000830284879671, -1.25921245307e-05, -0.00919527827138, -0.00497829283265, 0.000545171545933, 0.0199150805466, -0.00282106418317, 0.0163775359746, -0.00244999840453, -0.00994662763836, -0.00346064485126, 0.00800696801752, -0.012874322315, 0.00258829054403, 0.00462587897763, -0.00969382881987, -0.0228251309113, -0.0117448930642, -0.00283388208564, -0.0151881955501, -0.00817572021639, -0.00239571677581, 0.00272397120616, -0.0153591757227, -0.00832094958852, -0.0106406397852, 0.0028205813176, -0.00192626632056, 0.0115181430827, 0.000118844416981},
	{0.00259182361499, 0.00352417199298, 0.00397690498747, -0.0219367884396, 0.00915792673485, -0.00593833256399, 0.0191961047874, -0.0120668943792, 0.00673254975225, 0.00505366758758, -0.0121554584562, -7.56105386094e-05, -0.0014630483915, -0.00150934291873, -0.00264345327247, 0.00228501655995, 0.000500199545416, -0.00654877013755, 0.0187697480398, 0.014638341517, -0.00433385556409, -0.013975894741, 0.0108377301541, 0.00458600075323, 0.00911223721807, 0.0153095279385, 0.00162551691714, 0.000834673638702, 0.00128680177909, -0.00444012395115, -0.000392684908354, 0.00932854177897, -0.00960465672456, -0.00809636847494, 0.00759971059095, -0.000324169698488, 0.010007914276, 0.00804996955272, -0.00381780563842, -0.00285612177154, -0.0033458830266, -0.00817114539196, 0.00166519186473, 0.00408300578458, -0.00426344105852, -0.0152131320549, 0.00422006314487, -0.00905704431077, -0.00177269996029, 0.0129827024353},
	{-0.0207150902451, -0.00664378168035, -0.0144632871064, -0.00440266589337, 0.0216709601015, 0.0216110740778, -0.011549917035, 0.00906585986525, 0.00757337895927, -0.0264187701328, -0.00300757494852, 0.0117146387376, -0.0150538428907, 0.00640964508583, -0.0041126556989, 0.010263926402, -0.00865253999091, 0.00387790658397, 0.0268994022521, 0.00635649718214, -0.000872476457306, 0.00622111846678, -0.00957604658806, -0.0111114142023, 0.0126510033437, 0.00249107957976, 0.00616822836415, 0.00933031086456, -0.0119408753509, -0.000339204738584, -0.00553679892896, 0.035672614079, -0.022551817905, 0.00143214201057, -0.00991001954827, -0.00599702048531, -0.0112032018986, -0.0100559428827, -0.0144750462544, 0.0110493949202, 0.0114724874383, 0.00719980349413, 0.00914661656407, 0.011442216989, -0.00349173748868, -0.00174945908284, -0.00727640374362, -0.00429701207918, -0.00593610167797, -0.011623657365},
	{-0.00389136087386, -0.00707071682657, -0.0152391780283, -0.0186915331365, 0.0179512561176, -0.00132090420417, 0.0154058049426, 0.00385531548978, -0.000255117599012, 0.00881389060759, 0.0169198776296, 0.0101997392034, -0.000604260091709, 0.0133059427283, 2.82444519365e-05, 0.0040909711012, -0.0107639632786, 0.00102975539197, -0.0081118293941, 0.00501712311241, -0.00421165306986, -0.0186755011494, 0.00418428373401, -0.0223337480499, -0.0137422194752, 0.0115621800707, -0.00803932266819, 0.0157888846385, 0.00903537394481, 0.00883643573408, -0.00861003037071, 0.0104396603617, -0.000663009965292, -0.0189789250105, -0.00226684590133, 0.00944132848938, -0.00462022196886, 0.00242498652136, -0.0134542058803, 0.0168134799118, -5.15269792342e-05, 0.0147714051583, 0.000613217378574, 0.00678130303173, -0.00362847341989, -0.00422729750883, -0.0110422036287, -0.00813544755926, 0.00366827336269, 0.00693730117385},
	{0.00212937793827, -0.0131605444959, 0.00829285821374, -0.0135653111338, -0.00626185664349, 0.00533550545665, -0.012710174335, 0.0120194543924, 0.00742836531218, 0.0181423308671, 0.0100538971708, -0.023537275305, -0.00265276624253, -0.00911172219388, -0.00639678189882, 0.0028686875468, 0.00535467949632, 0.00684321261684, 0.023032708272, -0.00244186249634, 0.00272849292541, 0.00474426108069, -0.00866638207828, -0.00219218546856, 0.0111916494538, 0.00093358638818, 0.0109591086818, -0.00121013700774, -0.000142590410821, 0.0161734623255, 0.00357593194763, 0.0055756591984, -0.0210418692131, 0.0154510938072, 0.00259721467417, -0.00875217296338, 0.0107736865547, 0.00342038877465, 0.00853174040561, -0.00816252188225, 0.000899671197786, -0.00457138056978, -0.00629865355192, 0.00353572067868, -0.0143584057277, -0.0206351013945, -0.00692926480032, 0.00138368013285, 0.000720179308094, 0.0097528526203},
	{-0.00674880867642, -0.00132611457087, 0.0029807570257, -0.0023069822515, -0.00808861628249, 0.00808314401284, 0.00415946118258, 0.012725217158, -0.012163065901, -0.0201128650084, -0.00756608029135, -0.0180775775668, 0.0116652206023, 0.00346554740368, 0.00675461558327, -0.00329068206862, 0.00390263653816, 0.0182529681905, 0.00248369015037, 0.0127951268434, 0.00763910280938, 0.0171804763116, -0.00469392900722, 0.0049222561738, 0.0178086828958, -0.00425495916679, -0.0106857243101, 0.0183649385467, 0.0106151437596, 0.00502430018937, 0.00900915412253, 0.00823349157528, 0.00600500237965, 0.00509981331177, -0.013240063403, -0.000966097326656, -0.00636212681462, 0.0180307358623, 0.00203579854956, -0.00236810607748, -0.00879334318557, -0.00152133919828, -0.0237105862005, 0.0100155800574, -0.00751660519938, 0.00989841230144, 0.001807144977, 0.0035744297726, 0.0169806678319, 0.00678353046124},
	{0.00624669633816, -0.00196757770396, -0.00865388695742, -0.00185601044092, 0.00215449536289, 0.00263274128992, 0.00762966697265, 0.00304393743159, -0.000856730054271, 0.0126163596764, -0.00216950231463, -0.00382300203249, -0.00598863347228, -0.00477098180928, 0.00037291476885, -0.011424182082, -0.00333233133566, -0.00627631376054, 0.0163010938826, -0.0135239788508, 0.00169810995264, -0.000640740497978, 0.0145472214371, -0.0033482427613, 0.0233490395498, -0.0115016219327, -0.00720442466321, -7.789927703e-05, -0.0033209529345, 0.0156061872847, -0.00684727400335, 0.0054006130163, -0.00175522932485, -0.00646999474619, 0.00722134213923, 0.0128208950705, 0.000546109014142, 0.00919242931352, -0.00107277000614, -0.0148373690639, 0.00656924477681, 0.00659206009318, 0.0107590056649, 0.00692656595975, 0.00600761936171, -0.00177977192705, 0.00449251019297, 0.0287900816759, -0.00063206208567, -0.000371444131838},
	{-0.0206261149077, -0.00699869100289, 0.00951668131053, -0.00593449346875, -0.0138753378417, 0.00905104912719, 0.00912107708165, -0.00751759970301, 0.0134758670802, -0.000987158035462, 0.00298967990667, 0.00729220787534, -0.00146536351841, -0.00475655673568, 0.00461135990048, -0.0057742423509, 0.0232200097076, 0.00583247821276, 0.00363788004235, -0.0115959303913, -0.00216349973582, 0.0163348598255, -0.0141423648627, 0.0131356174587, 0.00233785490376, 0.000631801218946, -0.000246297462498, -0.0105906386408, -0.0127640167031, -0.00675001772633, -0.0120364945143, -0.0102647476203, -0.00659182616602, -0.00805122247055, 0.00157468599947, 0.0146050896791, -0.00458255735371, 0.0108812914671, 0.00517941908211, 0.0163986119881, -0.00897477287562, 0.00234705783252, -0.0149354475028, 0.00157592383007, -0.0034405719806, -0.000123119735888, -0.0177627078878, 0.0147231855662, 0.00527259317041, 0.000536783917741},
	{0.00107029090396, -0.00163758282163, 0.00159430426288, -0.0106912714366, 0.00445714316253, -0.00791554632754, 0.00206957194367, 0.0126451616969, 0.00908207186374, -0.011713785189, 0.0046311330977, -0.00278065404764, 0.00888987520211, 0.00224524946524, -0.0198045470492, 0.0102445320915, 0.00133452320421, 0.00108253042748, 0.00598427137268, -0.00648933318188, 0.00826694275858, 0.0232431317592, 0.00320267967017, -0.0159181026396, 0.0196206526161, 0.00194920799498, 0.00283927161099, -0.00154591285049, -0.00925473207011, -0.00274742378133, 0.0111688163929, -0.0104514028503, -0.00605919303747, 0.00226511422562, 0.00706372763705, 0.0112389753123, -0.0161197623175, -0.00454782794701, 0.0125626030424, -0.00393704746625, 0.00640875644172, -0.01262377145, -0.00159316487806, -0.0136766962841, 0.00543571907239, 0.0130359049955, 0.00622557673595, 0.00808030932155, 0.00566140982921, 0.00264689198772},
	{0.00368076708835, 0.00046654916759, 0.000640919774628, -0.00945290747981, -0.0166545249318, -0.0132085157112, -0.00922101534403, -0.0014750587201, 0.00411310288741, -0.009229049334, 0.00373373608684, 0.00135914263485, 0.00474451766895, 0.00979122682888, 0.00727798828695, 0.00469865398481, -0.015259039909, -0.0017549016715, -0.0125734023631, 0.00962549521118, -0.00142433126815, -0.000535626293718, 0.0100914834234, -0.00463209861988, 0.00212097406628, 0.022535655177, -0.000241830238917, 0.0121492459689, -0.00592733975358, -0.00423351092956, 0.00932225853751, -0.0087111805496, 0.0017637966495, -0.0042335580107, -0.00624351714785, 0.0062224695277, 0.0215999085022, 0.00171704536988, 8.36150769866e-05, 0.00328910671348, 0.00362593537544, 0.00795594124377, -0.00373829008688, -0.0184621720595, 0.00146250852579, -0.00509141513006, -0.0124461802866, 0.00427497436402, 0.00875049117152, -0.0015261745104},
	{0.00505807398065, 0.00608596355524, 0.013309454166, 0.000192482220658, -0.0083351012586, -0.00617430829247, 0.00669632876026, 0.0129164940808, -0.0223736004856, -0.0121413377165, 0.0128276147795, -0.0122368555188, -0.0060089801964, -0.0010539136664, 0.000844107865907, -0.00591302063883, -0.00704543937376, -0.00930007264769, -0.0148284100003, 0.00138916035124, 0.00304756829295, 0.00644155107352, -0.00200893293169, -0.00647764009598, 0.00628375210533, 0.000306602014696, 0.00534968986791, 0.00863972438901, 0.00690120884369, 0.00212239515793, 0.00415796229143, -0.00587313759638, -0.0203072209584, 0.00551786032548, 0.013421178022, -0.00764517817074, 0.00274441592237, -0.0124063553979, 0.011301921818, 0.00639017569986, -0.00297841447058, 0.0029325093404, -0.0192271254143, -0.000290226010033, 0.00687349400449, -0.00264708445451, 0.00153027997131, 0.00806108861989, -0.000196831265242, -0.013024916766},
	{0.000330514746344, 0.000619824479175, -0.00565518522749, 0.0206597316443, 0.0130913424162, 0.0150892448945, -0.0026005933985, -0.00964009291985, 0.000542163538856, 0.0173652038229, -0.0112320960154, -0.00138101512383, 0.0106548860811, -0.00763966948609, 0.0081802828754, 0.000467710384427, 0.0010495196677, -0.000227732660839, -0.0120450555032, -0.0192662880838, 0.000660618724164, -0.00562174757462, 0.00155102563355, 0.0144114608029, -0.0083061298404, -0.00149497886006, 0.0116760840557, 0.000527680213135, -0.00274497220116, -0.0145824805375, -0.0113600431698, -0.00277271467516, 0.000390362938247, 0.00961990112325, 0.0138647835884, 0.0124015122658, 0.014081883761, -0.000866762619878, -0.00383521227145, -0.00449616878049, -0.00278453966244, -0.00264647654704, 0.0116298581083, -0.0172859274369, -0.00820699895151, 0.00425840429651, 0.00470494546002, 0.000725117564295, 0.00734156767716, -0.000125126008803},
	{0.0089678642138, -0.0304708926446, 0.0142338784031, 0.00922654557566, 0.00577145757649, -0.000608353448159, 0.010064116888, -0.00502364971337, 0.00883289877101, -0.0202723283749, -0.00973235923878, 0.0122189565596, -0.00522390711892, 0.00798608171355, -0.00278310284735, -0.00915299017154, -0.0111913340812, 0.00582454442841, -0.00426381625514, -0.0173634224504, -0.0141451648017, -0.0112335845525, -0.00556962632916, -0.00431775274694, -0.00991589605103, -0.0114029187721, -0.00536742531309, -0.00408125018473, -0.00628877663396, -0.00211004099601, -0.00904281633492, 0.0114880663909, 0.00319011493636, -0.0129671921387, -0.0013232728692, 0.00934383046819, 0.00222635931673, 0.00931651846585, 0.014877112524, -0.00664068047701, -0.0227842073567, -0.00415430393577, 0.00448139807336, 0.0111914907522, 0.00176112011671, -0.000924073477563, 0.0121939884305, -0.0093102563409, 0.00762651369548, -0.0056842183017},
	{-0.0186658431508, -0.0114450585775, -0.019645432968, -0.0114925986551, -0.00894804110097, -0.00281686431264, -0.010263688687, 0.00469171578142, -6.20847036031e-07, 0.0163407473372, -0.00183058086902, -0.00657231955161, -0.00459941527829, -0.0087397910911, -0.00210648026579, -0.00579200366542, 0.0086135306257, -0.00852027310487, -0.00337008926294, -0.000197709516453, -0.00534807210371, 0.0141604575238, -0.00747517011552, 0.00493594230952, 0.00721381064883, 0.00519143084408, -0.00284992051637, 0.0023478674289, -0.00996514439185, 0.018847463095, 0.0196789249716, 0.0029548094674, 0.0063749788486, 0.0191221876357, -0.0109675888331, 0.00867751309194, -0.00780583967364, 0.00403349995298, 0.00151422529265, 0.00890255047523, 0.0153359700871, 0.00957252635856, -0.0106253087371, 0.0141475137497, -0.0133394000431, -0.00490942426692, -0.0199021257807, -0.0107684767937, 0.00220239418373, 0.00754858038106},
	{0.00122091756352, 0.00745188462435, -0.0217932021227, -8.52101394625e-05, -0.0032498054915, 0.00674232876062, 0.00590977623594, 0.0146729066713, 0.00712572740666, -0.00611686210549, 0.0261072856425, -0.00263354686209, 0.001787005645, 0.00234624969122, 0.00436556950234, 0.000696556813464, -0.0130896423249, -0.0174344939751, 0.00148733394234, 0.00294718234268, -0.00762509107395, 0.0106580869333, 0.00984112537605, -0.0144002085002, 0.0194150117348, 0.00384981545728, 0.00945402314382, -0.0016112408469, -0.00116054521193, 0.0017687491409, -0.00289003749134, -0.0136099684047, -0.00413616001621, -0.022570184897, -0.0160621087271, 0.0084452622326, -0.00431061405684, -0.00589407481642, -0.00430411297648, 0.00621329625968, 0.00429942116735, -0.00508440812686, 0.0100694972325, 0.0249694046741, 0.00321977388555, 0.0150423497871, 0.00240531182429, 0.01465681157, 0.00190812309451, -0.0107375454878},
	{0.00150667915903, -0.0070111119678, -0.00306961630402, 0.0158948309344, 0.00821089934195, 0.00353440626112, -0.000844177985183, 0.0142016759128, 0.00420406550016, -0.000957718945778, 0.0106472138663, 0.00429719313278, 0.00560008914288, 0.00224608209753, -0.0213640242937, 0.00739669724885, -0.0135572872775, 0.00609419515608, 0.00278505697449, 0.0070987100184, -0.0149730358162, 9.52431968287e-05, -0.00852252895006, 0.0103627928406, 0.000646641385311, 0.0020090321518, 0.0255099603979, 0.0036111729771, 0.000401168648532, -0.000991836163679, 0.0146208023407, -0.000286717472426, -0.00153948213141, -0.00243906017259, 0.0239488837788, 0.0117024950222, -0.0135176478875, 0.00547735184648, -0.0181113389592, 0.0192026028473, -0.0194480876609, -0.00497750633799, 0.00643863962104, -0.00709665535813, -0.00101421989246, -0.000683014268349, 0.0032850323282, 0.00381969768848, -0.000809367064204, 0.00693928598458},
	{-0.0312151949087, 0.00110817719337, -0.0247741939561, 0.00224769683822, 0.000483204491859, -0.0237795766095, -0.00106299139379, -0.011326480113, 0.00265159657844, -0.0153802434986, -0.00272397674971, -0.00913370305908, 0.00234657452716, -0.00879590194214, -0.00728264018347, 0.0239931655795, -0.0050951515639, 0.00146159055968, -0.00673604241737, -0.00900381134787, 0.0031012687045, -0.0212690936628, 0.0106624610714, 0.00413285758447, 0.0121629063838, -0.00973037915899, -0.00708411564542, -0.0100547250431, 0.00174632425044, 0.000809170910553, -0.00119943484176, -0.006526241534, -0.00147880023201, -0.00407453672198, 0.00295408114018, 0.0117829083959, 0.0211765099465, -0.00978019287888, 0.00564886666144, -0.00720629886479, -0.0171987972872, 0.00112278441696, 0.021711898575, -0.00397618856886, 0.00199923361609, -0.00312065857993, -0.00163708249509, -0.00235532329742, 0.000522300742398, -0.00100365013749},
	{-0.00040202812895, 0.0065853779423, -0.00824169530308, -0.0134603667882, -0.00861051869864, -0.0111237131797, -0.00471481318455, 0.00473245834301, 0.00427174251961, 0.0155972813165, -0.023987070511, -0.00159469399058, -0.00391473806783, -0.00569956612465, -0.00404297589238, -0.0182455591969, -0.00240403741501, 0.00759308051613, -0.0021330542258, 0.014049875624, 0.0164431222576, 0.010665668975, 0.0156529787576, 0.00403104659343, 0.00360533933907, -0.0163919060871, -0.013487080714, 0.00644607433781, -0.000237251890732, 0.0226975106257, -0.0153468323057, 0.00392442138366, -0.00268177242375, 0.0104946994744, -0.00485219172944, -0.0100299118131, -0.011510993504, 0.0021354027185, 0.014555097798, -0.0195462001868, 0.00359069637321, -0.00480201345516, 0.00109829351093, 0.0196413669415, 0.00752343330481, 0.00767988162098, -0.0125184049932, -0.00503899076501, -0.00161744833673, -0.00368511366239},
	{-0.0154994740184, 0.000418615015072, -0.0145910168334, -0.0141467551148, 0.0112133386014, 0.00551042157041, -0.0103885043262, -0.0150682259914, 0.00377061543749, -0.00492306863036, -0.00924154252095, 0.0148501807856, 0.00137905766012, 0.000752972085783, 0.00605540646269, -0.010274574489, -0.0212010047914, 0.011683084781, 0.0171349852702, 0.00664787283016, 0.0155374372773, 0.0112491679883, -0.00356538923827, -0.00436066525246, 0.0171085188539, -0.00218013147237, -0.00133967766697, 0.0307312413981, -0.0160944840869, 0.00362910086105, 0.00916782747605, -0.000727227813506, -0.00802586421413, -0.00364627651739, -0.00142665361076, -0.00266561387607, -0.0206731234174, 0.0168188252664, -0.00880403320778, -0.000514093232935, 0.0181218877845, 0.00908272889701, 0.00732683267284, 0.0268529842324, 0.00270133469063, -0.0366162216763, -0.00348732595759, 0.0277569537772, 0.000368405677474, 0.00446155861377},
	{-0.0120675650934, 0.0172928047424, -0.00925754431625, -0.0178072537358, 0.0244856913222, 0.0120847607246, 0.00573063096273, 0.0153408775737, 0.0104504294893, -0.00472058252405, 0.00674779499894, -0.00527824079605, -0.00527095204016, 0.000629330772973, 0.000665351209217, 0.0147924337333, -0.00715596275607, 0.00262735583845, 0.0301844118112, -0.0055553089574, 0.00439850975568, -0.0170928179238, -0.00294701777926, 0.00283114943925, 0.0214346753368, -0.00187221253479, 0.00380545015114, 0.0160711177382, 0.00672587183139, -0.0063714217271, 0.0270351135869, 0.0149029484097, -0.0175528661898, 0.00413643994161, 0.00987827836774, 0.0135872950354, -0.0132481129617, -0.0029250521119, -0.00173971985413, -0.00975350628977, 0.0016391243732, 0.000494408558479, 0.023086682811, 0.0349623153522, 0.00160673358357, -0.0212797147937, 0.000880214772332, -0.018914260335, 0.0015805773202, -0.0215848179693},
	{-0.0127814094862, 0.0116471668608, -0.0333131174169, -0.00526029129735, 0.0297641868177, 0.0197880273697, 0.012398828925, -0.00775254941072, 0.01573861596, 0.0252370363784, -0.0151963716942, 0.00820993507049, -0.0371017368725, 0.0112710292432, 0.00123855902256, -0.00306113109018, -0.0121320688701, 0.00125045565977, 0.00862719981899, 0.0207594753692, -0.00203681449339, -0.00581263961354, -0.0262963574837, -0.0190621671127, 0.0320151384177, -0.00321404578549, 0.00805131847871, 0.0121581510073, 0.00708246899501, -0.0234374870821, 0.0198580906407, 0.0314640358266, 0.000171239342788, -0.00479722152982, 0.00682749260263, -0.00761247764249, 0.00479234110249, -0.00410189101953, 0.000398590630113, -0.0172808973222, -0.00128621683619, -0.00826498493343, 0.00110567923006, 0.00650712682231, -0.00261496823567, -0.0197381188646, 0.000167228221623, 0.0102905825209, 0.00146484339628, -0.0270641333887},
	{0.00853890444152, -0.00497502391864, -0.00842374608394, -0.0051989336135, 0.0312753739828, 0.010003489945, -0.00107125154485, 0.00859520494636, 0.0226105915395, -0.0033309238898, -0.0159890148277, -0.0102463855119, -0.0470462006919, 0.00678528711316, 0.00770818743426, -0.000488538750993, -0.0101683157177, 0.00291002163565, 0.0163413853669, 0.0376898028616, 0.0034476096116, 0.000348345909793, -0.0400943295172, 0.00412683144744, 0.0402653206116, 0.00168053993236, -0.0208283253721, 0.041042040664, -0.0085432708936, 0.00918639705819, 0.0324898031032, 0.0327435968762, -0.0216650130538, 0.00291983811076, -0.000599133070692, -0.0152731643242, -0.0032115097421, -0.00159224241725, 0.0168654207799, -0.0210885431973, -0.000936413160353, 0.00562108014413, -0.0147250642864, 0.0380227789656, -0.00254175889975, -0.0250185102953, -0.00704213178604, 0.000483654926723, -0.0173914008488, -0.0281867458961},
	{-0.00253709174148, 0.00309907103162, -0.0114215426633, -0.00774619472587, 0.0536590419599, 0.0430157706401, 0.0346838906653, 0.010041765022, 0.030605233953, 0.0112024804694, -0.0123928181838, 0.0128285147837, -0.0554459167669, 0.0123643090806, -0.0136291097266, -0.00420786844282, -0.0193726410391, -0.00230338197968, 0.0057422324477, 0.0387924251731, -0.0244336664081, 0.00689890407375, -0.046114055494, -0.0238295463024, 0.049747846584, -0.00623176801449, -0.000957680211924, 0.0376178379407, -0.00231845183549, -0.00356143341133, 0.00321521754014, 0.0459931755852, -0.0158156133672, -0.00173535670355, 0.0036932150814, -0.0166725471556, -0.0304147300353, 0.0274557631009, 0.000260016469733, -0.0208783714183, 0.00558326117193, 0.0101411983154, -0.00223064025091, 0.0449305923091, -0.00380452498633, -0.0268449498697, 0.00588815348199, -0.00797532762886, 0.0113584225139, -0.0414510303021},
	{-0.00164066221296, 0.00253917489546, -0.0307126765124, -0.0098145175389, 0.0508627047961, 0.0147700896948, 0.0438552794997, -0.000417656887464, 0.0403853692598, 0.0149414207842, -0.0324420968323, -0.00109576818225, -0.0408220843778, 0.0209370193002, -0.0104267614295, 0.00197526501453, -0.0263568286248, 0.00407684472371, 0.0108574053619, 0.0628499077506, 0.000780319220862, -0.0408809162606, -0.0631251259621, -0.00281954899749, 0.0260550902634, -0.0159141500566, -0.0160230294408, 0.0538240699547, -0.023890931301, -0.0127167227454, -0.00813844819571, 0.0419927126636, -0.00613739760055, -0.000427937369574, 0.00583843996542, -0.00840648790497, -0.0426910470934, 0.00599164325273, 0.0055138081646, -0.013567727929, 0.00718921027282, 0.00806041227188, 0.00424078161282, 0.0507933989997, -0.000866022189326, -0.0454397073349, -0.0205456750356, 0.0137225256772, 0.00717283054344, -0.0217363260172},
	{0.00123480157981, 0.000277239964631, -0.0254263122315, -0.0293319046497, 0.0296514703945, 0.0334794022208, 0.0554377173774, -0.0238529034495, 0.0255778158948, 0.0118215184461, -0.0319364968882, -0.0333877305634, -0.0213938508916, 0.0169457629498, -0.0146395722148, -0.0119090221609, -0.046607302345, 0.00401738815764, 0.00428941042985, 0.0414737132168, -0.0119779124159, -0.0256437079464, -0.0602438877324, -0.00354055679902, 0.027420863362, -0.0123507390563, -0.0229494596829, 0.0532724303984, -0.00817395438529, 0.00851322381164, -0.00492477604887, 0.0108468630926, -0.00261201449164, 0.00452052303043, 0.0148815180081, -0.00284516315783, -0.0218669739924, -0.00504674986081, 0.0227329072781, -0.00831298151495, 0.00900862029213, 0.0151292980312, 0.0166840316649, 0.0166060976748, 0.0148171816577, -0.0266734781013, -0.0098276415948, 0.0019265082609, 0.00273468204748, -0.011196010047},
	{-0.00234800015908, -0.0220240747981, -0.0292916796098, -0.0104522320888, 0.0228339612273, 0.0605961933814, 0.0600634216536, -0.0106369725416, 0.0400613176814, 0.0258100331518, -0.0338904644587, -0.0183402503101, -0.0504912560936, 0.0107890337864, -0.00441539190775, -0.0139106441291, -0.0448280526727, -0.000412022369568, -0.0043157787221, 0.0475819640783, -0.019437509356, -0.0284970451069, -0.0486082388315, -0.0210748773601, 0.0336006498991, -0.00423998826041, -0.00859563393749, 0.0571306457759, -0.00324727619463, -0.00395576871024, -0.0344215820695, 0.032439330714, 0.0224202931205, 0.00712879475476, 0.0345835813506, -0.0172602410128, -0.0251731463419, 0.00790840405505, -0.00129473843748, 0.00247616493821, -0.00659284257405, 0.0183570912779, 0.00133060318659, 0.0316882153703, -0.0228067434709, -0.0371671317544, -0.00776248848932, -0.0150445956688, 0.00927236056249, -0.0247408679545},
	{-0.0121564630653, -0.00304500783056, -0.0432511191808, -0.0178457698229, 0.0417895909378, 0.0498422478627, 0.0773961255468, -0.0287595145748, 0.0319021130857, -0.042210255776, -0.0198473074864, -0.0193086067856, -0.0850491200314, 0.00999953369938, 0.00171795336209, -0.0126061180866, -0.0648913707155, -0.0060607235427, 0.0140897253784, 0.0483425519176, 0.00583972070106, 0.00404883109974, -0.0489440769576, -0.00572581664605, 0.0320981991659, -0.00446242825076, -0.0134181035346, 0.0774401034112, -0.000690285027873, -0.00413070388413, -0.0314422855833, 0.0206903442432, -0.01187927597, 0.00922175454203, 0.0390928888097, -0.00856785156616, -0.0369360040808, 0.0198658867079, 0.0064221312102, 0.0332394076332, 0.00871795169946, 0.0311678031526, 0.00774380579282, 0.0255117025909, -0.00959696400111, -0.0221947942517, 0.0313111976206, -0.0222441271407, -0.0321087820168, 0.00818160400291},
	{0.000402612738686, -0.00795005025906, -0.0318983710302, -0.023960996042, 0.0292972654396, 0.0182040900246, 0.0755837013934, 0.00546606032954, 0.0470708584169, -0.0301481125566, 0.000808333817882, -0.00396175610422, -0.0548103329105, 0.0196244201227, -0.00895943798864, -0.0100677664859, -0.0258711912181, 0.0143832749481, 0.0191223247114, 0.0527517495913, -0.000569370249815, -0.0100329537164, -0.0478077529938, -0.0100116406009, 0.0289877724885, -0.00921593067411, -0.00842148881265, 0.056442276044, -0.0307716294012, -0.00795750888442, 0.0114333656582, 0.0244093735773, -0.0134152537575, -0.00332748046407, 0.0248987835965, -0.00535711702792, -0.0113573377477, 0.0106682829568, -0.00635457094619, 0.0133173848504, 0.0149790052959, 0.0266415030989, 0.018548560139, 0.0408465670957, 0.00447731679049, -0.00910117925493, 0.00950034667303, 0.00735662637663, -0.023015948017, 0.019832356465},
	{0.00247763634674, 0.0154455439594, -0.0325874481323, -0.0123395489424, 0.0412198856379, 0.0266408294794, 0.0397033173488, 0.0135544243466, 0.024761383419, 0.00589946933247, -0.00736768420772, -0.0132551320426, -0.0301041926074, 0.00721639385406, 0.00620923775848, -0.00435991809086, 0.00466242466984, 0.0117524814779, 0.0257624563613, 0.0259718090229, -0.0103077853394, -0.00608993213816, -0.0349930506024, -6.39483015404e-05, 0.0105492452651, 0.0145912226642, -0.00117362397922, 0.0534071017732, -0.00575622495919, 0.0058809008329, 0.0184433034118, 0.0359506716115, -0.00866932383437, -0.0129293916549, 0.0220418956812, 3.14846069489e-05, -0.0156257084599, 0.025082030193, -0.00514224841324, 0.0329359778149, 0.00110169550412, 0.00551928571418, 0.00609130204791, 0.0294926597203, -0.0101451975712, -0.00881506083574, 0.00551838757791, -0.0113066407546, 0.00228273003762, 0.00807972172883},
	{-0.00519345256896, 0.0123133246168, -0.0276516334003, 0.00189827982827, 0.0367643004414, 0.044918155127, 0.0412505973213, -0.0178695760835, 0.0501443996367, -0.0189438734827, -0.00169318591168, 0.00972156398429, -0.019675825566, 0.0284133514402, 0.0220046018567, -0.0125579314666, -0.0185775438552, -0.00516770468814, 0.0224083120447, 0.0147833690837, 0.00275266049556, -0.010777366478, -0.0011223648173, -0.0228227651933, 0.0209125983384, 0.0041912814859, -0.0313921879951, 0.0381742726961, -0.0108297932067, -0.0107608909801, 0.027317628612, 0.0282746819689, -0.0393396217254, -0.0133674526149, 0.0072288980499, -0.00132534582728, -0.0115113159122, 0.0116642191462, -0.0102867675362, 0.0158284012377, 0.020704043397, 0.00227695399128, -0.0189150164183, 0.0428398643671, -0.00093425987187, -0.0127795752919, -0.0106395506782, -0.00225654615823, -0.0204032285801, 0.0312318666047},
	{0.00728470857955, 0.0175692529249, 4.61854909193e-05, -0.0156331455404, 0.0171739501162, 0.0451080151009, 0.0398842568848, -0.0213103077975, 0.0423254749672, -0.0376689838848, 0.00239670253154, -0.0211896198014, -0.0273904486338, 0.0118642080646, 0.00497277876648, 0.00389656573694, -0.025739590503, 0.00441951484333, 0.04024832108, 0.00780055595955, 0.00111800853516, -0.0434219431324, -0.0117952786196, -0.0135593291471, 0.0167951447198, 0.00701941570719, -0.0134906277436, 0.0358090102973, -0.0106771989514, 0.0100905739423, 0.00822077594758, 0.0421893575823, -0.0357839948052, -0.0028753617828, -0.015586929238, 0.0120930207006, -0.0232077876415, -0.0157839438081, 0.0211057678334, 0.00443247098296, 0.00885724861201, -0.000883515188337, -0.0196733672946, 0.0261045006236, -0.00283505915576, -0.0405266918865, 0.00433370063365, -0.0191078920476, -0.0448121459307, 0.0487250227746},
	{-0.01008049863, 0.00327562534585, 0.0108749791216, 0.0104239538529, -0.00158573871665, 0.0383973699833, 0.0194062435567, -0.0253161353188, 0.0239669109201, -0.00465161901087, -0.00388521919291, -0.00232161757748, -0.0114999899363, 0.0132430061855, -0.00977342176746, -0.00175527737585, -0.0284261998079, 0.0141810877139, 0.0144211465883, 0.015171329561, -0.0108393667419, -0.0143551334521, -0.0207767744975, -0.0122864653529, 0.0222901537953, -0.00374575888432, -0.00327142747625, 0.0235505559437, -0.0157563564842, -0.00768331634766, -0.000475072372967, 0.0388639032074, -0.0170635478793, -0.000139502005041, -0.0124593846929, 0.0158447400564, -0.00863989406338, 4.53567337021e-05, -0.0116924952569, 0.00113874410032, -0.00199388669242, 0.0140060329743, -0.00912454645304, -0.00436346015017, -0.00425190520192, -0.018046953711, 0.000842156571923, 0.00775560883538, -0.0230415329815, 0.0302635263537},
	{-0.00294961239666, -0.000580509520416, -0.00745153981156, -0.0133311304785, 0.0305280371636, 0.0312287596649, 0.0203157097875, -0.00213323567296, 0.0125639224489, -0.00814089762269, -0.00138930434036, -0.0122924178513, -0.0100786871213, -0.00530315130379, -0.0109002261332, -0.00554302849965, -0.0294598843168, 0.0049990640679, 0.0189441620589, 0.00817883983586, -0.0197579284111, -0.00436647499549, -0.00837225922436, 0.00721480570012, 0.00517188816164, 0.00454751756864, -0.00628625244257, 0.0145405628349, -0.0071838710346, -0.00632018585824, 0.00184081225813, 0.0246196314528, -0.0285120729107, 0.0351097829984, 5.65048983858e-05, 0.00821858742172, -0.0125781460159, 0.00762810958542, -0.0161873942098, -0.00804075470375, -0.00193439714122, -0.0284388771787, 0.00256237645458, 0.0160328654539, 0.00885247489003, -0.023667326071, 0.0105845969572, 0.0026863245749, -0.0277028236899, 0.0185968169987},
	{-0.00172324602761, 0.000939218237153, -0.0202144633905, -0.00152170077605, 0.00530564551806, 0.00872879607325, 0.00822329352643, -0.0134626891521, 0.0368771151863, 0.000147606943296, 0.00610182818591, -0.0023822268938, 0.00236381640683, -0.00324692358048, 0.0266691466157, 0.0112328406255, -0.0107797194218, 0.004928262078, 0.0059058699096, 0.0134785760638, -0.00188631203251, -0.0162956146854, -0.00683510714575, -0.0118769304029, 0.0151173832604, -0.0173858198896, -0.00695075394187, 0.0242348138995, -0.0250436706312, -0.00808726631001, 0.0101352941757, 0.0176857462084, -0.00960393184348, -0.0237052786801, 0.0141644230156, -0.019394138276, 0.00406743295915, -0.0145769702795, 0.00137580212571, -0.0179028199693, -0.00492001023599, 0.00691503537008, -0.0171572742214, 0.01450259611, -0.00676349149122, -0.00688797843715, 0.00355047067392, 0.00190300756191, -0.00622404027312, 0.020160153613},
	{-0.00137675732816, 0.00289546738648, 0.00315020358213, -0.012411175881, 0.00299529339319, 0.0176647658155, 0.00277703670208, -0.0120446581998, 0.00173010529351, 0.00516975994006, 0.0136106987342, 0.0109962361743, -0.00845533656603, 0.00745734071429, 0.00140426404206, 0.0126573881601, -0.0214334772418, 0.0040821307983, 0.0123140918772, -0.0114296804434, -0.0192460677675, -0.0132578145636, -0.00302566515883, 0.00339546444886, 0.000738090452566, 0.00474363115306, -0.00458892708892, 0.0195573998623, 0.000462119378928, 0.00791629074049, 0.00125141829392, 0.0195843112078, 0.00960931208655, -0.00486820730873, 0.00984407722497, -0.00255105708075, 0.00804382023609, -0.00909739216002, 0.00402583594208, -0.0172285445029, -0.00845674315027, -0.00411229452708, -0.0013224693699, 0.00732494526307, -0.0063654613095, 0.00299928075404, 0.00441458178317, 0.0064995782643, 0.00299554717399, 0.015871148487},
	{-0.00274032238194, -0.00588391647246, -0.00660232892422, -0.00372757810163, 0.00444443596293, -0.0010520706818, 0.018589448273, -0.00343498578325, 0.00780522672224, 0.00855631507005, -0.00782569991137, 0.00534184405308, -0.00346276176393, 0.0102792897416, -0.00358613514978, -5.57401464984e-05, -0.0121512101181, -0.0106813533584, 0.0272147837712, 0.0135060893927, -0.0178153236565, -0.0133265107807, 0.0125317569116, 0.00988666461203, 0.0216977087456, -0.00467024733985, 0.0135928667217, 0.000779352698907, -0.00358075757781, 0.00379060511113, -0.00855352915679, -0.0116444647649, -0.0109761381922, -0.00343343782258, -0.00242421240487, -0.00509533376678, -0.0025842393338, 0.011240154098, 0.000159016140696, -0.00498295113084, -0.015640482991, -0.010780566242, 0.00975375075747, -0.0127708074624, -0.00409205198293, -0.0128262545586, -0.00299112803772, -0.0148316085341, -0.000133919905401, -0.00378003487444},
	{0.00660415389845, 0.00200081383619, 0.00932906609601, -0.00172271910978, -0.0018589633371, 0.0108223230944, -0.00281909913775, 0.00269722909594, 0.00728111381244, -0.00536653383121, -0.00187074262468, -0.0132772651181, -0.01423416842, 0.00749797441142, -0.0108991728392, -0.0134031746973, -0.0125661393903, -0.0173130806429, -0.00849611519533, -0.0109988180461, -0.0297047961404, -0.00580462521211, -0.0173994921222, 0.02447853195, 0.0184840662642, 0.00894069386185, -0.000430036586748, 0.00630596405115, 0.00471872938194, 0.00571007728089, 0.0204025289705, 0.00331543568207, 0.0118370581428, 0.0053940698475, 0.00228110720976, 0.00358674480602, -0.0191306797791, 0.00808606762732, -0.0127133198993, -0.007473552963, 0.000333146243772, 0.00411572366067, 0.0021313509882, -0.00865710095579, 0.00544319951376, -0.00326021887365, 0.00889729301091, -0.00931874254598, -0.00927758422651, 0.00478646358395},
	{0.00320116320995, 0.00666353673028, -0.00988817132784, 0.00844587573294, -0.00921435145081, 0.00672155390083, 0.0004683929318, -0.00517801330854, -0.00473735999294, 0.0173635815134, 0.00490072462275, -0.00303183701266, -0.0105677397546, 0.0181050219338, -0.00820060140012, 0.00999183083472, 0.00122645449485, 0.00123214129332, -0.0133985226875, 0.00941627043358, -0.000701225643141, 0.0216948290004, -0.0130606204251, -0.0196550071363, -0.00459331056289, -0.00464067899193, 0.00559764362264, 0.000511371153712, -0.00313995028495, -0.00287116726404, -0.0169385557439, 0.00227030376875, 0.0174203779408, 0.00709172301118, -0.00400111223454, -0.00278600855057, -0.0048482272644, -0.0122234525534, 0.00961757912452, 0.0144439918145, -0.0200129358386, -0.00507625843774, -0.00205945750091, -0.000956166470196, -0.00541382150119, 0.00655715448902, -0.00170950602507, 0.000751821200514, 0.0157285725596, 0.0137354663831},
	{0.012869414782, -0.00719114846364, 0.0119236163185, 0.00686856624043, 0.00595546912052, -0.0131594710094, -0.00124358301955, -0.00180005679715, 0.00825433817664, -0.00867156319976, 0.00964395632118, 0.00678678390735, -0.0109669022701, -0.00405679027939, 0.012166879842, -0.0203168662218, 0.0112111549021, -0.00728988842117, -0.0068856385717, 0.00432393688277, -0.0176930401569, 0.0044801874248, 0.00942789441516, -0.0125953523063, 0.0106046043054, 0.00178364685665, -0.00387037010394, 0.0139758404588, -0.00173875704915, -0.0149366962867, -0.0267716429423, 0.0099939283059, 0.00705106409224, -0.0118226747568, -0.00442040428725, 0.00340624492633, 0.00802226843734, -0.0062493745819, 0.00466251543645, 0.0228075338593, -0.00702013452151, -0.010034415824, -0.00754885452098, 0.00242993151491, 0.0068926870825, -0.000641711132593, -0.0046545249966, 0.0190021263829, -0.0109033995831, 0.00012771722865},
	{-0.0140262393679, -0.0119361405849, -0.00249911301545, 0.00454448182594, -0.0175330581356, 0.00645883532461, -0.0208234083396, -0.00503739675736, -0.000826696346397, 0.00800311135885, -0.00800022797148, -0.0167252187626, 0.012914203685, 0.0141880472199, 0.0011200738567, 0.0107180953604, 0.00662271714654, 0.00377946145803, 0.00919078900566, -0.00805950422236, -0.00976752645462, -0.00746138876449, -0.00830602386023, 0.0127730170646, 0.00462819154107, -0.0180109076884, 0.00860018419639, 0.00136977594101, 0.011869877429, -0.00201159901002, 0.0163429181193, -0.0106585816815, 0.0164425821262, -0.0184133910701, 0.00998993496631, -0.00152856353056, -0.00301741086836, -0.0176803096349, 0.0196777170669, 0.00864897112437, -0.0159068280161, -0.0197310294129, -5.71787391334e-05, -0.0086378175763, -0.0060174052764, -0.00489747612579, 0.00765306418544, 0.0049038688722, -0.00806234011186, 0.00374195314282},
	{0.0139156939454, 0.00546820382096, 0.00464609627645, 0.00421641586749, -0.014348603027, 0.000188027223481, 0.000730246732103, -0.00270650931137, 0.0127588410901, -0.0185368524718, 0.0105672683815, 0.00544793450028, -0.000499816864591, -0.00300364267679, 0.00355763696064, 0.0122797129086, 0.00388312491881, 0.00741838923366, -0.00595629246716, 0.00755216547022, 0.00869547559777, 0.000152770809169, -0.00722546472918, -0.00936260846991, -0.0097501837148, 0.00918364810236, -0.00670411829688, -0.00890629854399, 0.0101496846185, 0.0102597736273, -0.0194036467625, 0.00105913082957, 0.0101523219421, 0.00994687448325, -0.0152809278883, 0.00644065908728, -0.0105754655432, 0.0172280726759, 0.0121836650145, 0.00547571602585, 0.000902500658842, 0.00480263748217, 0.00456850266011, 0.00797870010258, 0.0062504456671, -0.0165292600369, -0.00292856703372, 0.00368976489027, 0.000925481181774, -0.0222010984732},
	{0.00128247749635, 0.00302860075006, 0.022130371732, -0.0131948355898, -0.00101542463638, 0.0086857642972, 0.0184543067552, 0.00430465679128, 0.000847427507829, 0.00523158976261, -0.0122689225928, -0.00791112696977, -0.00865472350742, -0.0230937195303, 0.00100846141683, -0.00514965011935, 0.00570180121605, -0.00998012537175, -0.00151137285471, -0.00866533959688, 0.00914346135644, -0.00902133322431, 0.0101374836895, 0.0033046019056, 0.00662131489974, 0.0170334978273, -0.000197054083886, 0.00166961013977, -0.0133672134155, -0.00200582465331, 0.00405393950182, 0.0034716932943, 0.00811150186748, -0.00897686376339, -0.0102097850113, 0.00617261852197, -0.0112531472774, 0.00603201739609, -0.00453078689363, -0.0142891992729, 0.0161498562682, 0.000923509680097, -0.0190847112084, 0.00114459947744, -0.00331862696121, -0.00401107621053, -0.00706413259889, -0.00298299517703, -0.00237533118533, 0.0199521373707},
	{-0.000440972898884, 0.002850456346, -0.00721719580159, 0.00920361890594, -0.00192336567365, 0.00410208045393, -0.000629521302809, 0.00953235458841, 0.00119233550676, -0.00290605404193, 0.012292761029, 0.00774609693186, 0.0124032844948, 0.00278105351999, 0.00105145885186, -0.00322015890101, -0.004823562345, 0.00341429786484, -0.00207175978885, -0.00252740171865, -0.00547270183842, -0.00472094909128, -0.00345874784119, 0.013456441158, 0.0183366350142, 0.0176799616616, -0.0157554949194, -0.00789401477468, -0.014443532765, -7.56649467038e-05, -0.000276328564069, 0.0150253458675, 0.00127678701627, -0.00383890729485, 0.0146797126736, 0.00452651020038, 0.00889764977794, -0.000934324396893, 0.00415362773298, -0.00818426071735, 0.00626066437577, 0.00822677393241, -0.00733858731983, -0.0164703368505, 0.0205821385239, 0.00365137412169, 0.0073731082723, -0.0222608006691, 0.00229048498128, 0.00249025456897},
	{-0.0013976335319, -0.0077874318359, 0.00909857989313, -0.00266544775704, 0.0168884742839, -0.00147009723894, -0.00464056671236, -0.0101075058974, 0.0127939482294, -0.00497818185917, 0.0222092705691, 0.0131101882861, -0.00371926796357, -0.0125300352848, -0.00150408611464, 0.00370255039658, -0.00187118649836, -0.00159626267935, 0.00130474196969, -0.000525055621711, -0.000595967091564, 0.00079154105615, 0.00518141398779, 0.0102576835969, -0.0021439899996, -0.0186699817752, -0.0128336188639, 0.00456612388614, 0.00281908792545, -0.0195504518505, 0.0115098885491, 0.0039145784813, -0.021310709627, -0.00444591119682, -0.0122445297645, 0.00875535633321, -0.0073245429872, -0.00923802627996, -0.00517617793918, 0.00197420080204, -0.0159926589839, -0.0118898253155, -0.000451663899885, 0.00158478113255, 0.000606681030157, 0.00219897034754, 0.00567115137928, -0.00445653581282, -0.0259350128424, -0.00454585769784},
	{0.00126728892133, 0.00908046466911, -0.00845362848164, -0.00940456982043, -0.012836817871, 0.015118909681, 0.00399724629023, 0.0131853694358, -0.0124050029368, 0.00231428525533, -0.0119349842852, 0.0237542970816, -0.001285853484, -0.0043646310084, 0.0103914163757, -0.0113113607489, -0.00849323667042, 0.0153318817478, -0.00495350889852, -0.0048368892264, -0.00177239040695, -0.00264644878028, -0.00647166575273, -0.00412843629818, 0.00754641093885, 0.00326323325625, -0.0143372702566, 0.00315891721275, 0.0113927807357, 0.0152425913508, 0.00373536089811, 0.0084966056394, 0.00261629327736, -0.00501608580769, 0.00222215424779, 0.0106065598631, -0.00803702755841, -0.0177430248396, -0.00301929316098, -0.0085110138155, -0.0047207045739, -0.00565723910706, -0.000149668573365, 0.011425550027, 0.00120205760914, -0.00501228308634, -0.0213417244743, -0.00594801249921, 0.00607845205171, -0.0134249620412},
	{-0.0153961995267, 0.00662763302388, -0.033947899454, -0.0101843981087, 0.00967128680913, 0.0200100983401, 0.0371535167285, -0.00695632050876, 0.00387453713467, 0.00893357514063, -0.00430015841872, -0.0139952814846, -0.0134155466841, 0.004750891447, 0.0172758484216, -0.00405263533493, -0.0186714238854, -0.00311689065094, 0.00603349974985, 0.0179115774996, -0.00564028108105, 0.0118855328005, -0.0159143134468, -0.012534338245, -0.0214650278084, 0.000260198603575, 0.00333786249838, 0.0325282840158, -0.000459799386902, 0.00634891942881, 0.00939128544065, 0.0145288544892, -0.00632236484019, 0.00182040923525, 0.00861271318563, -0.000171567869746, -0.0121345881716, 0.00663952851653, 0.0107446852159, -0.00576029934933, -0.0104977627594, -0.0149441777653, 0.000857640250099, 0.0155550020101, -0.00710011549417, -0.0089480554859, 0.00346912176569, -0.0215169979579, -0.0100924645495, 0.00981611816463},
	{-0.00764881851416, -0.0048209737856, -0.0264297578743, -0.0141406107439, 0.0136601732009, 0.0235360722639, 0.0528200617875, -0.00470518790748, 0.0142981009238, 0.0278700002838, -0.0198666828366, -0.0167958323374, -0.00796078709143, -0.0100882669213, -0.0190146999244, 0.000427603909371, -0.028518530205, 0.0138941060999, 0.00258607236355, 0.0253124038479, 0.00549650707277, -0.00287233011881, -0.00653147076715, -0.0141950762151, -0.00257235655184, -0.00658579131918, 0.00194020149926, 0.0233966780398, -0.00345887572033, 0.00219188860908, -0.00575646031928, 0.0147487646014, -0.0192709360385, 0.0181347380422, -0.0210442129487, -0.00763607311789, -0.00413654334531, -0.0108671073305, -0.000522650006762, -0.0139182820022, 0.00456491485872, 0.00532631805446, -0.00271911745087, 0.0168381107207, 0.00364387572172, -0.0436782324216, -0.00326942027271, -0.0135614680901, -0.00755175808934, -0.00571977710585},
	{0.0039662201541, 0.00612679099003, -0.0425965619855, -0.0155171598629, 0.0301331176366, 0.00526332602908, 0.0437699607912, 0.0187880402899, 0.0293263464115, 0.0351284592274, -0.00598282536454, -0.0146235478472, -0.018964583785, 0.00073695814965, -0.00305165459694, 0.00931961554062, -0.030155433057, 0.0127311892892, 0.0136032605456, -0.00349657976767, -0.00675228578109, -0.0070036859011, -0.0530976425692, 0.00261423549098, 0.0127007154745, 0.00602245678473, 0.0165510112444, 0.0492635872623, 0.0190830420298, -0.0117154568636, -0.00896437849846, 0.0229380234526, -0.00122966070966, -0.0132690749155, -0.0122522830228, 0.00560048104189, -0.0277873819027, 0.0135022959909, -0.000978726465027, -0.00824896498621, 0.00645928973924, -0.0239569554972, 0.0123445276167, 0.0451386092444, -0.00722300009742, -0.0452282008913, -0.0200686612103, -0.0164164140944, 0.00895964508018, -0.0252535905955},
	{0.00919365037049, 0.0224982536239, -0.0404586527135, -0.0260421871683, 0.0779850292657, -0.0140357340188, 0.0353490766103, 0.0378460374379, 0.0162483158507, 0.0727957069731, -0.00101976745073, -0.0229045684411, -0.0422652467489, 0.0135285786988, -0.00501453678169, -0.00866779523668, -0.0280899034387, 0.0118048622805, 0.00551700727253, 0.0529960273046, -0.0228875875487, -0.000478874259822, -0.0904288424318, -0.0061083325094, 0.0637501453077, -0.00454212689492, -0.0019935398204, 0.0496941649891, 0.0119271072083, -0.0136619647043, 0.0256920460705, 0.0339996274636, 0.0199489301587, -0.0105258439871, 0.00391494643119, 0.0156351283616, -0.0163215945285, 0.0301671792283, 0.00569802308036, -0.0124493134442, 0.00106810514672, 0.0158926261353, 0.016754991593, 0.0599569751743, 0.00210855337117, -0.0543300951544, -0.0176040951964, -0.00579325315436, 0.0240043876931, -0.0623866179935},
	{-0.00067882774274, 0.0207613529553, -0.0453853428235, -0.0429219632853, 0.0648411435935, -0.0144362012799, 0.0236963145528, 0.0372151123695, 0.00312538355705, 0.108933232589, -0.0278104822802, -0.0220596413144, -0.0425044469834, 0.00939360558815, 0.00770678203771, -0.00249141346085, -0.0395465473746, 0.0176514197042, 0.00521714502365, 0.0653722100422, -0.0348818200539, 0.00193749569848, -0.0895351851646, 0.00784549187163, 0.0665480415529, -0.0133933874537, -0.010007941544, 0.022573478079, 0.0366280436051, -0.00454594596527, 0.0137171138759, 0.050053222834, 0.000514120743643, -0.00877671444941, -0.0306274503479, 0.00759618948612, -0.0594210048378, 0.0503808569334, -0.00604298971574, -0.0257832141729, -0.00524682115095, 0.0101151890005, -0.0194051397693, 0.0640912646105, 0.000599200167237, -0.0551261918005, -0.0448100982957, -0.00124151263504, 0.0503504472014, -0.0939870724902},
	{-0.00726827920741, -0.00851412309755, -0.0314307735645, -0.0242927140093, 0.0793105686249, 0.0393298132596, 0.0624039399658, 0.0338656346594, 0.0283820664054, 0.104196202058, -0.0340188699847, -0.0263226212016, -0.00062581087091, -0.0101445380867, -0.00770550019531, -0.0191913135573, -0.0289166626827, 0.014356999256, -0.0148033632035, 0.0581168002774, -0.0290741737964, 0.00281238390892, -0.0714459717503, -0.0171531040458, 0.0655814764377, -0.0184017781695, 0.00350638642484, 0.038115247385, 0.000323116943871, 0.0143934493841, -0.0239277990947, 0.0546784429445, 0.0443810818701, -0.00408532267733, -0.0526131948667, 0.0281194006359, -0.073486151996, 0.0534087407185, -0.0259434686112, -0.0640715868377, -0.0155598110002, 0.00146913611085, -0.0255654736766, 0.0827507419686, -0.0104366565075, -0.0741736650243, -0.038165471684, 0.000833123552062, 0.0625996343989, -0.0913245730594},
	{0.00857996331131, 0.020512128147, -0.0492506180742, -0.0587084156347, 0.0908825380269, 0.0135741610487, 0.0813713610548, 0.0337967456644, 0.0155112502872, 0.13416962573, -0.0499976816951, -0.0118390396194, -0.0203463062023, 0.0122049036399, -0.0211438200023, -0.0103574349031, -0.0486988419971, 0.00867621673102, -0.013904325621, 0.0808550420104, -0.027525275161, -0.0231502427134, -0.091244630681, -0.00918591187829, 0.0542476872478, -0.00368491087478, 0.00164572159191, 0.0639032486969, 0.0297144674546, -0.00355687534081, -0.0108125424365, 0.0212284298155, 0.045353922197, 7.22229647832e-05, -0.0149430543456, 0.0130163258743, -0.0783097004584, 0.0786749889207, 0.0119309464155, -0.0249028904754, 0.00421384264618, -0.00149732096531, -0.0249097350467, 0.0939014818962, -0.00215174495326, -0.0711315864716, -0.0145729030936, 0.00832082050729, 0.0809823243863, -0.111726084869},
	{0.00297676181737, -0.0128195096633, -0.0619710654621, -0.0485849447578, 0.0933026217695, 0.020135839187, 0.0608719606448, -0.0148397725315, 0.0141828585724, 0.165295386184, -0.0405539822949, -0.0452885970329, -0.0424991858834, 0.0118759797892, 0.00613049954403, 0.0145206797655, -0.0853350984277, 0.0217199629081, 0.0126653278936, 0.0685697934944, -0.0499727786106, -0.00734525357988, -0.0703673501861, -0.00189488446072, 0.087506192169, -0.033271923985, -0.031657027076, 0.0751647110395, -0.00198066840247, 0.00317537296279, 0.0374092729031, -0.00665630579078, 0.0585784193323, -0.0120097232357, 0.00190459717603, 0.0208812314842, -0.0899033310935, 0.0553380664668, 0.00803799315843, -0.0225608261635, -0.00947641834164, 0.00672621067603, -0.0226171636192, 0.0682184784363, 0.000156661290595, -0.0793195644707, -0.0559729857528, -0.0336908116337, 0.11056343475, -0.110314242359},
	{-0.0143322836204, -0.0122780540234, -0.0169142310246, -0.0296768321332, 0.00225901386242, 0.024759889803, 0.0519635426129, -0.0731113783243, 0.0176666705568, 0.141994097736, -0.049024413768, -0.0205563419479, 0.0331204889337, -0.0250147359713, -0.0167466892306, 0.0209637595193, -0.0748249465734, 0.0118801225047, 0.0228120443568, 0.00479448947507, -0.0902230003692, -0.0317994609721, -0.0423232774567, -0.0222654919084, 0.0673455227608, -0.0127575972665, -0.0430483859164, 0.0744072764387, -0.0329765787386, 0.00630096383236, 0.0124419067124, 0.0274174408862, 0.0800516830692, -0.0105320654668, 0.0140476483135, 0.0329943963417, -0.0875806964917, 0.0137003044636, -0.00788546935809, -0.00785326120483, 0.0279499543939, -0.0229935567351, -0.0646787308107, 0.0460015961254, 0.0172309931305, -0.090284438184, -0.0342894265444, 0.00298767392428, 0.132411421246, -0.107375181458},
	{0.000672858695132, -0.0204186672495, 0.000965037171277, -0.0533711835738, -0.00945542448842, -0.0110741609185, 0.0712612235915, -0.047812542759, 0.0212173575857, 0.0482383255802, -0.0382211543038, -0.061274581123, 0.0114759011655, -0.00796520122156, -0.000296067818262, 0.0248997204649, -0.0768310887918, -0.0164965490439, 0.0406147382575, 0.0464098463787, -0.0623576771408, -0.0491606139098, -0.0502474152933, -0.010161773843, 0.0289059983337, -0.031854669465, -0.0713526053107, 0.0578096839106, -0.0304800750309, 0.0183745987858, 0.0110146222234, 0.0108697170907, 0.0533001025162, 0.0180274497493, 0.0209625561667, 0.024455658116, -0.0739076474733, 0.00491949707971, -0.00690081179632, 0.0285227606508, 0.035329070474, 0.00387029384547, -0.0334793187987, 0.069614023928, -0.00259975924009, -0.0622146913599, 0.0154110796172, -0.00759625921564, 0.0516481390079, -0.0880242975396},
	{0.00746279410084, -0.0471005242856, 0.026410549397, -0.0331881973154, 0.0142313679262, -0.037542999041, 0.054468317201, -0.0295563062601, 0.00975891145151, 0.0320454277492, -0.0156952564332, -0.0404989788952, -0.0174405884704, 0.00118626585482, 0.00710098148078, 0.0419710298177, -0.0464460348087, -0.00736515956898, 0.0100015760387, 0.0517201904113, -0.0822244635826, -0.0445252654516, -0.0578540059756, -0.00229266293913, 0.0358291100957, -0.0146002319921, -0.0398615243088, 0.0569662578396, -0.0502768140628, 0.0274795590044, 0.0149151259934, 0.00578711562394, 0.0173778500412, -0.00748461330388, 0.0296698484759, 0.019143787957, -0.0674790290146, 0.0221722675815, -0.00653950993346, 0.0353823833649, 0.0342900269404, 0.0439979395326, -0.0567524344218, 0.0278247527481, -0.0172123459303, -0.0634919893945, 0.0134336804602, -0.00396995779011, 0.0746281331743, -0.0592761904321},
	{-0.0036011318179, -0.00935628476373, 0.0435131783647, -0.0566880201141, -0.0054527861898, -0.0382018200085, 0.0447013726245, -0.0315503462327, 0.0262253918606, 0.0763305746705, -0.0145663773841, -0.018417374655, 0.0187514293141, -0.011841289862, -0.00291693736743, 0.0556561074073, -0.0120150669093, -0.0110205077375, 0.0396890591838, 0.00410121176922, -0.0436062425002, -0.0458612534886, -0.0628427756744, 0.00764415145344, 0.0488745462544, 0.00352818369648, -0.0368430085502, 0.0473178113834, -0.0574898678787, 0.00495472816212, 0.0492864092877, 0.0157893477665, -0.00292783164695, -0.00457620213384, 0.00366237839967, -0.00711648707495, -0.048174920273, -0.0078367513667, 0.000226656346511, -0.0108641617321, 0.0203210761679, -0.00100320223361, -0.076148157396, 0.0425629619532, -0.00407424891597, -0.0324982888949, 0.0078596749926, 0.00255177705302, 0.106313145817, -0.0111026690953},
	{0.0187799821105, 0.00962065960952, 0.0100048925951, -0.0297024129834, 0.0131273609148, 0.0301035002065, 0.0639997206614, 0.00272100844721, 0.0155347865531, 0.0399707928763, 0.042163451545, -0.0341788731925, 0.0474067069966, -0.0101922964216, 0.00423659366945, 0.020040530468, -0.0852198163569, 0.00364666788815, 0.0561302761857, 0.00185228890917, -0.0437472323694, -0.0257426198895, 0.000282106014131, -0.0141797216839, 0.000227021201403, 0.00676666825041, -0.0385642098379, 0.0454586198007, -0.0660882038173, -0.0162457016515, 0.0406603407736, 0.0152998296036, -0.0398520518594, 0.0123779717069, -0.0195557278579, -0.0226075528581, -0.00987198000373, -0.0154542656706, -0.0172746556493, 0.018646875859, 0.0264926612351, -0.0184343342637, -0.0815199556831, 0.0916292041547, -0.0126982769451, -0.0236389069337, 0.000259959215558, -0.000826338871175, 0.0714115870432, 0.0136779601441},
	{0.00853671055653, -0.00296959608754, 0.0105170387469, -0.0220956872708, -0.0239087885704, 0.0621547920099, 0.0721659438582, -0.00545513993412, 0.0501199862028, -0.0108465969007, 0.0199046595343, -0.0142545191185, 0.0483611266346, 0.00232503156901, 0.0118290416355, -0.00347289209394, -0.0574211841505, -0.00752254854995, 0.0349082731019, 0.00944590242387, -0.0583250950196, -0.0536083995552, 0.00746064804617, -0.01656749696, -0.00539942123154, -0.00808924616971, -0.0643242486109, 0.0181087847894, -0.0440872732412, -0.02421796143, 0.0153709872537, 0.0304355017541, -0.0372045470586, -0.0156741784111, -0.0267835636772, -0.0149071087388, 0.0104492076793, -0.0400671516315, 0.00247129664671, 0.0387971572254, 0.0141485327923, -0.001692685895, -0.0724941550535, 0.0605724726822, -0.00383774163746, -0.038666733854, -0.0106390131991, -0.0124387126182, -0.0113494609672, 0.0284819177737},
	{0.0187250109389, 0.0136807129847, 0.0160360177389, 0.0127966754108, -0.0383524485786, 0.0544183206921, 0.0530459843652, 0.00135349673734, 0.034152987537, 0.016205067221, 0.00509350908394, -0.0248234386697, 0.0593249068951, -0.013932328317, 0.00298132291089, -0.00227079985924, -0.0373246236256, -0.00683959955518, 0.0371632560778, -0.0117234342137, -0.0320275645674, -0.0481501580172, -0.00823634669346, 0.00567334152748, -0.0127081025362, 0.00875855518549, -0.00222108998125, 0.00113451985509, -0.039791117237, -0.00887574018478, 0.0022889993228, 0.0492383497547, -0.0264101713422, 0.0143198675256, -0.044602231197, 0.00387205015054, -0.020986349105, -0.0234573012016, -0.027790711111, 0.0349216143359, 0.00659121416365, -0.0220331444842, -0.0431893918975, 0.0441259863116, -0.0128203033312, -0.0224167751905, -0.0105886856401, 0.00833595298212, -0.0211070400595, 0.0294094794083},
	{0.0116257530347, -0.00896734373999, -0.00418772232698, 0.00865752377701, 0.0137936478349, 0.0825784667439, 0.0404336205616, -0.0134404546927, 0.030426702719, -0.00918503994685, 0.0285318306425, -0.0161023491518, 0.0168619385776, 0.00810716343546, -0.020824021494, 0.0125617535082, -0.0303490381671, -0.0162989692784, 0.0480798852672, -0.00441070331689, -0.0385429167934, -0.0402233484795, -0.00136672246317, -0.0223476798547, 0.0135792564638, -0.0120388426339, -0.0181670769626, -0.0151787401139, -0.0196811325808, -0.0121069865657, 0.0233767581796, 0.032535045601, -0.0177783535006, -0.00703498535209, -0.0385142921055, 0.010013093997, -0.00953161196378, -0.0117782159429, 0.00587362222581, 0.0238322428328, 0.00427277001, -0.0361309136069, -0.013181258652, 0.0534578509643, -0.00357661055373, -0.0202712831928, -0.0131758436015, -0.0126204197974, -0.037762617471, 0.052080890267},
	{0.00811090252743, -0.020798196824, -0.00382064768426, -0.0143123208815, 0.0196264301255, 0.0640311897223, 0.00393289713315, -0.00834659119281, 0.0184778377087, -0.0186031764795, 0.0159122016339, -0.0184051238912, -0.00402907293782, -0.0188420598481, 0.000544621987534, 0.000805010191379, -0.0338501603393, 0.0140247090576, 0.0184613623519, 0.017845711383, -0.00462856831867, -0.000745633612212, 0.0205952239165, -0.00779750309359, 0.00696748659097, -0.0142023236129, -0.00692458154089, -0.00294938368199, -0.0307341195866, 0.00516320548964, 0.0142525415584, 0.0578216082099, -0.0300723310251, 0.01989798879, -0.0338243875857, -0.00698073601396, 0.00561810497324, -0.0206586767161, -0.0129923247034, -0.0149820983872, -0.00264935767883, -0.0134919728658, -0.0114033571366, 0.0179369430925, -0.00492226752313, -0.0161092352723, -0.0217757169729, -0.00947974243992, -0.0344146058964, 0.0316402555775},
	{-0.00400165662281, -0.0159769506887, -0.0167171938479, 0.00810797618371, 0.00653727436955, 0.0487163626879, -0.00113202073658, -0.0206544852077, 0.0111182631821, -0.0136539617239, 0.0107859608421, -0.0033013159773, 0.00109724851876, -0.0115705287705, -0.00117055063525, 0.00629600769745, -0.0117467542271, 0.0152644190733, 0.0129056263271, 0.000895461649362, -0.0262514810107, 0.00599421899026, -0.00290380282521, -0.00417769407687, 0.00531248611449, -0.0238192925846, -0.0187099762415, -3.78883222049e-06, -0.0132547308328, -0.00185803378276, 0.0155060538066, 0.0312671860394, -0.0336471202737, 0.0185114902376, -0.0229152982452, 0.0225537987653, 0.0227567642894, -0.01694882022, -0.00513844249712, -0.0039407443217, 0.0157548192418, -0.0287624797942, -0.00532815912749, 0.000306024701245, -0.0189907558385, -0.0381753273377, -0.00285551953581, 0.0151869185643, -0.0252724065501, 0.0270807734126},
	{-0.0065109011146, -0.00215823827995, 0.00219555738374, 0.00139069666786, -0.00969140619194, 0.0120758002681, 0.00273606496055, -0.0109526657015, 0.00352179029576, -0.0166707695918, -0.00819672984046, -0.0217215298956, -0.0196695767543, 0.00388366874262, 0.0100274754609, -0.00207249268273, 0.00561979145401, 0.0149765135154, -0.00398317168569, -0.00241046434581, -0.0152113364472, 0.0020343008143, -0.023805458106, 0.00548902356213, 0.0223058014321, -0.00022606471453, -0.00394715850259, -0.00367590759687, 0.0140265862436, 0.00744681602472, 0.00527596048429, 0.0236661881652, -0.01270413317, 0.023490728877, -0.0108145991394, -0.00792999860987, -0.0142542248774, 0.0171879505343, 0.00220915050665, -0.00900317614165, -0.0002068038514, -0.0268682308054, -0.00935422325104, 0.0104096981139, -0.00597363885549, -0.0189311715509, -0.006181587061, -0.00696380218865, -0.00411600308333, -0.00128374768469},
	{-0.0175302399536, -0.0128774430474, 0.00910838356285, 0.00412076763057, 0.00530976422508, 0.00647177278381, 0.00328934924542, 0.00290694647898, -0.0109268137705, 0.00761625554977, 0.040710316315, -0.00105289710299, 0.00379088090565, 0.000531792387743, 0.0114032999439, 0.00881780909858, 0.00502786257319, -0.0163159598284, 0.00318588195528, 0.0162071581929, 0.00417527016497, -0.00284000045768, -0.00327387672084, -0.0063567098991, -0.0210113443122, 0.00278660896128, 0.00904439997578, 0.019779088206, 0.0125815571641, 0.00883581604822, 0.00683571041796, -0.0316772828578, -0.00145046429816, -0.00656217236935, -0.0144969577016, -0.0207203679755, 0.0103564274252, -0.00488407479645, 0.00524128802303, -0.00695593055904, -0.0099861944084, -0.00207254707293, 0.00677817962455, -0.0224852539325, 0.0168568832037, 0.00095653788401, 0.00105574980838, 0.0204710937777, -0.0108483026714, -0.0118828512913},
