// af1_bias.h
// 2017/12/01 20:25:59 by marsee

const float af1_fbias[50] = {
	-0.00525023382416, 0.0347655444215, 0.0330343173634, 0.00275602493717, 0.0354750486011, 0.229463769885, 0.239000915834, -0.0517280325728, 0.0039024814785, -0.19140814022, 0.021313497273, 0.039949461268, 0.0628594491659, -0.00752869213325, 0.100573165774, -0.030930341215, 0.184679733392, -0.0130518493755, 0.117704886167, 0.0073583889917, 0.251917611925, -0.236568240237, 0.132500930565, 0.00753004520966, -0.00604795405716, 0.113860050226, 0.0619487196345, 0.139009911426, 0.0752011051317, 0.164667900764, 0.0503401125811, 0.00931982644053, -0.00143314787172, 0.00113784961857, 0.042085321934, -0.0977326679468, 0.357000657987, -0.174407810162, 0.0527293978091, 0.205695375067, 0.0358944622338, -0.0539689883669, -0.187227616807, 0.0361114308831, 0.0142119250038, 0.0435528010463, 0.17843423227, 0.0082441889812, -0.235062232532, 0.11033289628
};

const ap_fixed<9, 1, AP_TRN_ZERO, AP_SAT> af1_bias[50] = {
	0.0, 0.03515625, 0.03125, 0.00390625, 0.03515625, 0.23046875, 0.23828125, -0.046875, 0.00390625, -0.1875, 0.01953125, 0.0390625, 0.0625, -0.00390625, 0.1015625, -0.02734375, 0.18359375, -0.0078125, 0.1171875, 0.0078125, 0.25, -0.234375, 0.1328125, 0.0078125, -0.00390625, 0.11328125, 0.0625, 0.140625, 0.07421875, 0.1640625, 0.05078125, 0.0078125, 0.0, 0.0, 0.04296875, -0.09375, 0.35546875, -0.171875, 0.05078125, 0.20703125, 0.03515625, -0.05078125, -0.18359375, 0.03515625, 0.015625, 0.04296875, 0.1796875, 0.0078125, -0.23046875, 0.109375
};
