// af2_weight.h
// 2017/12/01 20:25:59 by jun-i

const float af2_fweight[50][10] = {
	{0.0237788189075, 0.129712861062, -0.0161045957055, -0.0379804552921, 0.0709552703176, 0.00303036808626, 0.113095268946, -0.0911147588712, -0.263187413039, 0.11811056199},
	{0.153670420915, -0.0770015497907, 0.0461892323785, 1.0154319661, -0.890206068, 1.46020326105, -0.164492123238, -0.762505631337, -1.03183888577, 0.218265042172},
	{-0.15387658252, 0.68729531121, 0.228015255696, 0.412446101039, 0.667247667865, -1.61711382828, -0.421091605927, 0.633084761511, -0.476136835709, 0.0810924478941},
	{0.0342739657969, 0.125065433311, -0.429863910666, -0.125023271967, 0.495772952684, 0.214334847821, -0.0198275939523, -0.226493222237, 0.136835727898, -0.224067766643},
	{-0.401870250211, -0.0365519938919, 0.90891782258, -0.0385434556136, -0.321691313998, -0.0735573722732, 0.305977211228, -0.712336558486, -0.00672407338164, 0.385507899896},
	{-0.151178753117, -0.649602097569, -0.248381266551, -0.99849546734, 0.718240409966, 0.514326791488, 0.926681199764, -0.573254213174, 0.513930391361, -0.0588389345111},
	{-0.978660620082, 0.788063046833, -0.131034319718, 0.788893992823, -0.144473216864, 0.0710217676092, 0.186982220182, -0.368858282228, 0.231146697464, -0.470045353964},
	{-0.478585965652, -0.173559350277, 0.443577091443, 0.0900019754845, -0.561666957229, 0.613113948731, -0.19256459347, 0.78827059704, -0.323831192751, -0.198018602642},
	{0.133277657792, -0.0194988379529, 0.0025648633523, -0.0463163766385, -0.19842279062, 0.220562966037, 0.68132335791, 0.450038817746, -0.358409983109, -0.936409503556},
	{0.267760146182, -0.327848279844, 0.924278973324, 0.401425007216, -0.589794608995, -0.0325459121769, -1.19601088207, 0.945805873171, -0.223662222857, -0.164810896124},
	{-0.0639395742169, -0.140418677401, 0.536597402279, -0.455057992033, 0.337740195763, 0.691657993714, -0.082424545958, -0.306581587386, 0.504601550877, -1.03602859829},
	{0.0494620968354, -0.0442428816623, -0.0390327088684, 0.348647680882, 0.374455493213, -0.205780673455, -0.352989895152, 0.606433945999, -1.15681781726, 0.397860369793},
	{0.0483411980459, -0.816180618093, -1.07522246021, 0.392423633861, 0.302350940446, 0.0684764662502, -0.374844419489, 0.30418320976, 0.173336660404, 1.05698539796},
	{-0.44948726438, 0.246434839099, 0.341126453616, -0.177776682836, -0.46415837335, 0.466389110498, -0.0524271665152, -0.193847445305, 0.0198412871848, 0.315146765657},
	{-0.0495019131289, 0.102008103436, 0.0318397302452, -0.213908586499, 0.45929111366, 0.158702831147, -0.0107892608776, 0.328148191082, 0.0392592150742, -0.829321107152},
	{0.693211153061, -0.280217551319, 0.158021183467, -0.144270651653, -0.823009152122, -0.0715637665217, 0.150446703025, -0.0513283001459, 0.361612343476, 0.00142026117263},
	{0.609485896934, -0.308506312406, 0.868868227132, -0.539946883165, 0.495490084294, -0.130898902734, -0.353253045469, 0.677426319294, -1.05775707263, -0.308652398852},
	{0.0832349178985, -0.0980174879896, -0.0966597877194, 0.0758867071376, -0.053844306275, -0.300954392237, 0.1356299771, 0.147641092334, 0.188185955021, -0.0585659073738},
	{0.441666327271, -0.294811915372, -0.49828960677, -0.270557208048, -0.355572988848, -0.0590264808704, 0.323946039408, 0.232910741343, 0.389447518749, 0.0960260342179},
	{-0.793765893479, 0.41594901078, 0.6292678149, 0.137799492083, -0.290729620462, 0.0570775056221, 0.175598774318, 0.866447360093, 0.176523723288, -1.41171323916},
	{-0.0699971934469, 0.40059790857, -0.697214272799, -0.344787019675, -0.70466076526, 1.36812454654, -0.059453261412, 0.226539775279, -0.262994560471, 0.167926402424},
	{-0.0372036307767, 0.0608220187666, 0.203667856888, 0.280922270284, 0.0376569487383, -1.0218513279, -0.402699437362, -0.588541193915, 0.863384660825, 0.66460569643},
	{-0.616560006826, -0.196199538478, -0.623269493869, 0.356830209185, 0.616464171578, 0.324994909993, -0.718645298545, 0.210239003657, 0.934429991036, -0.233691373122},
	{0.0587777887177, -0.0159049530454, 0.153569007555, -0.254062936486, 0.23722503979, 0.047580310791, -0.216788254244, -0.121003941189, -0.0832636894811, 0.148532613012},
	{0.901597035291, -0.217264497625, 0.343224768695, -0.498862188983, 0.292830999504, -0.386048298632, 0.379526365253, -0.668714377397, -0.135310056548, -0.0343662041051},
	{0.0696464730734, -0.205380798538, -0.0625423886056, 0.0386999799174, -0.135114590528, 0.445424211879, -0.379124133381, 0.0809218821558, 0.0563371026014, 0.117490753553},
	{-0.31403827342, -0.371806247971, 0.162070310898, 0.579243740549, 0.0144693374129, -0.881756213947, 0.108871944365, 0.112993685847, -0.0033876913396, 0.595263658064},
	{0.109293227577, 0.236678045613, -0.0527727287399, -0.255632002742, -0.39100717011, -0.701881946496, 0.985388320522, 0.561812124716, -0.134402669238, -0.340094829354},
	{0.281959455906, 0.272705160755, 0.76177405332, 0.706676939078, -1.27047681817, 0.0638890470038, -0.790129100925, 0.682764678418, -0.397256977041, -0.30646501609},
	{-0.00522868584966, 0.140029301653, -0.14566826726, 0.413017364194, 0.258233575757, -0.0366558427179, -0.010917162308, 0.704086998923, -0.539131742792, -0.761143133884},
	{0.618357712815, -0.446080927741, -0.161093378361, -0.51508414528, -0.181082156563, 0.526263385739, 0.0993055536099, -0.762090015179, 0.555026978897, 0.214315397772},
	{0.156101247431, -0.482109260515, 0.0829017427292, 0.147926116524, 0.573469845924, -0.056660510896, 0.847258830937, -0.802167088047, -0.208585057663, -0.260973738953},
	{0.0942399643594, 0.12021998222, 0.635386333134, 0.546975582661, 0.58285571578, -0.564438824867, -0.157805325607, -0.0458913527621, -0.566604336356, -0.62803917046},
	{-0.0124206004764, -0.0270892537981, -0.0134168780788, 0.0229063927273, -0.0211937720332, 0.0160677842024, 0.00152960637109, 0.0147325502836, 0.0022101155371, -0.0098530294385},
	{-0.0951556585238, 0.366412213802, 0.459276715534, -1.08163670674, 0.434635461065, -1.06829789471, 0.112970700127, 0.205514039975, -0.161746345175, 0.832008360848},
	{0.27924432446, 0.239333151941, -0.168491880677, 0.410495160022, 0.207588169553, -0.563269757405, -0.185490129329, 0.0405426935883, -0.262587873758, 0.0510201268},
	{-0.802487037308, -0.481866764765, -0.0293687899932, -0.255478527526, 0.0311685048297, 0.545274482602, -0.504957503497, 0.77511393539, -0.0162100452905, 0.750166875235},
	{0.109272560581, 0.0639640568539, 0.464923837441, 0.582158185101, -1.0231064664, 0.00581707779355, -0.255886393354, 0.0645380778933, 0.338025475818, -0.406113919469},
	{0.162506054925, 0.0702186143939, 0.0547696846409, -0.111734432967, -0.326732237047, 0.0902159251661, -0.0211238908561, -0.158755638724, -0.046933086195, 0.277027601498},
	{-0.889312056922, 0.717042396191, -0.44154247084, -0.0409407722189, 0.223644515131, 0.466426119678, -0.255875498186, -0.536841032489, 0.460322559582, 0.267999669908},
	{0.233355480872, 0.129667387778, -0.110949936581, -0.401873586119, 0.138601054056, 0.273220210456, 0.117342329504, 0.100912319214, -0.706590525867, 0.20332659419},
	{0.0648970595041, 1.03004308821, 0.332642492428, -0.52647646329, 0.110922070306, 0.180027121332, -0.241030551623, 0.494881289032, -1.27732956445, -0.1829189272},
	{-0.311266445014, 0.605284784388, 1.16584842149, -0.226044502452, -0.355342389931, -0.229375293895, -0.167313152997, 0.629573539473, 0.143449844383, -1.25987473599},
	{-0.0480575040612, -0.317895266845, 0.162796532609, 0.809238719343, -0.81818253556, 0.858970217581, 0.37731651809, -0.511663103995, -0.0798593277067, -0.424031530742},
	{0.0776682182346, 0.0330199065094, 0.0225726683588, -0.276453337689, 0.102580882153, 0.0127436802909, 0.0451128054331, -0.057999077591, 0.133157997325, -0.089997325832},
	{-0.669400968607, 0.0337675268531, -0.0118157551505, 0.102901791867, 0.508643972546, 0.0840089783029, -0.585666904888, -0.0902525493204, 0.227220897361, 0.387487665354},
	{-0.318707050295, 0.129269218125, -1.20511364496, 0.546219853415, 0.429304203259, 0.682284335426, -0.304658338398, -0.542545947192, -0.0538906141215, 0.685272394087},
	{-0.0283152558132, 0.0229883296019, -0.00599300503702, -0.0289231451497, 0.0508115783423, -0.0224499446707, -0.00911776870961, 0.166094191629, -0.00753901238808, -0.131231163719},
	{0.717625842886, -0.594388659669, 0.755323063636, 0.470630604076, -0.96696734384, -0.0715070226497, 0.127342851321, -0.423375107785, 0.110798201132, -0.137551653613},
	{0.14999486399, 0.184043713386, -1.14944142952, -1.00900600751, 0.132181733622, 0.597819428569, 0.815392986589, -0.105779130564, 0.16124106695, 0.215150647132}
};

const ap_fixed<9, 1, AP_TRN_ZERO, AP_SAT> af2_weight[50][10] = {
	{0.0234375, 0.12890625, -0.01171875, -0.03515625, 0.0703125, 0.00390625, 0.11328125, -0.0859375, -0.2578125, 0.1171875},
	{0.15234375, -0.07421875, 0.046875, 0.99609375, -0.88671875, 0.99609375, -0.16015625, -0.7578125, -1.0, 0.21875},
	{-0.1484375, 0.6875, 0.2265625, 0.4140625, 0.66796875, -1.0, -0.41796875, 0.6328125, -0.47265625, 0.08203125},
	{0.03515625, 0.125, -0.42578125, -0.12109375, 0.49609375, 0.21484375, -0.015625, -0.22265625, 0.13671875, -0.21875},
	{-0.3984375, -0.03125, 0.91015625, -0.03515625, -0.31640625, -0.0703125, 0.3046875, -0.70703125, -0.00390625, 0.38671875},
	{-0.1484375, -0.64453125, -0.24609375, -0.99609375, 0.71875, 0.515625, 0.92578125, -0.5703125, 0.515625, -0.0546875},
	{-0.9765625, 0.7890625, -0.12890625, 0.7890625, -0.140625, 0.0703125, 0.1875, -0.36328125, 0.23046875, -0.46484375},
	{-0.4765625, -0.16796875, 0.4453125, 0.08984375, -0.55859375, 0.61328125, -0.1875, 0.7890625, -0.3203125, -0.1953125},
	{0.1328125, -0.015625, 0.00390625, -0.04296875, -0.1953125, 0.21875, 0.6796875, 0.44921875, -0.35546875, -0.93359375},
	{0.26953125, -0.32421875, 0.92578125, 0.40234375, -0.5859375, -0.02734375, -1.0, 0.9453125, -0.21875, -0.16015625},
	{-0.05859375, -0.13671875, 0.53515625, -0.44921875, 0.3359375, 0.69140625, -0.078125, -0.30078125, 0.50390625, -1.0},
	{0.05078125, -0.0390625, -0.03515625, 0.34765625, 0.375, -0.203125, -0.34765625, 0.60546875, -1.0, 0.3984375},
	{0.046875, -0.8125, -1.0, 0.390625, 0.30078125, 0.0703125, -0.37109375, 0.3046875, 0.171875, 0.99609375},
	{-0.4453125, 0.24609375, 0.33984375, -0.17578125, -0.4609375, 0.46484375, -0.046875, -0.19140625, 0.01953125, 0.31640625},
	{-0.046875, 0.1015625, 0.03125, -0.2109375, 0.4609375, 0.16015625, -0.0078125, 0.328125, 0.0390625, -0.82421875},
	{0.69140625, -0.27734375, 0.15625, -0.140625, -0.8203125, -0.06640625, 0.15234375, -0.046875, 0.36328125, 0.0},
	{0.609375, -0.3046875, 0.8671875, -0.53515625, 0.49609375, -0.12890625, -0.34765625, 0.67578125, -1.0, -0.3046875},
	{0.08203125, -0.09375, -0.09375, 0.07421875, -0.05078125, -0.296875, 0.13671875, 0.1484375, 0.1875, -0.0546875},
	{0.44140625, -0.2890625, -0.49609375, -0.265625, -0.3515625, -0.0546875, 0.32421875, 0.234375, 0.390625, 0.09765625},
	{-0.7890625, 0.4140625, 0.62890625, 0.13671875, -0.28515625, 0.05859375, 0.17578125, 0.8671875, 0.17578125, -1.0},
	{-0.06640625, 0.40234375, -0.69140625, -0.33984375, -0.69921875, 0.99609375, -0.0546875, 0.2265625, -0.2578125, 0.16796875},
	{-0.03515625, 0.0625, 0.203125, 0.28125, 0.0390625, -1.0, -0.3984375, -0.5859375, 0.86328125, 0.6640625},
	{-0.61328125, -0.19140625, -0.62109375, 0.35546875, 0.6171875, 0.32421875, -0.71484375, 0.2109375, 0.93359375, -0.23046875},
	{0.05859375, -0.01171875, 0.15234375, -0.25, 0.23828125, 0.046875, -0.2109375, -0.1171875, -0.078125, 0.1484375},
	{0.90234375, -0.21484375, 0.34375, -0.49609375, 0.29296875, -0.3828125, 0.37890625, -0.6640625, -0.1328125, -0.03125},
	{0.0703125, -0.203125, -0.05859375, 0.0390625, -0.1328125, 0.4453125, -0.375, 0.08203125, 0.0546875, 0.1171875},
	{-0.30859375, -0.3671875, 0.16015625, 0.578125, 0.015625, -0.87890625, 0.109375, 0.11328125, 0.0, 0.59375},
	{0.109375, 0.23828125, -0.05078125, -0.25, -0.38671875, -0.69921875, 0.984375, 0.5625, -0.12890625, -0.3359375},
	{0.28125, 0.2734375, 0.76171875, 0.70703125, -1.0, 0.0625, -0.78515625, 0.68359375, -0.39453125, -0.30078125},
	{0.0, 0.140625, -0.140625, 0.4140625, 0.2578125, -0.03125, -0.0078125, 0.703125, -0.53515625, -0.7578125},
	{0.6171875, -0.44140625, -0.15625, -0.51171875, -0.17578125, 0.52734375, 0.09765625, -0.7578125, 0.5546875, 0.21484375},
	{0.15625, -0.4765625, 0.08203125, 0.1484375, 0.57421875, -0.0546875, 0.84765625, -0.796875, -0.203125, -0.2578125},
	{0.09375, 0.12109375, 0.63671875, 0.546875, 0.58203125, -0.55859375, -0.15234375, -0.04296875, -0.5625, -0.625},
	{-0.0078125, -0.0234375, -0.0078125, 0.0234375, -0.015625, 0.015625, 0.0, 0.015625, 0.00390625, -0.0078125},
	{-0.08984375, 0.3671875, 0.4609375, -1.0, 0.43359375, -1.0, 0.11328125, 0.20703125, -0.15625, 0.83203125},
	{0.27734375, 0.23828125, -0.1640625, 0.41015625, 0.20703125, -0.55859375, -0.1796875, 0.0390625, -0.2578125, 0.05078125},
	{-0.796875, -0.4765625, -0.02734375, -0.25, 0.03125, 0.546875, -0.5, 0.7734375, -0.01171875, 0.75},
	{0.109375, 0.0625, 0.46484375, 0.58203125, -1.0, 0.00390625, -0.25390625, 0.06640625, 0.33984375, -0.40234375},
	{0.1640625, 0.0703125, 0.0546875, -0.109375, -0.32421875, 0.08984375, -0.015625, -0.15625, -0.04296875, 0.27734375},
	{-0.88671875, 0.71875, -0.4375, -0.03515625, 0.22265625, 0.46484375, -0.25390625, -0.53125, 0.4609375, 0.26953125},
	{0.234375, 0.12890625, -0.10546875, -0.3984375, 0.13671875, 0.2734375, 0.1171875, 0.1015625, -0.703125, 0.203125},
	{0.06640625, 0.99609375, 0.33203125, -0.5234375, 0.109375, 0.1796875, -0.23828125, 0.49609375, -1.0, -0.1796875},
	{-0.30859375, 0.60546875, 0.99609375, -0.22265625, -0.3515625, -0.2265625, -0.1640625, 0.62890625, 0.14453125, -1.0},
	{-0.04296875, -0.3125, 0.1640625, 0.80859375, -0.8125, 0.859375, 0.37890625, -0.5078125, -0.07421875, -0.421875},
	{0.078125, 0.03125, 0.0234375, -0.2734375, 0.1015625, 0.01171875, 0.046875, -0.0546875, 0.1328125, -0.0859375},
	{-0.6640625, 0.03515625, -0.0078125, 0.1015625, 0.5078125, 0.0859375, -0.58203125, -0.0859375, 0.2265625, 0.38671875},
	{-0.31640625, 0.12890625, -1.0, 0.546875, 0.4296875, 0.68359375, -0.30078125, -0.5390625, -0.05078125, 0.68359375},
	{-0.0234375, 0.0234375, -0.00390625, -0.0234375, 0.05078125, -0.01953125, -0.00390625, 0.16796875, -0.00390625, -0.12890625},
	{0.71875, -0.58984375, 0.75390625, 0.46875, -0.96484375, -0.06640625, 0.12890625, -0.41796875, 0.109375, -0.1328125},
	{0.1484375, 0.18359375, -1.0, -1.0, 0.1328125, 0.59765625, 0.81640625, -0.1015625, 0.16015625, 0.21484375}
};
